#include <math.h> 
#include <string.h> 
#include <iostream>
#include "../Model/include/k2c_include.h" 
#include "../Model/include/k2c_tensor_include.h" 
#include "./keras2c_model_CNN.h" 

 using namespace std;



void CNNModel:: keras2c_model(const k2c_tensor* conv2d_2_input_1_input, k2c_tensor* dense_5_1_output) 
{ 
size_t conv2d_2_stride[2] = {1,1}; 
size_t conv2d_2_dilation[2] = {1,1}; 
float conv2d_2_output_array[96] = {0}; 
k2c_tensor conv2d_2_output = {&conv2d_2_output_array[0],3,96,{ 3, 2,16, 1, 1}}; 
float conv2d_2_kernel_array[32] = {
+3.67445111e-01f,+1.57090068e-01f,+1.16264567e-01f,+9.93509114e-01f,-3.20625365e-01f,
+6.87225759e-01f,-1.49236500e-01f,+3.64324689e-01f,-4.18328106e-01f,-2.06837133e-01f,
+2.51155645e-01f,+9.42890123e-02f,+8.85093287e-02f,-4.67421412e-02f,+1.03587769e-01f,
+2.17891961e-01f,+6.67387724e-01f,+1.01691425e+00f,+5.59144855e-01f,+1.32839354e-02f,
-2.58284271e-01f,+3.81417503e-03f,+7.76350498e-01f,+1.47382629e+00f,-2.72777319e-01f,
+5.09674072e-01f,+5.46643734e-01f,-4.69302505e-01f,+6.46796346e-01f,-8.62622261e-02f,
+7.98201799e-01f,-5.48728049e-01f,}; 
k2c_tensor conv2d_2_kernel = {&conv2d_2_kernel_array[0],4,32,{ 1, 2, 1,16, 1}}; 
float conv2d_2_bias_array[16] = {
+4.16601956e-01f,-2.46494174e-01f,-3.57476145e-01f,+2.03762516e-01f,+0.00000000e+00f,
+2.39619821e-01f,-3.39748770e-01f,-3.37090194e-01f,+0.00000000e+00f,-2.98278898e-01f,
+2.84296393e-01f,+3.84969473e-01f,-3.36002380e-01f,+0.00000000e+00f,-3.37196618e-01f,
+3.79800022e-01f,}; 
k2c_tensor conv2d_2_bias = {&conv2d_2_bias_array[0],1,16,{16, 1, 1, 1, 1}}; 

 
size_t max_pooling2d_2_stride[2] = {1,2}; 
size_t max_pooling2d_2_pool_size[2] = {1,2}; 
float max_pooling2d_2_output_array[48] = {0}; 
k2c_tensor max_pooling2d_2_output = {&max_pooling2d_2_output_array[0],3,48,{ 3, 1,16, 1, 1}}; 
float max_pooling2d_2_padded_input_array[96] = {0}; 
k2c_tensor max_pooling2d_2_padded_input = {&max_pooling2d_2_padded_input_array[0],3,96,{ 3, 2,16, 1, 1}}; 
size_t max_pooling2d_2_pad[4] = {0,0,0,0}; 
float max_pooling2d_2_fill = -HUGE_VALF; 


float flatten_2_1_output_array[48] = {0}; 
k2c_tensor flatten_2_1_output = {&flatten_2_1_output_array[0],1,48,{48, 1, 1, 1, 1}}; 
float dense_4_output_array[64] = {0}; 
k2c_tensor dense_4_output = {&dense_4_output_array[0],1,64,{64, 1, 1, 1, 1}}; 
float dense_4_kernel_array[3072] = {
-2.21944809e-01f,+2.33071029e-01f,-5.54515868e-02f,+1.33951455e-01f,+1.22374170e-01f,
-2.30820805e-01f,+4.69437353e-02f,+1.10361129e-01f,+1.26285121e-01f,-1.30887747e-01f,
-2.89205275e-02f,-5.80194220e-03f,-2.24831030e-02f,-5.48066050e-02f,-1.50075018e-01f,
-1.28692061e-01f,-2.75241584e-02f,-1.69408277e-01f,+2.28721917e-01f,+3.97203304e-02f,
-4.90170978e-02f,-1.15613081e-01f,-1.77453473e-01f,-1.20335445e-01f,-2.18709230e-01f,
+2.30537266e-01f,+1.30745560e-01f,+2.41347849e-02f,-1.19322494e-01f,+3.95095721e-03f,
-1.91364065e-01f,+6.15190491e-02f,+4.28325534e-01f,-1.16062373e-01f,+2.03187197e-01f,
-2.36260742e-01f,+2.18338311e-01f,-2.05236241e-01f,-7.32542947e-02f,+2.48899870e-02f,
+2.95670688e-01f,-5.78533439e-03f,-1.43358231e-01f,+1.05937481e-01f,+4.02660556e-02f,
-1.91852435e-01f,+6.17923029e-02f,+7.83018172e-02f,+2.40543738e-01f,-3.45521607e-02f,
+2.76144207e-01f,-7.22939819e-02f,-1.70287207e-01f,-1.47545591e-01f,+3.25246751e-02f,
-1.63907871e-01f,-2.02131346e-01f,+1.34889334e-01f,+1.81343079e-01f,-3.15473080e-02f,
+3.12208921e-01f,-8.33698362e-03f,+3.20518851e-01f,-5.05199283e-03f,+1.53856605e-01f,
+2.39120126e-01f,+1.39674574e-01f,+1.57456979e-01f,-1.27080932e-01f,+2.74492919e-01f,
+2.17654198e-01f,+1.54784292e-01f,+1.14080578e-01f,+7.56443068e-02f,+3.22949998e-02f,
+2.07793191e-01f,+1.50865875e-03f,-3.92887741e-02f,+1.22215629e-01f,-2.07159922e-01f,
-8.41540098e-02f,-6.67788237e-02f,+1.95669353e-01f,-1.35435849e-01f,+6.58145621e-02f,
+7.22968206e-02f,+1.59366921e-01f,+2.02706590e-01f,+1.36977509e-01f,+1.12066388e-01f,
+1.13838576e-01f,+8.44719410e-02f,+2.13173270e-01f,-1.97211117e-01f,+1.38258040e-01f,
+1.94813803e-01f,+2.39805862e-01f,-1.00949459e-01f,-1.39547199e-01f,-1.01462901e-01f,
+2.01414768e-02f,+5.14140986e-02f,+5.59357181e-02f,+1.85923159e-01f,+1.32619247e-01f,
+1.81034759e-01f,-7.56216496e-02f,+2.33073235e-02f,-1.58239096e-01f,-1.84315129e-03f,
+1.13716766e-01f,+6.65576383e-02f,-4.08871770e-02f,-6.11689128e-03f,-1.42599657e-01f,
-1.06059171e-01f,+6.05829805e-02f,+1.65389076e-01f,-1.15741201e-01f,-1.80772215e-01f,
-1.74178243e-01f,+1.34454429e-01f,+1.37067661e-01f,+5.18181249e-02f,-1.96998492e-02f,
-1.74163096e-02f,+3.12806368e-01f,-6.10733172e-04f,-1.28654718e-01f,-8.83540064e-02f,
-1.90364584e-01f,-1.10687152e-01f,+1.00597128e-01f,-9.41331908e-02f,+1.57585204e-01f,
+2.12991565e-01f,-5.32537736e-02f,-7.04538673e-02f,+1.00508675e-01f,-2.02068895e-01f,
+1.15286835e-01f,+1.40733704e-01f,-1.62736326e-02f,-3.21366750e-02f,-1.18172020e-01f,
-7.10064024e-02f,-1.04270585e-01f,+2.34598070e-01f,+6.85505569e-02f,+1.46276891e-01f,
+5.64389154e-02f,+2.74450481e-01f,-1.54796228e-01f,-2.13111043e-01f,-8.57104883e-02f,
+1.88875422e-01f,+1.26909897e-01f,+2.31853530e-01f,-2.01675817e-01f,-1.07921176e-01f,
-3.84751648e-01f,-1.81392312e-01f,+5.76852188e-02f,+4.22277838e-01f,-1.59719095e-01f,
+2.70102620e-01f,+1.27011612e-01f,+2.07038701e-01f,+1.82076693e-01f,-3.42139453e-02f,
+1.21370107e-01f,-6.74337894e-02f,+1.38714224e-01f,+8.44716206e-02f,-1.08486027e-01f,
-9.56555605e-02f,+1.65727466e-01f,-6.10030331e-02f,+4.80364375e-02f,-8.36130306e-02f,
-1.02543235e-02f,+3.72723863e-02f,-2.12467596e-01f,+1.28925964e-01f,+2.57662654e-01f,
+2.02839792e-01f,-2.42035046e-01f,+8.25061575e-02f,+7.07588643e-02f,-2.33462483e-01f,
+3.46162245e-02f,+1.71977803e-01f,+3.63159478e-02f,+8.60652998e-02f,-2.18907416e-01f,
+1.33771375e-01f,+2.06069276e-03f,+3.59894591e-03f,-7.02743605e-02f,-7.07063228e-02f,
+1.84082717e-01f,+1.23730667e-01f,+7.43065327e-02f,-1.55612677e-01f,+4.74357866e-02f,
-9.51745063e-02f,+1.20705754e-01f,+2.25808397e-02f,-1.27866536e-01f,+4.38369811e-03f,
+9.29739140e-03f,+4.39646132e-02f,+1.60398290e-01f,+4.36307974e-02f,+1.26565665e-01f,
+2.21759930e-01f,-1.15430519e-01f,+1.96725130e-02f,+2.33680844e-01f,+2.77695477e-01f,
-1.95303753e-01f,+1.94321081e-01f,-5.85022271e-02f,+1.02703445e-01f,-2.05269948e-01f,
+9.35619250e-02f,-2.01982617e-01f,+2.25540362e-02f,-6.78900331e-02f,+1.85900137e-01f,
-4.83367294e-02f,+5.99606298e-02f,-1.91288635e-01f,+3.24909315e-02f,+8.94736052e-02f,
+6.93835318e-03f,-2.47812923e-03f,+4.35547009e-02f,+1.94085166e-02f,-6.26199618e-02f,
-1.99751154e-01f,+1.64318889e-01f,+4.53209318e-02f,+7.14162161e-05f,+4.95818593e-02f,
+7.57829398e-02f,-5.63391596e-02f,+2.46863484e-01f,+1.49108723e-01f,+1.01725817e-01f,
-1.18294746e-01f,-9.89160035e-03f,+1.47149369e-01f,+8.76329690e-02f,-1.04192227e-01f,
+1.25825047e-01f,-1.84254944e-02f,+3.26070189e-02f,-2.57059932e-03f,+9.16296244e-02f,
-2.06216395e-01f,-1.98095143e-01f,+1.65707529e-01f,-2.16470361e-02f,-2.41672546e-02f,
-1.99086666e-01f,-1.89433530e-01f,+1.91349447e-01f,+9.18298960e-02f,-1.20273948e-01f,
-1.22938409e-01f,+1.99734271e-02f,-1.05733171e-01f,-2.17445120e-01f,+6.98402524e-04f,
-8.07888955e-02f,+1.08378977e-01f,-6.81841224e-02f,+9.20026600e-02f,+2.02260315e-01f,
-2.60205865e-02f,-7.76117146e-02f,-6.64988756e-02f,-1.70964330e-01f,+1.77991807e-01f,
-1.45537913e-01f,+9.63721275e-02f,+2.09071010e-01f,+1.91331238e-01f,+1.75700635e-01f,
-6.22290224e-02f,-2.74462402e-02f,+1.66621864e-01f,+1.15280867e-01f,+1.33558482e-01f,
-2.25616992e-02f,+5.44694960e-02f,-1.24931738e-01f,+7.59448111e-03f,-1.82628959e-01f,
+8.51739645e-02f,-1.55555427e-01f,+9.90634561e-02f,-1.00596398e-01f,+2.30897456e-01f,
+6.15297556e-02f,+1.86995387e-01f,-4.98998314e-02f,+2.19965577e-02f,-8.42260271e-02f,
-6.77673668e-02f,+1.66323096e-01f,+1.47275180e-01f,+5.73563576e-02f,-4.32936847e-02f,
+1.01279289e-01f,-8.04183930e-02f,-2.16533601e-01f,+7.75360167e-02f,-1.62491396e-01f,
-9.04268026e-02f,+1.99615732e-01f,+1.71552092e-01f,-1.41108200e-01f,-4.60726582e-02f,
+2.03894928e-01f,+3.14747281e-02f,+2.08943874e-01f,-1.57629892e-01f,-3.32372598e-02f,
+2.21406862e-01f,+3.64659317e-02f,-1.81117579e-01f,+9.77007300e-02f,+2.79904902e-03f,
+1.18554793e-01f,-1.44230127e-01f,-5.95674217e-02f,+1.93039477e-01f,-1.44705176e-01f,
+1.82722077e-01f,-7.37638846e-02f,+3.48105222e-01f,+2.01211318e-01f,+8.83016139e-02f,
-1.33778214e-01f,+1.78642705e-01f,-5.90260476e-02f,-1.73157379e-01f,-1.21623860e-03f,
-2.09441632e-02f,+8.01110864e-02f,+7.18059912e-02f,+1.45910814e-01f,+1.69286266e-01f,
-2.06473395e-01f,+1.49080381e-01f,-1.20035969e-01f,+7.39557520e-02f,-7.80069157e-02f,
-1.45748466e-01f,-3.17140855e-02f,+8.17444921e-03f,-1.22384131e-02f,+1.15027212e-01f,
-1.67730719e-01f,+1.14063554e-01f,-2.35695347e-01f,+1.11563750e-01f,+2.22597480e-01f,
+2.06331179e-01f,+2.73921378e-02f,+1.54192910e-01f,+5.15882932e-02f,-1.80794775e-01f,
-1.86619133e-01f,+1.13687500e-01f,-8.92168581e-02f,-3.05258900e-01f,-1.14188574e-01f,
+2.07533643e-01f,+1.20353565e-01f,+1.36641383e-01f,+6.37177974e-02f,+1.25329733e-01f,
+2.23429382e-01f,-1.94951847e-01f,+1.60058085e-02f,-2.93605421e-02f,-1.10233717e-01f,
+1.61672309e-01f,-1.80642799e-01f,+2.15314552e-01f,-8.69780332e-02f,-1.85412318e-01f,
+2.38884732e-01f,-3.41302156e-02f,-4.31190431e-02f,-1.04730338e-01f,+1.41959384e-01f,
+7.49677718e-02f,+1.54380143e-01f,+1.41057121e-02f,-4.13635969e-02f,+5.71360870e-04f,
+2.36203633e-02f,-1.42924026e-01f,+1.80235073e-01f,+1.06790371e-01f,+2.64039934e-02f,
+3.63601297e-02f,+8.48874375e-02f,+3.04235071e-01f,-1.00580543e-01f,-1.29454717e-01f,
+2.23586664e-01f,-3.59691828e-02f,+3.30039337e-02f,+8.23469833e-02f,-1.08226694e-01f,
-4.84543946e-03f,+1.81105897e-01f,-1.62338004e-01f,-1.03991203e-01f,+2.52422452e-01f,
-1.55473799e-01f,+6.94816411e-02f,-3.82788628e-02f,+1.96828634e-01f,+7.88844451e-02f,
-2.10051507e-01f,+7.14167114e-03f,-9.86060798e-02f,+1.39262512e-01f,+1.21776506e-01f,
+1.27861798e-01f,+1.50624767e-01f,-9.28579420e-02f,-4.17699665e-02f,-1.79712251e-01f,
-7.70483613e-02f,-2.18261510e-01f,-3.81636359e-02f,+1.59415781e-01f,+1.66922100e-02f,
+6.36042655e-02f,-2.19327975e-02f,+5.83184622e-02f,+7.99335539e-02f,+1.55270621e-01f,
-5.40686995e-02f,-1.33710533e-01f,+5.42592742e-02f,-1.16568007e-01f,+6.65447861e-02f,
-1.10994399e-01f,+3.09159025e-03f,+1.48993388e-01f,+1.42539784e-01f,-1.64854139e-01f,
-6.14690110e-02f,+1.03010744e-01f,-8.18949342e-02f,-3.08961067e-02f,+9.47807431e-02f,
-2.26197287e-01f,-4.65342291e-02f,+8.74883682e-02f,-1.57807767e-02f,+1.02438349e-02f,
+6.28484040e-02f,-1.75686568e-01f,+8.31168294e-02f,+4.36260700e-02f,+7.86327049e-02f,
-2.09565967e-01f,+6.35296702e-02f,+2.67541073e-02f,-1.84268802e-02f,+1.33704871e-01f,
+2.81182915e-01f,-5.71798487e-03f,-1.85496613e-01f,+1.19155794e-01f,+3.79800946e-02f,
-7.79691711e-02f,-1.56775519e-01f,+1.59750745e-01f,+2.28430722e-02f,-6.74250349e-02f,
-2.12800190e-01f,-2.29650974e-01f,-2.33182590e-02f,+1.68899953e-01f,-1.63743898e-01f,
+1.33936375e-01f,-5.02905669e-03f,+1.52027041e-01f,+2.24473283e-01f,-8.77227560e-02f,
-4.71312627e-02f,+1.59037739e-01f,-6.76749647e-03f,+1.99323565e-01f,-5.81115521e-02f,
-2.10705653e-01f,-1.44246817e-01f,-1.97268680e-01f,+1.59028634e-01f,-1.05246074e-01f,
+2.27986813e-01f,-1.69904739e-01f,+2.22693712e-01f,-1.49356917e-01f,+1.08797789e-01f,
+1.30066186e-01f,-1.28244609e-01f,-1.36553317e-01f,+1.78340048e-01f,-1.03628650e-01f,
-4.94239330e-02f,-5.90584129e-02f,-9.42585468e-02f,+1.85905904e-01f,+9.81874168e-02f,
+1.28487021e-01f,+2.01119304e-01f,+6.21773303e-02f,-9.14519429e-02f,+1.33830249e-01f,
-6.19566888e-02f,-6.49771094e-03f,+6.63562417e-02f,+1.59988284e-01f,-8.72063637e-02f,
-2.16809213e-02f,-2.55585313e-02f,+2.78030932e-02f,-7.41399229e-02f,+1.59673691e-02f,
+2.04534233e-02f,-2.21716017e-02f,-1.49417341e-01f,+1.54607803e-01f,-1.07202485e-01f,
-1.62100643e-01f,+4.12430763e-02f,-2.27247968e-01f,-2.17364386e-01f,+1.19272798e-01f,
-2.06035614e-01f,+2.01246053e-01f,-1.80905804e-01f,-1.41339123e-01f,+1.40909523e-01f,
+8.14650655e-02f,-1.58338755e-01f,+2.22930610e-01f,+1.75779611e-01f,+1.39308840e-01f,
+1.25391632e-01f,-1.18129089e-01f,+2.29444593e-01f,-2.20695913e-01f,+3.29578817e-02f,
-3.66604328e-03f,-2.12427765e-01f,-2.27152899e-01f,+1.72087759e-01f,+1.09455615e-01f,
-1.43509269e-01f,+1.89312965e-01f,+4.27668989e-02f,+1.52182013e-01f,+6.49721324e-02f,
+3.81425023e-02f,-6.93908036e-02f,-5.33101223e-02f,+7.29326904e-02f,+2.64181167e-01f,
+2.83431619e-01f,+1.53647378e-01f,-1.98374182e-01f,-2.45710313e-02f,-1.16502866e-01f,
+1.23319089e-01f,+2.79851500e-02f,-1.42581448e-01f,+6.64551705e-02f,+2.68911451e-01f,
-6.77636266e-02f,-5.53842969e-02f,-2.14550927e-01f,+2.08992094e-01f,+2.37686336e-01f,
+1.85677886e-01f,+1.60861030e-01f,-1.38736472e-01f,-5.95479190e-01f,-2.22790107e-01f,
+9.21995714e-02f,-3.20665091e-02f,-1.86726585e-01f,+6.16369732e-02f,+6.05421960e-01f,
+3.03951930e-02f,-1.99069351e-01f,-5.65042496e-02f,-7.30148554e-01f,+1.16948962e-01f,
-1.33036837e-01f,+7.27446452e-02f,+3.56054045e-02f,-2.43602991e-01f,-5.91057613e-02f,
-4.12239097e-02f,-1.04948856e-01f,+1.59741759e-01f,-2.05458954e-01f,-1.18208714e-01f,
-2.06098899e-01f,+7.12753981e-02f,+1.58613682e-01f,+2.39627346e-01f,+1.26233160e-01f,
+1.66139275e-01f,-4.14548442e-02f,-1.50443092e-01f,-9.66402292e-02f,-9.52069014e-02f,
+8.62709582e-02f,-5.13774212e-05f,+2.21814081e-01f,-1.78576902e-01f,+2.39700094e-01f,
+1.30622340e-02f,-1.45989239e-01f,-1.96306065e-01f,-2.81800956e-01f,+2.58200150e-02f,
-4.01879847e-02f,-1.67286232e-01f,+1.61814064e-01f,+2.51140147e-01f,-2.73753971e-01f,
+9.01274383e-02f,-7.68663362e-02f,+2.20533788e-01f,-1.24852858e-01f,+2.57711619e-01f,
+1.53090373e-01f,-1.13720000e-01f,+9.07427520e-02f,-2.02672243e-01f,-4.63285893e-02f,
+7.70804379e-03f,-8.53885263e-02f,+1.24191076e-01f,+2.22641155e-01f,+1.54390693e-01f,
-2.41079137e-01f,-4.74923216e-02f,+2.27922231e-01f,-2.36659646e-01f,-3.93381529e-02f,
-6.88727945e-02f,+6.36395160e-03f,+6.81323931e-03f,+7.72316521e-03f,-2.29808465e-01f,
+1.86819166e-01f,+2.50640482e-01f,+1.64250121e-01f,+9.64206178e-03f,+5.41250743e-02f,
+9.27496254e-02f,-1.59384564e-01f,+7.36454874e-02f,-9.15064365e-02f,-9.00717676e-02f,
+2.78081059e-01f,+1.72047615e-01f,-1.12868197e-01f,-3.40503901e-02f,+8.76129791e-02f,
+5.86175136e-02f,-1.13212444e-01f,+2.65138149e-01f,+3.03486466e-01f,-1.69351742e-01f,
+2.09823713e-01f,-1.82560250e-01f,-2.60267049e-01f,+2.17700243e-01f,+3.55707407e-02f,
-1.74326867e-01f,+1.69856578e-01f,-1.59657568e-01f,-3.40900347e-02f,-1.33626595e-01f,
+8.90489891e-02f,-1.55607209e-01f,+2.97714353e-01f,-5.57436720e-02f,+1.39330745e-01f,
+8.32471922e-02f,+7.97567964e-02f,-8.86633154e-03f,+8.74910280e-02f,-1.66068658e-01f,
+1.26509652e-01f,-8.14909935e-02f,+1.11806002e-02f,-2.22389266e-01f,-1.84049606e-01f,
+9.66072921e-03f,+1.99303925e-01f,-1.46714762e-01f,-2.09514305e-01f,+5.85340001e-02f,
+2.12076694e-01f,-5.70078641e-02f,+8.55402350e-02f,-2.91579682e-03f,+2.32929930e-01f,
+3.37659083e-02f,-5.02788067e-01f,+2.16499165e-01f,+9.45121944e-02f,-1.62884802e-01f,
-1.56479195e-01f,+1.35856405e-01f,+1.92701608e-01f,-2.57275347e-02f,-2.16034919e-01f,
-3.70303541e-02f,+4.44057226e-01f,-1.99327394e-01f,-1.72860160e-01f,-2.03093395e-01f,
-2.04440489e-01f,+8.14108402e-02f,+1.27563151e-02f,+2.41219640e-01f,-4.16859798e-03f,
+1.74813837e-01f,+1.35700673e-01f,-1.87379062e-01f,+2.03441054e-01f,+2.40731895e-01f,
-3.02213784e-02f,+5.29552028e-02f,-1.22344024e-01f,+6.08092993e-02f,+1.08111110e-02f,
-1.00873314e-01f,-3.49784666e-03f,-4.54092547e-02f,-9.16342586e-02f,+6.67871833e-02f,
+1.28663614e-01f,-9.28883553e-02f,+4.02944267e-01f,+1.50873056e-02f,-4.33573453e-03f,
-1.15232915e-01f,+4.72525209e-01f,+2.66585201e-02f,-2.24977180e-01f,+1.19342275e-01f,
+3.99783850e-02f,+9.64350104e-02f,+1.86132029e-01f,+8.06907415e-02f,-1.68129683e-01f,
+7.32809901e-02f,+1.09080300e-01f,-1.17546014e-01f,-1.37036815e-01f,-9.29632485e-02f,
-2.02210963e-01f,+2.36798659e-01f,-1.30837560e-01f,+1.77702665e-01f,-9.42756087e-02f,
-1.32605404e-01f,-6.78532105e-03f,+2.55647093e-01f,+2.01410204e-01f,+4.05937014e-03f,
-1.16934299e-01f,-1.65250272e-01f,+7.67975301e-02f,+1.48131967e-01f,+8.80495384e-02f,
+1.87484905e-01f,+2.05186129e-01f,+1.95613608e-01f,-8.64910781e-02f,+1.35471240e-01f,
-1.23750001e-01f,-9.08925086e-02f,+5.49802817e-02f,-4.24569361e-02f,+9.46200117e-02f,
+2.23073468e-01f,-3.34149241e-01f,-8.18634853e-02f,-1.14160441e-01f,+7.75648355e-02f,
-4.86652702e-02f,-4.67508584e-02f,+9.12509039e-02f,+1.54877231e-01f,+2.45699778e-01f,
+5.71884066e-02f,+1.98406816e-01f,+2.41039708e-01f,-3.86002362e-02f,+2.35101372e-01f,
-7.13890493e-02f,+4.38192580e-03f,-1.44864559e-01f,-4.55934145e-02f,+1.50740638e-01f,
-7.47876614e-02f,+1.07334420e-01f,-9.58915427e-02f,+1.20204361e-02f,+1.02919824e-01f,
+1.00207314e-01f,-1.45027921e-01f,-1.97270513e-02f,-1.62286013e-01f,+3.36762071e-02f,
-1.45872921e-01f,+1.34000748e-01f,-1.23445600e-01f,-5.96786141e-02f,-1.82257295e-02f,
+1.68403566e-01f,-6.28371537e-03f,+1.52414173e-01f,+1.05696589e-01f,-1.95935279e-01f,
-3.62412781e-02f,+1.15887374e-01f,+2.94330418e-02f,+6.03848100e-02f,+1.67417556e-01f,
+2.18709260e-01f,-8.35959464e-02f,+1.48245096e-01f,+1.81471825e-01f,-1.50164306e-01f,
-1.77520871e-01f,-5.40859103e-02f,+1.78848743e-01f,+8.98010135e-02f,-5.04759997e-02f,
-1.90957963e-01f,+1.10685647e-01f,+9.46142673e-02f,-8.16554874e-02f,-2.18112782e-01f,
-8.39544684e-02f,+2.02697188e-01f,+1.68749928e-01f,+2.12246269e-01f,+1.09098583e-01f,
-1.80594683e-01f,-4.28555310e-02f,+6.61934912e-02f,+5.63290715e-02f,+1.38785958e-01f,
-8.30917954e-02f,+1.19332314e-01f,-2.66109407e-03f,-9.31764096e-02f,+2.04202533e-02f,
+1.99590385e-01f,+2.79326737e-03f,+7.12691844e-02f,-4.18031365e-02f,-7.69794881e-02f,
+3.85774970e-02f,-1.60315692e-01f,-2.15055257e-01f,-1.31631315e-01f,+1.70883536e-02f,
-9.54745710e-03f,+2.27869213e-01f,+2.53268778e-02f,+1.67388797e-01f,+7.41888583e-03f,
-9.44526941e-02f,-7.95919150e-02f,-5.07117659e-02f,-2.20692813e-01f,+7.13963211e-02f,
+2.60492802e-01f,+2.33206689e-01f,+1.24401711e-02f,+1.87769443e-01f,+4.33518784e-03f,
+9.61375535e-02f,+8.79730210e-02f,+5.16774505e-02f,+8.57657567e-02f,+2.76222497e-01f,
-1.45310000e-01f,+1.46067768e-01f,+6.53760135e-03f,-1.20043173e-01f,-2.90389173e-02f,
-4.06899601e-02f,+2.38993928e-01f,+6.87707216e-02f,-9.61820856e-02f,-1.77571818e-01f,
-6.80137798e-02f,-2.03142077e-01f,+6.35569468e-02f,+1.13117397e-01f,+4.08239178e-02f,
-1.04942150e-01f,-3.87593955e-02f,-1.09773591e-01f,+1.07387438e-01f,-1.54364645e-01f,
-1.28778905e-01f,+3.31863731e-01f,-4.49496098e-02f,+2.63340622e-01f,-3.52757603e-01f,
-1.84913307e-01f,-2.50979774e-02f,+3.78919803e-02f,-1.46175504e-01f,-1.47430688e-01f,
-4.82192822e-03f,-1.88352913e-02f,-1.13917306e-01f,-5.42388633e-02f,-2.19577208e-01f,
+1.60900816e-01f,+1.94180191e-01f,-7.45612103e-03f,+2.33988047e-01f,-1.54404506e-01f,
+1.83070749e-02f,-1.33230448e-01f,+1.36962876e-01f,-1.48008019e-01f,-1.69181317e-01f,
+1.14353225e-01f,+1.99615300e-01f,-2.59375900e-01f,+1.94309488e-01f,+2.00812832e-01f,
+9.67707038e-02f,+8.26985538e-02f,-1.84843227e-01f,-1.24536239e-01f,-2.38049775e-01f,
+6.87828064e-02f,-7.52124889e-03f,-1.60411328e-01f,-2.04000250e-01f,-7.81742558e-02f,
+1.66108966e-01f,-1.42839685e-01f,-8.64033476e-02f,-2.96783149e-02f,+3.21695209e-03f,
+2.69613266e-02f,-1.95514604e-01f,+1.95305914e-01f,+5.92734627e-02f,+1.84620306e-01f,
+1.95582286e-01f,+2.26697296e-01f,-5.65765321e-01f,+2.11977467e-01f,+6.16709366e-02f,
+1.79404438e-01f,-9.53474641e-02f,+2.69581854e-01f,+2.46945068e-01f,+3.24848682e-01f,
+1.64135456e-01f,+1.79279789e-01f,+4.42375153e-01f,-7.03504458e-02f,+9.17679220e-02f,
-2.89036721e-01f,-1.23060837e-01f,-1.61439583e-01f,-1.08354330e-01f,+1.41315222e-01f,
+6.08094735e-03f,+1.07482538e-01f,-1.82932615e-01f,+1.27730727e-01f,+2.11346462e-01f,
+8.07051957e-02f,-7.47602731e-02f,+9.10866335e-02f,-7.46174753e-02f,+1.01866916e-01f,
-8.75241011e-02f,+1.95812080e-02f,-7.49184117e-02f,+1.86052054e-01f,-4.28050458e-02f,
+1.83629170e-01f,+3.89760643e-01f,-1.77671239e-01f,+2.31722444e-01f,-1.51253775e-01f,
+8.01589936e-02f,-1.99385528e-02f,+3.66452008e-01f,+1.51638761e-01f,-1.95577234e-01f,
+2.70173967e-01f,-2.20091432e-01f,+4.81581986e-02f,-1.27385557e-01f,+7.66345114e-02f,
+1.32294714e-01f,-1.49539620e-01f,+3.13997835e-01f,-8.76022726e-02f,+2.22351536e-01f,
+1.86499611e-01f,-4.35094647e-02f,-2.24288225e-01f,+9.07157362e-02f,-4.79642563e-02f,
+1.41417593e-01f,-1.93573534e-01f,-7.65822008e-02f,-2.35188425e-01f,+1.48647249e-01f,
+9.46534611e-03f,+1.17680594e-01f,-2.05441043e-01f,+1.27882048e-01f,+1.49049103e-01f,
-9.91895199e-02f,-9.91653353e-02f,-1.30595893e-01f,+1.19726127e-02f,-1.52846873e-01f,
+2.63285160e-01f,+5.02675653e-01f,+7.00777769e-02f,+2.55671024e-01f,-2.90454086e-02f,
+2.85016835e-01f,-1.12751238e-01f,-2.37700775e-01f,+1.50311783e-01f,-1.29812464e-01f,
+2.01371521e-01f,+8.16822946e-02f,+1.78304404e-01f,-2.83515990e-01f,-9.70286503e-02f,
+1.00475423e-01f,+1.45089194e-01f,+3.14378925e-02f,+7.34990239e-02f,-4.45055999e-02f,
+9.42140147e-02f,-4.71832529e-02f,+1.25783175e-01f,-1.33022085e-01f,+1.43295750e-01f,
+8.30587074e-02f,-1.40624940e-02f,+7.16941878e-02f,-1.28723323e-01f,+1.39039919e-01f,
-2.08603039e-01f,+4.01477367e-01f,-4.60281856e-02f,-1.79724604e-01f,+2.68442273e-01f,
+9.74451005e-02f,-6.49606436e-02f,+3.41503359e-02f,-8.27485882e-03f,+9.33099166e-02f,
-1.74692780e-01f,+1.95381176e-02f,+2.32523620e-01f,+1.95188880e-01f,+2.07631007e-01f,
-1.02801293e-01f,-1.86288744e-01f,+1.68907106e-01f,+1.24140762e-01f,+1.74273491e-01f,
-2.89319307e-02f,-1.22207418e-01f,-1.61856471e-03f,-9.64075848e-02f,+6.47312999e-02f,
-2.67227352e-01f,-6.16561547e-02f,-1.44749895e-01f,-1.70635998e-01f,+1.40386984e-01f,
+7.87238032e-02f,+1.41594976e-01f,-1.95396498e-01f,+2.34164298e-03f,-4.54215631e-02f,
+1.79064065e-01f,-1.19711280e-01f,+1.63104728e-01f,-1.00654483e-01f,+5.63955083e-02f,
-7.27709979e-02f,-2.10384339e-01f,-2.07899749e-01f,-1.13509834e-01f,+6.95155486e-02f,
+1.44847184e-01f,-2.07154721e-01f,-7.78510943e-02f,-1.96977660e-01f,-4.31575589e-02f,
+2.35885426e-01f,-8.32152739e-02f,-2.52614617e-01f,+4.51631770e-02f,-2.64847547e-01f,
-2.54690722e-02f,+1.16103627e-01f,+3.25632095e-02f,-4.05218266e-02f,-2.15004697e-01f,
-2.09405273e-02f,+2.00786874e-01f,-2.40213454e-01f,-1.30827621e-01f,-4.64199856e-02f,
-4.30078730e-02f,+1.21486023e-01f,-1.13714434e-01f,-3.07088587e-02f,+2.88833082e-02f,
+2.22345486e-01f,+3.04904789e-01f,+2.85110176e-01f,-8.23642686e-02f,+1.84840918e-01f,
+1.07655227e-02f,+6.45310283e-02f,-3.15548219e-02f,-2.23217562e-01f,-6.86579049e-02f,
+1.66000754e-01f,+1.03542626e-01f,+2.29741894e-02f,-1.39491051e-01f,+3.97447050e-02f,
-2.08418772e-01f,+2.18605727e-01f,+1.56793147e-01f,-2.83511840e-02f,-1.37974232e-01f,
+1.06934823e-01f,+2.31848985e-01f,-3.84682417e-03f,+1.11710288e-01f,+2.15093806e-01f,
-1.01003170e-01f,+2.34806433e-01f,+2.05658883e-01f,-1.90281540e-01f,-3.47088248e-01f,
-1.31824791e-01f,+1.14241317e-01f,+8.19890946e-02f,-1.43500581e-01f,-1.17205344e-02f,
-5.52269779e-02f,+1.27799949e-02f,+1.06158063e-01f,-1.15021206e-01f,-1.67246699e-01f,
+1.18401080e-01f,+2.25114256e-01f,+8.80191401e-02f,+1.66376531e-01f,+5.51547445e-02f,
-2.05942929e-01f,+1.65773317e-01f,-2.26804554e-01f,+1.24173112e-01f,+9.23036933e-02f,
+7.15350434e-02f,+1.24768436e-01f,+2.75968671e-01f,-1.10102162e-01f,-5.56903630e-02f,
-1.01852370e-02f,-6.33736420e-03f,-1.41517967e-01f,+6.59258366e-02f,-1.82605132e-01f,
-6.56743646e-02f,+1.87666357e-01f,-2.63127476e-01f,-1.85601503e-01f,-3.03646419e-02f,
+1.85735524e-03f,+2.71122217e-01f,+8.41002017e-02f,-9.86400992e-02f,+5.34272902e-02f,
-8.20450932e-02f,+1.33632794e-01f,+8.68624076e-02f,+1.80635631e-01f,+7.88704976e-02f,
-2.79756635e-02f,-8.99138898e-02f,-5.37688881e-02f,+1.45399570e-01f,+3.50595303e-02f,
+2.43941545e-01f,-1.42573729e-01f,-1.10082179e-01f,-3.70968193e-01f,+6.11417834e-03f,
+1.70018315e-01f,-6.19941652e-02f,+9.44454595e-02f,+2.52329379e-01f,-8.56241807e-02f,
+1.73396125e-01f,-1.12552717e-01f,+1.19177677e-01f,-1.09614156e-01f,-3.96978557e-02f,
-1.10711917e-01f,-3.77924703e-02f,-2.78130591e-01f,+3.58392857e-02f,-3.26191306e-01f,
+1.72657508e-03f,+6.33440167e-02f,-1.29597737e-02f,+2.02506989e-01f,+2.01882809e-01f,
+1.61594078e-02f,-1.40034914e-01f,+1.29189834e-01f,+1.11041777e-01f,+7.05712363e-02f,
+1.60409778e-01f,-2.03056246e-01f,+4.52742241e-02f,+1.17698662e-01f,-1.29821092e-01f,
-2.24763408e-01f,-1.99398082e-02f,-1.17322385e-01f,+7.51700997e-02f,+2.50439078e-01f,
-1.65748805e-01f,+7.42544308e-02f,+3.71311963e-01f,-1.44717380e-01f,+3.78391705e-02f,
+1.94164813e-02f,+2.85453200e-02f,+8.51601064e-02f,-1.89897418e-02f,+2.20446914e-01f,
-2.00721249e-01f,-4.68681753e-02f,+2.24334002e-02f,-2.13140562e-01f,-9.69371498e-02f,
+1.81777984e-01f,-8.02655965e-02f,-1.61567464e-01f,+9.38619077e-02f,-6.48815185e-02f,
+1.90922201e-01f,+3.61627638e-02f,-1.82403624e-02f,+1.32312715e-01f,-1.36743337e-02f,
-5.77079803e-02f,+2.27399468e-02f,-7.26100206e-02f,+2.28893250e-01f,-1.25052974e-01f,
-1.90527201e-01f,+2.10871816e-01f,-2.14458004e-01f,-1.46125495e-01f,-4.05114591e-02f,
+1.60694510e-01f,-2.25324184e-01f,-1.10612087e-01f,+8.56266916e-02f,+9.43976641e-02f,
+1.09121084e-01f,+1.59202933e-01f,+2.12053448e-01f,-1.75286114e-01f,+9.78380144e-02f,
+3.88894677e-02f,+9.05662477e-02f,+1.11089647e-01f,-4.35982943e-02f,+9.59959924e-02f,
+2.30091244e-01f,+2.02842981e-01f,+8.48164260e-02f,-3.36314440e-02f,+1.00559264e-01f,
-8.55040550e-03f,-6.34880215e-02f,-1.82177991e-01f,+1.47717804e-01f,+4.73902524e-02f,
+7.56911337e-02f,-3.84992659e-02f,+8.94034207e-02f,-2.30997890e-01f,-8.15176964e-03f,
+6.73123300e-02f,-2.05507785e-01f,+1.57817215e-01f,+1.45342618e-01f,+4.47973609e-02f,
+1.11324735e-01f,+6.24131262e-02f,+1.96152121e-01f,+7.43632391e-02f,-7.54029825e-02f,
-2.46432066e-01f,-9.00286585e-02f,+1.59700289e-01f,+1.33919016e-01f,-1.77149214e-02f,
+3.39841507e-02f,-1.85081452e-01f,-9.52459350e-02f,-1.89540595e-01f,-2.48922512e-01f,
+4.53154445e-02f,-1.75605237e-01f,+5.01779094e-02f,+1.32915303e-01f,-5.25452197e-02f,
+1.35532483e-01f,-6.83173984e-02f,+2.71644920e-01f,+2.46915162e-01f,+7.14543760e-02f,
-1.18734762e-01f,-1.60730064e-01f,-3.23818117e-01f,-2.01649100e-01f,-1.77822441e-01f,
-9.98696163e-02f,-2.62045991e-02f,+5.30195348e-02f,+1.59381717e-01f,+2.51118958e-01f,
+1.77136019e-01f,-7.34120086e-02f,-1.53817028e-01f,-3.84207554e-02f,+1.94496825e-01f,
-1.28131211e-01f,+1.25312984e-01f,-2.90483087e-02f,-1.22795654e-02f,-1.78214647e-02f,
-4.84782867e-02f,-7.22522885e-02f,+1.81594193e-01f,-8.33520070e-02f,-1.35996146e-04f,
-5.09677120e-02f,-1.70676678e-01f,+1.57297626e-01f,-5.51362336e-03f,-1.44310609e-01f,
+1.56938940e-01f,-1.85040846e-01f,+2.36214027e-01f,+2.09350716e-02f,-1.59280643e-01f,
+1.88571751e-01f,+1.91996783e-01f,+1.50132760e-01f,+2.02389926e-01f,-7.55627081e-02f,
-3.17799449e-02f,+1.34704232e-01f,-1.37350811e-02f,+7.94985741e-02f,-8.77192542e-02f,
-3.71112972e-02f,-7.66437948e-02f,-7.89404437e-02f,-1.04946606e-01f,-8.99252668e-02f,
+1.14707343e-01f,+1.51210785e-01f,-1.41928881e-01f,+1.57963425e-01f,-1.79777190e-01f,
-2.24603534e-01f,-1.69622898e-01f,+4.04283442e-02f,+1.04133114e-01f,-2.23208621e-01f,
-1.16504632e-01f,+1.43283501e-01f,+1.36498556e-01f,+1.04230493e-01f,-2.11579531e-01f,
-1.81152627e-01f,+2.18213409e-01f,+5.28959893e-02f,-2.18739942e-01f,+2.80020624e-01f,
+2.52507534e-02f,+2.49087945e-01f,+2.68743962e-01f,-7.59632364e-02f,+1.21339532e-02f,
-1.10037781e-01f,-4.28376235e-02f,-2.23455966e-01f,-9.89934281e-02f,-1.26401171e-01f,
-8.46184790e-03f,+8.35010409e-02f,+1.28825381e-01f,+1.65020600e-02f,-1.27194077e-01f,
+1.64719522e-02f,+1.57829657e-01f,-1.39892131e-01f,+1.75826430e-01f,+1.64687082e-01f,
-1.27471179e-01f,+6.37682620e-03f,-3.67223024e-02f,+8.66742581e-02f,+7.42496252e-02f,
-1.66813672e-01f,-2.03264914e-02f,+1.11670114e-01f,+9.79099646e-02f,-1.28878638e-01f,
+4.36577685e-02f,-1.06354550e-01f,+2.30973899e-01f,+2.35658765e-01f,+6.27301335e-02f,
+6.32836372e-02f,-6.81272671e-02f,-1.17901430e-01f,+3.95268463e-02f,-2.21998349e-01f,
-1.10353483e-02f,+9.07223821e-02f,+1.37191296e-01f,-1.32805541e-01f,+1.22123435e-01f,
+1.75321013e-01f,-2.67498791e-02f,-1.50610924e-01f,-7.30764419e-02f,-9.24461186e-02f,
+1.56912968e-01f,-1.38201401e-01f,-1.84566706e-01f,-2.07767293e-01f,-1.31411612e-01f,
+1.07021406e-01f,-3.37784663e-02f,-3.90861928e-02f,-1.00763654e-02f,-8.24305564e-02f,
-8.02420825e-03f,-4.08590995e-02f,+2.00009018e-01f,-7.43953511e-02f,-4.64983806e-02f,
+4.26901244e-02f,+4.10153717e-02f,+9.26395357e-02f,+1.83928207e-01f,-9.94049013e-03f,
+8.57776031e-02f,-2.88631059e-02f,+1.20564308e-02f,-1.26524623e-02f,-7.16971308e-02f,
+1.02427810e-01f,-1.92414239e-01f,+1.92849323e-01f,-1.40088350e-02f,-1.27677480e-02f,
+7.87729248e-02f,-4.47189286e-02f,+1.84388403e-02f,-1.35344282e-01f,+1.00208506e-01f,
-1.60183590e-02f,+1.48824275e-01f,+1.04554959e-01f,+3.16127203e-02f,-1.97881743e-01f,
+4.68308516e-02f,-8.68973434e-02f,-9.44114104e-03f,+1.28266811e-01f,+2.99837291e-01f,
-7.33927637e-02f,-1.45138502e-01f,-9.67676193e-02f,+1.02076352e-01f,-2.27629557e-01f,
+5.91533780e-02f,+9.54454839e-02f,+1.73885226e-01f,+1.70042604e-01f,+1.80601627e-01f,
+1.41043305e-01f,-1.14072628e-01f,-3.59890312e-02f,-1.00745395e-01f,+2.26617575e-01f,
-1.93229973e-01f,-1.38033211e-01f,+1.79014742e-01f,+4.11799550e-02f,-1.11530721e-02f,
-1.59270525e-01f,+1.78773135e-01f,+6.63747191e-02f,+1.15615010e-01f,+1.05158269e-01f,
+8.89052451e-02f,-7.34664500e-03f,+1.37504131e-01f,-1.59659505e-01f,+1.33786857e-01f,
+2.06452787e-01f,+8.84842277e-02f,+1.32626146e-01f,+1.14536047e-01f,-4.93338108e-02f,
+7.66293406e-02f,+1.35187149e-01f,-2.90107876e-02f,+4.32220697e-02f,-1.92458898e-01f,
+1.62768304e-01f,-1.86999902e-01f,-1.35310471e-01f,-5.74430972e-02f,-4.79523093e-02f,
-1.19407848e-01f,+1.26628220e-01f,+1.20817900e-01f,+4.71339524e-02f,+1.45841390e-02f,
-1.76243603e-01f,-1.85015455e-01f,+1.56839162e-01f,-8.59566033e-03f,-1.76071584e-01f,
-7.40453452e-02f,-3.01528126e-02f,+2.30062157e-01f,+1.28104389e-02f,+1.96359783e-01f,
+1.78698599e-02f,+8.29149485e-02f,+8.37889314e-02f,+9.40486789e-02f,-1.41161770e-01f,
-6.13672286e-02f,-2.74135530e-01f,+1.89354956e-01f,-1.39931023e-01f,+4.94410038e-01f,
+3.34724873e-01f,+5.46698049e-02f,+1.99508071e-02f,-1.14717565e-01f,+8.82090405e-02f,
-9.33581206e-04f,-3.13421071e-01f,+8.35193992e-02f,+4.80971754e-01f,-2.08759844e-01f,
-2.39552364e-01f,+8.32619667e-02f,+5.60110807e-02f,-2.68396348e-01f,+1.22686736e-02f,
-1.53212935e-01f,+8.74584913e-02f,+2.81888396e-02f,+3.13280821e-02f,+2.49465674e-01f,
-1.57927185e-01f,+2.57165819e-01f,-1.04116581e-01f,+7.10482657e-01f,-5.63953519e-02f,
-7.98698664e-02f,+1.13308519e-01f,-6.47398055e-01f,+1.19564369e-01f,-2.26835117e-01f,
+2.12371543e-01f,-1.09909900e-01f,+9.51511562e-02f,-1.08307293e-02f,-3.40850092e-02f,
-2.46596783e-01f,+1.03938892e-01f,+3.07193100e-02f,+6.97277486e-02f,+1.51889458e-01f,
+9.93926823e-02f,+2.33079895e-01f,-6.88290074e-02f,-1.17682464e-01f,-1.47437200e-01f,
-2.08995700e-01f,+2.52763301e-01f,-5.65476064e-03f,+5.95347174e-02f,-8.37372690e-02f,
+1.38888374e-01f,+9.69164893e-02f,+1.37650073e-02f,+7.46121228e-01f,-1.82912022e-01f,
+4.91285138e-02f,-3.86632830e-01f,-2.82102674e-01f,-6.89347684e-02f,+1.01262182e-02f,
-3.72967273e-02f,-1.60434827e-01f,+3.29011269e-02f,+8.55491757e-02f,+4.73430529e-02f,
+1.70924470e-01f,-1.32355258e-01f,-7.62748793e-02f,-5.92302978e-02f,-3.28602232e-02f,
+6.23085909e-02f,-2.28216991e-01f,-1.87905412e-03f,-5.94499409e-02f,+1.51160872e-02f,
-1.71288863e-01f,+9.48923826e-03f,-1.29457086e-01f,-2.09242746e-01f,+4.94191647e-02f,
+6.38310239e-02f,+4.93961088e-02f,-8.47981498e-02f,+8.94039944e-02f,+2.50993967e-02f,
-9.40090120e-02f,-7.29308724e-02f,-1.32793814e-01f,-1.75235718e-01f,-1.38575062e-01f,
+1.23188399e-01f,+3.07852119e-01f,+2.80315876e-01f,+2.25186855e-01f,-1.39784619e-01f,
+1.74568281e-01f,+1.13181658e-01f,+1.41463041e-01f,+5.74161038e-02f,+3.92070934e-02f,
+7.37361535e-02f,-5.70289493e-02f,+1.14276707e-02f,-7.41216075e-03f,+1.63290471e-01f,
-1.65089086e-01f,-1.43929735e-01f,+2.54751921e-01f,-4.38222587e-02f,+2.43145928e-01f,
+7.40900263e-02f,-1.46600649e-01f,-1.08682513e-01f,-1.30754054e-01f,+3.04713678e-02f,
-5.63134300e-03f,-8.78054351e-02f,+2.76677329e-02f,-3.67710367e-02f,+3.01016629e-01f,
+9.82285962e-02f,+1.38644084e-01f,-3.53683047e-02f,-2.01697946e-01f,+5.46000786e-02f,
-1.31869912e-01f,+2.19730869e-01f,+3.59680541e-02f,+2.29371876e-01f,+4.96482216e-02f,
+1.90962553e-01f,+1.91534087e-01f,+5.92188630e-03f,+9.48542636e-03f,+1.57753035e-01f,
-1.69124633e-01f,-1.41446620e-01f,-1.04224026e-01f,-1.61504671e-01f,+1.20295435e-02f,
-2.29382232e-01f,-8.70306268e-02f,-2.11374387e-01f,-1.42604724e-01f,+1.15721457e-01f,
+1.97481573e-01f,-1.65665850e-01f,+7.15548098e-02f,+1.75344288e-01f,+8.19857121e-02f,
+1.93423644e-01f,+2.93327957e-01f,+4.10455316e-02f,+3.32948267e-02f,-1.14270882e-03f,
+2.54456490e-01f,+2.22637847e-01f,+1.08734018e-03f,-5.19090742e-02f,+2.52360910e-01f,
-1.30717248e-01f,-7.13863596e-02f,+1.40605658e-01f,+8.78288317e-03f,-1.04993671e-01f,
-5.07760346e-02f,+1.62590772e-01f,+3.13383266e-02f,-1.81235537e-01f,+6.88172579e-02f,
-5.99903986e-02f,-8.78521055e-02f,+6.60242438e-02f,-4.32039946e-02f,+1.08665034e-01f,
-2.39677623e-01f,+3.37730125e-02f,-8.38507265e-02f,-1.14195488e-01f,-6.69913217e-02f,
+7.99722970e-02f,+6.46952027e-03f,-1.53933764e-01f,+1.34854559e-02f,-6.27335384e-02f,
+5.61933219e-01f,-2.16873035e-01f,+1.20679885e-01f,-8.14711004e-02f,-2.10033908e-01f,
+1.85968205e-01f,-2.04429924e-01f,+2.81117529e-01f,+9.05108918e-03f,-1.31943524e-01f,
+1.58391714e-01f,-1.88817814e-01f,-1.80309922e-01f,-1.40854614e-02f,-1.27873453e-03f,
-6.06803969e-02f,+2.10045785e-01f,-2.19658360e-01f,+5.93738854e-02f,-1.02832749e-01f,
+1.84556060e-02f,+7.67471418e-02f,+1.26106832e-02f,-1.86654955e-01f,+2.59254351e-02f,
-1.60943687e-01f,+1.19556878e-02f,-1.18359752e-01f,+1.76814035e-01f,+1.33803904e-01f,
+8.15774724e-02f,+2.95366347e-02f,-1.60830766e-02f,+2.04818502e-01f,-1.21571951e-01f,
-3.69920693e-02f,-8.91696215e-02f,+1.32072270e-02f,-1.35151893e-01f,+2.07705960e-01f,
-2.93401293e-02f,-3.14391106e-02f,-1.47140160e-01f,+9.81995240e-02f,-1.25483781e-01f,
+8.14324319e-02f,-7.56075233e-02f,+1.54128417e-01f,+4.82428633e-02f,+7.20129116e-03f,
-4.75964248e-02f,+1.97423339e-01f,+2.18062922e-01f,+1.78833455e-01f,-5.94270267e-02f,
-8.79623219e-02f,-4.55618203e-02f,+4.16507572e-02f,-1.26821503e-01f,+6.98950887e-03f,
+2.40862295e-01f,+7.08346739e-02f,+1.61339939e-02f,-1.49962595e-02f,+9.48447064e-02f,
-1.13378540e-02f,+1.19921118e-01f,-1.07220806e-01f,-9.71307755e-02f,-2.01444760e-01f,
+2.05623627e-01f,-7.20080882e-02f,+2.07433015e-01f,-2.19107568e-02f,+9.56198573e-02f,
-1.68323070e-02f,-1.77334234e-01f,-4.47824150e-02f,+6.49758279e-02f,-2.01965854e-01f,
+2.19481766e-01f,-9.83904302e-03f,-1.32694304e-01f,-5.50943613e-03f,+1.14547849e-01f,
+4.32468951e-02f,-3.80165130e-02f,-3.98745984e-02f,-2.43840069e-02f,-9.08647329e-02f,
+1.04565024e-02f,+1.71257466e-01f,-1.53241754e-01f,-9.61182863e-02f,-8.25216919e-02f,
+8.07599127e-02f,+4.08036709e-02f,+6.01290762e-02f,+1.39797866e-01f,+1.98178291e-02f,
+5.38124740e-02f,-2.05961615e-01f,+1.03241116e-01f,-3.17200571e-02f,+2.11596042e-01f,
-9.29893404e-02f,+1.91260487e-01f,-1.37277156e-01f,-1.75353274e-01f,-1.93055987e-01f,
+4.97758389e-03f,-6.90800101e-02f,-2.39357352e-03f,+1.08042419e-01f,+6.36890531e-03f,
-2.11970061e-01f,-1.35926664e-01f,+1.32213861e-01f,-2.78928876e-03f,-3.71192396e-02f,
+2.17923731e-01f,-9.48612094e-02f,+6.53236806e-02f,+1.84303045e-01f,-1.18116781e-01f,
+7.19074309e-02f,+1.56588405e-01f,+8.48604143e-02f,-1.44277960e-01f,+8.59572887e-02f,
-4.23437655e-02f,-1.94754794e-01f,-1.53640509e-01f,-1.40753150e-01f,+5.28367497e-02f,
+1.08829215e-01f,-3.87568995e-02f,-1.60512537e-01f,+2.31389236e-03f,-1.69278294e-01f,
+1.52196094e-01f,-5.77829778e-02f,+9.05980989e-02f,+2.28274465e-01f,-8.24503452e-02f,
-2.55067676e-01f,-2.62738764e-03f,-1.99845999e-01f,+1.27080694e-01f,+4.79965936e-03f,
-6.62377700e-02f,-2.05546036e-01f,-1.49725899e-01f,+1.47961870e-01f,+9.84468609e-02f,
+1.59469336e-01f,-2.48645097e-01f,-2.26195201e-01f,+1.85461849e-01f,-4.97594196e-03f,
-2.14196980e-01f,-1.48281172e-01f,+1.06544733e-01f,-2.87468061e-02f,-5.68335988e-02f,
+1.17907561e-01f,-9.73218679e-02f,-1.56720370e-01f,-2.78417081e-01f,+1.03381515e-01f,
+1.19695060e-01f,-1.57904923e-01f,+2.23141015e-02f,-1.47351503e-01f,+2.23981161e-02f,
+1.66267559e-01f,+1.03110842e-01f,+8.72217119e-02f,+1.35903299e-01f,-5.50477803e-02f,
+1.48258358e-01f,+1.66888088e-01f,+1.85016379e-01f,-1.93748865e-02f,-2.03296989e-02f,
-1.79250658e-01f,-7.61612654e-02f,-6.83085620e-03f,+1.03810027e-01f,-1.60449475e-01f,
-3.03125046e-02f,-5.48805557e-02f,+1.76816210e-01f,-2.10238397e-02f,+2.07722574e-01f,
-3.69463675e-02f,-1.61325097e-01f,-9.72817391e-02f,-8.75767767e-02f,+2.40950704e-01f,
-8.10784325e-02f,+7.32515752e-02f,+1.04321882e-01f,-1.67884424e-01f,+3.14199142e-02f,
-3.77222709e-02f,-1.10714525e-01f,+8.28766376e-02f,-9.82282162e-02f,-1.32872194e-01f,
+7.40666389e-02f,+4.22496796e-02f,-3.54561992e-02f,+5.37092127e-02f,+1.57939076e-01f,
-3.88700850e-02f,+2.09901616e-01f,-1.83124110e-01f,-9.98880267e-02f,-1.82885990e-01f,
-4.68723625e-02f,-6.91789165e-02f,+3.99793297e-01f,-5.40608726e-02f,+1.08469546e-01f,
+1.26422867e-01f,+3.15628082e-01f,-1.01262949e-01f,-1.79882258e-01f,-4.85361367e-02f,
-1.14527242e-02f,+7.41764978e-02f,+1.96794048e-01f,-4.45937179e-02f,-1.01105757e-01f,
+2.46188551e-01f,-9.08699781e-02f,-2.23331958e-01f,-1.37931243e-01f,+1.75298318e-01f,
-8.59567225e-02f,+1.73930436e-01f,+1.05606444e-01f,+6.56307861e-02f,+2.55367849e-02f,
+1.03032375e-02f,+1.43626064e-01f,-1.79386094e-01f,+1.12401009e-01f,-1.28505826e-01f,
-6.38908148e-02f,+2.21883714e-01f,+7.34144077e-02f,+5.30981496e-02f,-1.65547788e-01f,
-3.45064014e-01f,+7.33837843e-01f,+2.00597066e-02f,-2.02994585e-01f,-2.95189053e-01f,
-5.60775846e-02f,-1.99208260e-02f,-5.69824129e-02f,+7.94519335e-02f,-9.27964151e-02f,
+3.37668061e-02f,-1.15451068e-01f,+1.10932089e-01f,-1.03129715e-01f,+1.32809281e-01f,
+7.75578097e-02f,+9.64223500e-03f,+7.77401924e-02f,-4.24459912e-02f,-2.29109466e-01f,
-7.59464502e-02f,+8.26920196e-02f,+2.16870248e-01f,-5.64623661e-02f,+1.24740772e-01f,
-7.87070394e-02f,+8.89878795e-02f,+2.92983085e-01f,-1.95928812e-01f,+1.25222579e-01f,
+1.90538600e-01f,+1.31843999e-01f,+6.93234503e-02f,-1.93907067e-01f,+7.56918043e-02f,
-1.03888072e-01f,+1.14437677e-01f,-2.17766419e-01f,+4.19946872e-02f,+8.58855247e-02f,
+6.29718453e-02f,+2.24143237e-01f,+1.02137960e-02f,-8.65906179e-02f,-5.83426729e-02f,
-1.89246625e-01f,+9.24817026e-02f,+2.21890002e-01f,+1.20756403e-01f,+1.99007928e-01f,
-1.57487005e-01f,+1.13104686e-01f,+2.28028357e-01f,-1.92750677e-01f,+2.48626158e-01f,
+3.26005191e-01f,+2.68006362e-02f,-7.15586841e-02f,+2.02843592e-01f,+2.86766708e-01f,
-1.30725205e-01f,-1.22661196e-01f,+9.69398394e-02f,-2.30241910e-01f,-6.89485744e-02f,
-2.53199577e-01f,+9.20642614e-02f,-1.57763854e-01f,-1.52686521e-01f,-1.34734973e-01f,
-3.39131862e-01f,+5.90224862e-01f,+1.16007827e-01f,-2.68767446e-01f,+2.31530964e-02f,
-3.12301457e-01f,-9.98238623e-02f,-3.83376956e-01f,-2.74503380e-01f,-1.65785879e-01f,
+4.04578507e-01f,-1.14522256e-01f,-1.81495816e-01f,+1.36257589e-01f,-2.08775952e-01f,
-1.45017996e-01f,+2.10732907e-01f,+1.35129526e-01f,-3.95576209e-02f,+1.77999586e-01f,
+4.71769184e-01f,+5.03574252e-01f,-2.08005488e-01f,+3.42436135e-01f,+2.62632728e-01f,
-2.00144082e-01f,+6.13611341e-01f,+2.14591444e-01f,-4.77998406e-01f,-2.84354717e-01f,
-2.34418124e-01f,-7.77532309e-02f,+3.37806374e-01f,-3.22357506e-01f,+5.31324446e-01f,
+1.67027637e-01f,+1.64104015e-01f,-4.13865298e-01f,-2.84571737e-01f,-1.43529460e-01f,
+5.21679819e-02f,+1.36852354e-01f,+4.40059781e-01f,+5.04133224e-01f,-3.44255745e-01f,
-1.76722288e-01f,+1.56398639e-01f,-2.36318335e-01f,+1.44345433e-01f,+1.17722794e-01f,
-2.42303416e-01f,+2.14007586e-01f,+3.62276733e-01f,+1.72891200e-01f,+1.65423542e-01f,
-1.84253845e-02f,+5.81145054e-03f,-4.96442884e-01f,+4.95955586e-01f,-6.26062453e-01f,
+9.26885456e-02f,-2.29839876e-01f,+1.43663464e-02f,-5.72353601e-04f,-3.68552692e-02f,
+2.77068108e-01f,+3.70816171e-01f,-1.55528426e-01f,-2.16875911e-01f,-2.43590534e-01f,
-2.12842487e-02f,-3.10976684e-01f,-1.05620503e-01f,-2.04450160e-01f,+5.14192432e-02f,
+5.79047501e-02f,+1.30311653e-01f,-2.11138949e-01f,+2.03033715e-01f,-2.20114872e-01f,
+2.47430503e-01f,+2.10510239e-01f,+2.19670609e-01f,-6.89818710e-02f,+3.29760090e-02f,
+1.78856067e-02f,-5.65333515e-02f,+2.63366252e-01f,+2.25648090e-01f,+8.62674043e-02f,
+3.98978949e-01f,-1.73152730e-01f,-8.63172710e-02f,-8.08307886e-01f,-2.31528044e-01f,
-3.70442003e-01f,+1.57104462e-01f,-8.58198106e-02f,+1.34978816e-01f,+3.33160520e-01f,
+6.06732406e-02f,-3.69766146e-01f,+2.00819261e-02f,+2.03670233e-01f,-9.82457548e-02f,
+3.57627720e-01f,+3.59086871e-01f,+1.79265082e-01f,-2.96106607e-01f,-3.87390852e-01f,
-1.54609652e-02f,-4.83834837e-03f,+3.22167128e-01f,-9.23490152e-03f,+3.81030678e-03f,
-1.28317952e-01f,+1.24987870e-01f,+3.51260424e-01f,-1.54601142e-01f,-2.52715349e-01f,
+2.80313357e-03f,-9.47448984e-02f,+4.49271172e-01f,-1.06501567e+00f,-1.74596876e-01f,
-2.13923439e-01f,+7.19358698e-02f,+8.84404778e-03f,+1.35160848e-01f,-6.27721786e-01f,
-2.73991197e-01f,+4.02254701e-01f,-5.91826290e-02f,+4.40266550e-01f,+1.68025792e-01f,
+2.76573956e-01f,+4.09155861e-02f,-1.49197355e-01f,-6.80473924e-01f,-1.38748780e-01f,
-4.52278405e-02f,-2.29024649e-01f,-2.25912094e-01f,+4.62783366e-01f,+3.93642262e-02f,
-2.12396756e-01f,-8.45266208e-02f,+2.38356814e-01f,-5.14602482e-01f,-2.45160505e-01f,
+1.56220049e-01f,-2.83695132e-01f,-2.15782195e-01f,-1.92489073e-01f,-6.51816428e-01f,
+1.75269842e-01f,+1.53364584e-01f,-2.15693433e-02f,+2.78778017e-01f,+3.21008295e-01f,
-4.97001708e-01f,+2.05709279e-01f,-2.27799028e-01f,+6.21207297e-01f,-5.41917503e-01f,
+1.52847603e-01f,+1.17622800e-01f,+1.84650362e-01f,-2.21176833e-01f,-5.09172201e-01f,
-1.16048023e-01f,-2.67858356e-01f,+3.03480595e-01f,+3.54336500e-01f,-5.02672732e-01f,
+2.68736690e-01f,-2.31544524e-01f,-1.40706480e-01f,+2.20373407e-01f,+5.31788170e-02f,
-3.11817676e-01f,-5.47506869e-01f,-1.18753597e-01f,-2.91445166e-01f,-8.91448706e-02f,
+4.36367303e-01f,-6.77349806e-01f,-4.86208230e-01f,+1.74277291e-01f,-7.39923120e-02f,
-6.20172918e-02f,+1.01213574e-01f,+1.19063109e-01f,+1.90744698e-01f,+2.10388601e-02f,
+2.11850315e-01f,-2.74925977e-02f,-2.07307190e-02f,-6.21222407e-02f,+1.51665956e-02f,
-4.03023660e-02f,-2.93122232e-03f,-2.70170718e-02f,-2.17120424e-01f,-2.24905998e-01f,
-1.66961342e-01f,-2.25650474e-01f,+1.30196422e-01f,-2.02550292e-01f,+1.85369581e-01f,
+1.29929185e-01f,-1.86258674e-01f,-1.73164755e-02f,-5.12669981e-02f,-2.19385862e-01f,
+1.20447487e-01f,-1.48251534e-01f,-1.42190769e-01f,-6.76292479e-02f,-1.60008550e-01f,
+7.86708593e-02f,-2.95648277e-02f,-9.82257873e-02f,+1.87685341e-01f,-1.00731596e-01f,
-2.00678095e-01f,-9.01740044e-02f,+1.40370548e-01f,+1.88468099e-02f,+1.43715769e-01f,
+2.13620752e-01f,+2.14356959e-01f,-3.55848223e-02f,-6.20852113e-02f,+8.62703919e-02f,
+8.06938112e-02f,-2.15565205e-01f,+1.10459626e-02f,+2.25435585e-01f,-5.84750175e-02f,
+9.79474485e-02f,-1.93478912e-02f,-1.45633653e-01f,-1.57735378e-01f,+2.50779986e-02f,
+4.37922180e-02f,+2.24802196e-01f,-1.77432895e-01f,-1.96098566e-01f,-2.13157773e-01f,
-5.79323471e-02f,+5.49781621e-02f,+9.19440687e-02f,-4.89081889e-02f,+3.97670090e-01f,
+1.07754529e-01f,+4.69120771e-01f,-6.36694312e-01f,-2.96774715e-01f,+3.70502472e-01f,
-9.64270830e-02f,+1.12080067e-01f,+1.42584264e-01f,+1.18969902e-01f,+2.52315134e-01f,
-1.52458832e-01f,-5.00250876e-01f,-1.76933601e-01f,-2.29587778e-01f,-1.83578759e-01f,
-5.37375510e-02f,+3.05246085e-01f,-1.49555445e-01f,-2.51109987e-01f,-1.65740937e-01f,
+4.82909717e-02f,-6.93193898e-02f,-2.47934639e-01f,-8.44333470e-02f,-4.19147871e-02f,
-1.22737117e-01f,+1.48455620e-01f,-4.96493757e-01f,+8.58054757e-02f,+3.48988593e-01f,
-2.31956378e-01f,+3.74960631e-01f,+4.20274764e-01f,-6.49532199e-01f,+3.34912539e-01f,
-2.78426856e-01f,+6.44216955e-01f,-1.81501046e-01f,+2.05144554e-01f,+3.72608840e-01f,
+6.90403283e-02f,-3.87624353e-02f,-4.29148048e-01f,-1.22699328e-01f,-1.99618697e-01f,
+2.97204077e-01f,+2.33791023e-01f,-2.19529241e-01f,+6.89118681e-03f,-2.94290125e-01f,
-4.24100280e-01f,+3.03227305e-01f,-2.08233386e-01f,-3.36640090e-01f,-6.35658443e-01f,
+8.43596756e-02f,-8.97789001e-02f,+1.01871572e-01f,+2.91867435e-01f,-2.61709124e-01f,
-4.42160934e-01f,-7.27666393e-02f,-6.73312545e-02f,-4.10435125e-02f,-1.25753313e-01f,
-2.24147096e-01f,+7.21054673e-01f,+6.88854977e-02f,-3.36815894e-01f,-1.93472892e-01f,
-1.83720648e-01f,-1.24255985e-01f,-2.71058865e-02f,+1.95467994e-01f,-2.11253673e-01f,
+4.41508710e-01f,+7.16364980e-02f,+1.80663317e-01f,+9.46033895e-02f,-1.88863441e-01f,
-2.32399374e-01f,-1.37185931e-01f,+2.17328563e-01f,-2.08450451e-01f,-8.26391876e-02f,
+2.85394210e-02f,+1.97500601e-01f,-1.26666248e-01f,+3.33513588e-01f,+1.24690220e-01f,
-2.34736294e-01f,+5.52305877e-01f,-6.88449293e-02f,-3.48772705e-01f,-6.27516270e-01f,
+8.47297162e-03f,-3.59472007e-01f,+8.58602047e-01f,+6.73790127e-02f,+3.78583521e-01f,
+2.78563768e-01f,+3.45707715e-01f,-1.34411782e-01f,-5.91315292e-02f,+7.55767822e-02f,
-2.70392597e-02f,+3.99673045e-01f,+5.44193760e-02f,+2.66366839e-01f,-3.57555747e-02f,
-3.75212908e-01f,+2.58284807e-01f,-2.21749440e-01f,+1.12520516e-01f,+3.92548054e-01f,
+5.74179180e-03f,-6.83632344e-02f,+2.39838779e-01f,+4.39929008e-01f,+2.14297146e-01f,
+1.02865137e-01f,-4.40368131e-02f,-2.80850559e-01f,+2.79076219e-01f,-9.11056340e-01f,
-1.44311473e-01f,+1.52450442e-01f,-1.79793656e-01f,-9.27542001e-02f,-3.01227272e-01f,
-2.23550051e-02f,+5.31310737e-02f,-2.61536002e-01f,+9.23922658e-02f,-9.41294357e-02f,
+3.60383391e-02f,-1.85293540e-01f,+6.93985894e-02f,+6.01718202e-02f,+3.75478566e-02f,
-1.75498575e-01f,-1.18046507e-01f,-2.12842897e-01f,-2.20219895e-01f,+4.01585512e-02f,
+2.50458986e-01f,+3.47087771e-01f,-1.86347097e-01f,-1.18567750e-01f,+9.24938843e-02f,
-3.37745026e-02f,-1.20879263e-02f,+2.09076405e-02f,+2.77493924e-01f,+5.53035475e-02f,
+1.28445789e-01f,+6.67499602e-02f,-3.73106211e-01f,-5.62682688e-01f,-5.91794066e-02f,
-1.80150822e-01f,+1.95669532e-02f,-3.28291118e-01f,+3.62546623e-01f,-1.30578727e-01f,
+3.39693576e-01f,-1.31892070e-01f,-3.34222391e-02f,+1.19576484e-01f,-2.24500507e-01f,
+2.96822846e-01f,+2.01863691e-01f,+1.65417790e-01f,-6.19349442e-02f,-3.79706353e-01f,
+1.43295467e-01f,-2.57670462e-01f,+3.73686969e-01f,+3.65037441e-01f,+1.61853246e-02f,
+1.35325044e-01f,+3.58287483e-01f,+1.20274350e-01f,+9.92168784e-02f,-1.69985697e-01f,
-1.09491564e-01f,-2.47603357e-01f,+3.33399802e-01f,-7.91148722e-01f,-2.34049886e-01f,
-9.20645297e-02f,+1.40401334e-01f,-1.59014404e-01f,+3.34390700e-02f,-1.47299349e-01f,
+1.87834650e-01f,-1.10015944e-01f,+7.88229406e-02f,+1.53780907e-01f,-1.96800590e-01f,
-9.96661186e-02f,-1.35751069e-01f,+1.21052414e-01f,+1.15606487e-01f,-2.16400117e-01f,
-2.26635158e-01f,-1.78757459e-01f,-3.09874564e-02f,+1.72776550e-01f,+7.12957382e-02f,
-6.40799701e-02f,-3.03481519e-02f,-6.40496761e-02f,+1.54454559e-01f,+1.28084123e-01f,
-1.65599138e-02f,-6.91849142e-02f,+1.63673073e-01f,+1.38585091e-01f,+3.22250426e-02f,
+7.49575198e-02f,+1.02725297e-01f,-3.22960168e-02f,+7.29336739e-02f,+1.89680099e-01f,
+1.89153552e-02f,-1.15336709e-01f,-5.31066358e-02f,-6.90311193e-02f,+1.08479112e-02f,
+1.05444789e-01f,+1.07765257e-01f,-1.98282659e-01f,-1.93520844e-01f,-3.95535380e-02f,
+1.73501372e-01f,+2.23675191e-01f,+1.34506226e-02f,+1.77455902e-01f,+1.91833556e-01f,
+1.50720328e-01f,-1.90324634e-02f,+7.89126158e-02f,-8.78316462e-02f,+4.52224612e-02f,
+2.27334052e-01f,-1.13438964e-02f,-6.72087073e-03f,-1.13328919e-01f,-8.59441608e-02f,
+1.92585766e-01f,-1.43070504e-01f,+1.86934501e-01f,+2.15002835e-01f,-6.36488199e-04f,
+1.37399629e-01f,-4.87103015e-02f,-1.61361814e-01f,+2.33190441e+00f,-2.16026932e-01f,
+1.27594903e-01f,+4.92609143e-02f,+1.11806549e-01f,+1.08986214e-01f,+1.81552142e-01f,
+1.84849203e-01f,+6.09807372e-02f,+2.46689463e+00f,+1.55533910e-01f,-9.08825025e-02f,
-5.02356142e-02f,-7.32287765e-04f,-9.25670117e-02f,-1.15601890e-01f,+1.29768580e-01f,
-2.21346855e-01f,+3.53727490e-01f,+1.62276655e-01f,+2.06919804e-01f,+1.46112084e-01f,
-5.29341623e-02f,+2.14367494e-01f,-5.54398298e-01f,+2.26930428e+00f,-4.17411327e-03f,
-1.58114240e-01f,-2.65631080e+00f,+9.87361968e-02f,+7.24998116e-02f,+2.05397463e+00f,
+1.73335254e-01f,-1.47353977e-01f,+6.11563683e-01f,+2.77734287e-02f,+2.41199639e-02f,
-4.78708297e-02f,-9.76364315e-02f,-2.23036230e-01f,+1.30400270e-01f,-1.37686893e-01f,
+1.17669431e-02f,+1.11246683e-01f,-1.21108308e-01f,-8.88470933e-02f,-5.46968989e-02f,
+1.69083580e-01f,+2.53973037e-01f,-2.44347677e-02f,+1.72948450e-01f,+1.03008077e-01f,
+1.82657468e+00f,-1.75935626e-02f,+7.06254959e-01f,+2.01671898e-01f,+2.70549464e-03f,
+5.67833304e-01f,-2.45171762e+00f,-3.70273054e-01f,-1.82116032e-02f,-1.21018186e-01f,
-1.25099331e-01f,+1.47057548e-01f,+5.85670546e-02f,-1.37331516e-01f,-1.13868169e-01f,
-1.44850880e-01f,+2.45837905e-02f,+3.69437374e-02f,+6.31766319e-02f,-2.45709985e-01f,
-5.44196628e-02f,+3.29964310e-02f,+3.37802172e-02f,+1.90290481e-01f,-1.66544989e-01f,
-1.45537078e-01f,-9.86399204e-02f,+4.07560132e-02f,+1.38049468e-01f,+1.20831959e-01f,
+7.68823326e-02f,+2.82176495e-01f,+1.30118161e-01f,-1.45624101e-01f,+3.56830247e-02f,
+2.97293602e-03f,+2.14549437e-01f,+2.35793859e-01f,+7.32457936e-02f,+8.41254219e-02f,
-2.10681289e-01f,+7.80163407e-02f,+1.20697014e-01f,-1.45395324e-02f,-6.20005094e-02f,
+4.16867994e-02f,+2.36668270e-02f,+1.83977723e-01f,+7.32550770e-02f,-1.52423263e-01f,
-1.14159375e-01f,-3.61421108e-02f,+1.94178209e-01f,+5.04244603e-02f,+1.27291083e-01f,
-1.39085695e-01f,-2.78047085e-01f,+1.17147960e-01f,-2.07619920e-01f,+1.26907468e-01f,
+2.14609236e-01f,+3.55290771e-02f,-6.56956881e-02f,-8.20520967e-02f,+2.58841608e-02f,
+1.16284043e-01f,+2.88147479e-02f,+2.01919958e-01f,-1.75802633e-01f,-8.85551572e-02f,
-1.63636148e-01f,+1.12127304e-01f,-1.07340664e-01f,+9.75204706e-02f,-1.98820472e-01f,
+5.37423372e-01f,-6.74584925e-01f,+2.07183227e-01f,+4.51187313e-01f,-7.37590492e-02f,
+4.79116708e-01f,+1.74583286e-01f,+1.51955262e-01f,+3.99375767e-01f,+2.23560020e-01f,
-4.36295986e-01f,-4.88782823e-02f,+8.79544914e-02f,-2.10792631e-01f,+1.01601660e-01f,
+1.38191536e-01f,-4.45338599e-02f,-3.22565198e-01f,+5.76462224e-03f,-8.30771104e-02f,
-1.20266847e-01f,-3.66470963e-01f,-2.05753952e-01f,-4.00696993e-01f,-1.32717997e-01f,
+1.07143387e-01f,-7.70004451e-01f,-1.03813693e-01f,+2.57755786e-01f,+1.69574112e-01f,
+8.80663544e-02f,+2.77235329e-01f,-3.89195830e-01f,+2.01117873e-01f,-3.69402379e-01f,
+1.55930012e-01f,-4.83437151e-01f,+3.27556610e-01f,+2.08228990e-01f,-4.63575125e-02f,
-1.03559837e-01f,-2.90944874e-01f,-4.29707259e-01f,-3.60808879e-01f,+2.70657599e-01f,
+4.65695471e-01f,-1.05788752e-01f,+3.70184600e-01f,-1.00167520e-01f,-1.23662271e-01f,
+3.14743340e-01f,+2.27157652e-01f,-2.28845611e-01f,-1.01424479e+00f,-1.39737383e-01f,
-1.72482237e-01f,+8.33038464e-02f,+2.34662175e-01f,-3.27223122e-01f,+9.01366472e-01f,
-2.62705326e-01f,-3.11895311e-02f,-5.88589549e-01f,-1.90601319e-01f,-5.39534628e-01f,
+6.50343835e-01f,+3.08614105e-01f,-1.63198277e-01f,-3.26146334e-02f,-5.61588168e-01f,
-5.04022956e-01f,-1.83412880e-01f,-3.53259534e-01f,-1.80447891e-01f,+5.58949471e-01f,
-1.27779245e-01f,+3.27619612e-02f,+7.74812698e-02f,+6.29389584e-02f,-3.64515603e-01f,
+2.22152293e-01f,+5.59329271e-01f,+2.05123037e-01f,-6.71532452e-02f,+4.78704095e-01f,
+3.08612406e-01f,-1.74661875e-02f,+2.30499640e-01f,+3.34211409e-01f,-2.58456796e-01f,
+6.75504088e-01f,+2.28170753e-01f,-3.28696877e-01f,-8.87863636e-01f,-5.18414915e-01f,
-4.08559889e-01f,+5.22638142e-01f,-1.29765138e-01f,+1.50692880e-01f,+2.31893435e-01f,
+2.23952547e-01f,-5.61858416e-01f,-4.30024236e-01f,-9.45061445e-03f,-1.00331083e-01f,
+2.05550969e-01f,+4.75029111e-01f,+1.70532405e-01f,-3.46529543e-01f,-1.59922868e-01f,
+3.93950015e-01f,-1.76206902e-01f,+3.20853561e-01f,+1.41515926e-01f,-3.86856854e-01f,
+4.50682640e-02f,+4.30128038e-01f,+3.20611477e-01f,-1.26964077e-01f,-2.92793438e-02f,
-2.23250583e-01f,-4.63898301e-01f,+5.65671682e-01f,-1.02777958e+00f,-1.20685779e-01f,
+1.03359193e-01f,-3.50562185e-02f,+2.30667681e-01f,-3.39058191e-02f,-2.02807948e-01f,
+1.05455935e-01f,-7.42511451e-03f,-1.49645954e-01f,+1.17728800e-01f,+1.85367197e-01f,
-1.15243554e-01f,+7.63822496e-02f,-2.05304608e-01f,-8.46904516e-02f,-3.10957432e-03f,
+6.24733269e-02f,-9.12408680e-02f,+1.06985837e-01f,+1.58760965e-01f,-7.29383677e-02f,
-1.51036918e-01f,-8.34084302e-02f,-2.08665431e-01f,+6.47397339e-03f,+9.07634795e-02f,
+1.40062690e-01f,-1.29048616e-01f,-3.84067148e-02f,+1.61777228e-01f,-1.09606870e-01f,
-2.04098850e-01f,-5.72741777e-02f,-2.05503091e-01f,+9.99063253e-02f,+2.25378484e-01f,
+2.65501142e-02f,-2.22251520e-01f,+1.94351614e-01f,+3.75728011e-02f,-1.77794844e-01f,
+2.44647861e-02f,-1.75660804e-01f,+6.02946877e-02f,-1.37376204e-01f,+1.12623304e-01f,
+2.08898365e-01f,+7.95324743e-02f,+1.41602576e-01f,-9.63121951e-02f,-2.18779400e-01f,
+3.25585604e-02f,-1.03876159e-01f,+1.82363182e-01f,-1.43911600e-01f,+4.83602285e-02f,
-7.38157332e-03f,+3.52448225e-02f,+1.68388724e-01f,-1.30715817e-01f,+1.69031709e-01f,
-7.52693564e-02f,+9.80025530e-02f,-1.34873807e-01f,+1.63356453e-01f,-8.31028819e-02f,
-4.94798481e-01f,-1.96261734e-01f,-3.11267644e-01f,+6.44315243e-01f,-2.31281277e-02f,
-3.35288733e-01f,-2.29666710e-01f,-2.62098491e-01f,-2.56044835e-01f,-4.95022565e-01f,
-1.01123616e-01f,-1.55638397e-01f,+6.97564125e-01f,+2.17390865e-01f,+1.43051296e-01f,
+1.63301975e-02f,+1.59096926e-01f,-1.86278462e-01f,+2.01926604e-01f,+5.23827970e-01f,
-6.37105703e-02f,+9.40325111e-02f,+5.56049645e-01f,+1.84246734e-01f,+5.06478846e-02f,
+3.09938669e-01f,+2.12818772e-01f,-5.42676114e-02f,+3.43296945e-01f,-1.02528363e-01f,
-4.52562273e-01f,-7.52230346e-01f,-4.62665409e-01f,-2.18497500e-01f,+7.21093893e-01f,
-2.96322614e-01f,+5.02479494e-01f,+2.59596616e-01f,+4.74145740e-01f,-8.56879130e-02f,
-3.01195771e-01f,-7.22706020e-02f,-1.31054521e-01f,+5.83973467e-01f,+5.15401006e-01f,
+4.88681793e-01f,-5.17157972e-01f,-2.09883004e-01f,+1.02346644e-01f,-2.03416258e-01f,
+1.11654922e-01f,+3.98452491e-01f,-4.95704412e-01f,-4.81676906e-02f,+2.26334661e-01f,
+5.20760894e-01f,+1.66593224e-01f,-6.52144477e-03f,+5.62689789e-02f,-2.46789262e-01f,
+2.89455533e-01f,-1.17271662e+00f,+7.53193796e-02f,-7.72438645e-02f,+7.03444406e-02f,
+6.59634769e-02f,+2.48025805e-01f,-4.31459963e-01f,-1.66402802e-01f,+2.77548254e-01f,
+1.42270803e-01f,+4.20690253e-02f,+2.77946562e-01f,+1.31361738e-01f,+3.50225657e-01f,
+2.00336099e-01f,-4.26869839e-01f,-1.49919838e-01f,-1.95465639e-01f,-1.32043093e-01f,
-1.12569876e-01f,+1.29449099e-01f,-9.69927981e-02f,-2.94451833e-01f,+6.94841817e-02f,
-8.33263919e-02f,-2.24855229e-01f,-1.52731329e-01f,+1.81272119e-01f,-4.11284357e-01f,
-8.07666183e-02f,+1.70393422e-01f,-1.17293251e+00f,-3.04251909e-02f,+2.78608590e-01f,
-3.05783570e-01f,+3.24614763e-01f,+2.13792145e-01f,-2.87519068e-01f,+4.31466043e-01f,
-3.14479947e-01f,+8.26775879e-02f,-1.12375841e-01f,+3.98474485e-01f,+6.04535528e-02f,
-1.93823904e-01f,+2.60779560e-02f,-2.55238295e-01f,-3.40409204e-02f,-2.69515365e-01f,
+3.53676766e-01f,+1.79853499e-01f,-1.80116743e-01f,+8.57247338e-02f,-5.26344217e-02f,
-6.69482127e-02f,+3.51238847e-01f,-1.57300323e-01f,-3.85058314e-01f,-1.25823653e+00f,
+1.13937646e-01f,+1.27102705e-02f,+1.79451957e-01f,+1.70244932e-01f,-3.85513633e-01f,
+1.19213426e+00f,+1.35536641e-01f,}; 
k2c_tensor dense_4_kernel = {&dense_4_kernel_array[0],2,3072,{48,64, 1, 1, 1}}; 
float dense_4_bias_array[64] = {
+0.00000000e+00f,+2.29248509e-01f,+0.00000000e+00f,+2.88046598e-01f,-3.25809449e-01f,
-1.66650742e-01f,+2.48186722e-01f,+0.00000000e+00f,+2.54531771e-01f,+2.17819631e-01f,
+2.23805264e-01f,+2.46997252e-01f,-6.00599404e-03f,-3.36979657e-01f,+0.00000000e+00f,
-2.65495274e-02f,+0.00000000e+00f,+0.00000000e+00f,+2.21693069e-01f,-2.06167042e-01f,
-2.32768312e-01f,-2.69051339e-03f,+3.09550725e-02f,-2.01336235e-01f,-2.13740155e-01f,
+0.00000000e+00f,-2.42151052e-01f,-2.34335676e-01f,-1.45843938e-01f,-2.23877147e-01f,
+0.00000000e+00f,+2.61025757e-01f,+5.66564202e-01f,+2.57116765e-01f,+2.34527752e-01f,
-2.98723608e-01f,+2.21251279e-01f,-1.88238695e-01f,+6.60788491e-02f,-2.27318674e-01f,
+2.50707150e-01f,+2.64026314e-01f,+0.00000000e+00f,+0.00000000e+00f,-2.36611858e-01f,
-2.25141019e-01f,-2.15524778e-01f,+2.29372621e-01f,+2.44137615e-01f,-2.32839242e-01f,
+2.26842299e-01f,-2.38734469e-01f,-2.29862243e-01f,+2.20251769e-01f,+0.00000000e+00f,
-2.08141938e-01f,-1.83380023e-01f,+0.00000000e+00f,+2.41648052e-02f,-1.17915617e-02f,
+2.51645148e-01f,-1.99583963e-01f,+6.48380578e-01f,-2.77714543e-02f,}; 
k2c_tensor dense_4_bias = {&dense_4_bias_array[0],1,64,{64, 1, 1, 1, 1}}; 
float dense_4_fwork[3120] = {0}; 

 
float dense_5_kernel_array[64] = {
-6.62405193e-02f,-2.46852502e-01f,+2.64959931e-02f,-4.45720583e-01f,+7.11913872e+00f,
+7.89292812e-01f,-6.66517198e-01f,-5.43881357e-02f,-6.24793887e-01f,-1.92499682e-01f,
-4.88155603e-01f,-4.55301046e-01f,+7.76531771e-02f,+7.78036356e+00f,+2.49252498e-01f,
-1.40688196e-01f,-1.74824312e-01f,-2.77149439e-01f,-3.13020021e-01f,+6.58940852e-01f,
+4.44555730e-01f,+5.75528629e-02f,-8.68812680e-01f,+8.53977799e-01f,+5.96860290e-01f,
+2.21429348e-01f,+8.21626723e-01f,+6.64807796e-01f,+1.13334465e+00f,+6.70961237e+00f,
-3.42875719e-02f,-5.93524516e-01f,-1.40183630e+01f,-7.46126652e-01f,-6.94518328e-01f,
+6.97121096e+00f,-5.01892745e-01f,+4.86110955e-01f,-1.52865601e+00f,+5.77655971e-01f,
-2.89525211e-01f,-4.53553349e-01f,-2.99018741e-01f,-2.29008108e-01f,+3.37804288e-01f,
+4.30997461e-01f,+8.56096983e-01f,-4.59531695e-01f,-8.26601088e-01f,+7.30779171e-01f,
-1.23801328e-01f,+4.04525727e-01f,+4.82957155e-01f,-3.59065682e-01f,+1.71847880e-01f,
+6.10563338e-01f,+6.09090900e+00f,-2.57700443e-01f,-9.85454857e-01f,+2.15307564e-01f,
-5.53256631e-01f,+1.52468264e+00f,-9.93258095e+00f,+2.17210457e-01f,}; 
k2c_tensor dense_5_kernel = {&dense_5_kernel_array[0],2,64,{64, 1, 1, 1, 1}}; 
float dense_5_bias_array[1] = {
-2.16937229e-01f,}; 
k2c_tensor dense_5_bias = {&dense_5_bias_array[0],1,1,{1,1,1,1,1}}; 
float dense_5_fwork[128] = {0}; 

 
k2c_conv2d(&conv2d_2_output,conv2d_2_input_1_input,&conv2d_2_kernel, 
	&conv2d_2_bias,conv2d_2_stride,conv2d_2_dilation,k2c_relu); 
k2c_pad2d(&max_pooling2d_2_padded_input,&conv2d_2_output,max_pooling2d_2_fill, 
	max_pooling2d_2_pad); 
k2c_maxpool2d(&max_pooling2d_2_output,&max_pooling2d_2_padded_input,max_pooling2d_2_pool_size, 
	max_pooling2d_2_stride); 
k2c_flatten(&flatten_2_1_output,&max_pooling2d_2_output); 
k2c_dense(&dense_4_output,&flatten_2_1_output,&dense_4_kernel, 
	&dense_4_bias,k2c_relu,dense_4_fwork); 
k2c_dense(dense_5_1_output,&dense_4_output,&dense_5_kernel, 
	&dense_5_bias,k2c_sigmoid,dense_5_fwork); 

} 

void CNNModel::keras2c_model_initialize() { 

    cout << "Inicializando Modelo CNN" << endl;

} 

void CNNModel::keras2c_model_terminate() { 
    
    cout << "Terminando Modelo CNN" << endl;

} 

