#include <math.h> 
 #include <string.h> 
#include "./include/k2c_include.h" 
#include "./include/k2c_tensor_include.h" 

 


void keras2c_model(k2c_tensor* conv2d_30_input_1_input, k2c_tensor* dense_61_1_output) { 

size_t conv2d_30_stride[2] = {1,1}; 
size_t conv2d_30_dilation[2] = {1,1}; 
float conv2d_30_output_array[48] = {0}; 
k2c_tensor conv2d_30_output = {&conv2d_30_output_array[0],3,48,{ 3, 1,16, 1, 1}}; 
float conv2d_30_kernel_array[48] = {
+2.56992221e-01f,+2.03123912e-01f,+5.98497033e-01f,-2.03832760e-01f,-1.53008968e-01f,
+1.48391593e-02f,-2.48398140e-01f,+3.23839813e-01f,-1.95133254e-01f,+4.35865164e-01f,
-1.07999615e-01f,-2.96843618e-01f,+1.92532748e-01f,-9.42833573e-02f,-2.55752683e-01f,
-2.38849819e-02f,+2.04091802e-01f,+1.85030401e-01f,-6.31993532e-01f,+4.09650579e-02f,
+3.38052869e-01f,+4.72060531e-01f,+4.87885773e-02f,-1.66957140e-01f,-3.17140877e-01f,
+1.42441601e-01f,+9.52923894e-02f,+1.54981837e-01f,-1.73137635e-01f,-2.66537726e-01f,
-4.77097392e-01f,-1.80353224e-02f,+6.64444387e-01f,-2.46287122e-01f,-1.22206211e-02f,
+4.30662572e-01f,-2.64784306e-01f,+9.26553369e-01f,-7.68311918e-02f,-2.30312347e-01f,
-4.94877696e-02f,+8.53955090e-01f,-4.20702219e-01f,+6.75587475e-01f,-3.03167194e-01f,
-1.02095097e-01f,+9.45199549e-01f,-3.41036141e-01f,}; 
k2c_tensor conv2d_30_kernel = {&conv2d_30_kernel_array[0],4,48,{ 1, 3, 1,16, 1}}; 
float conv2d_30_bias_array[16] = {
-2.01268539e-01f,+2.90342122e-01f,+1.63231082e-02f,-3.12043309e-01f,+2.84957051e-01f,
-2.36281380e-01f,+0.00000000e+00f,+2.99987197e-01f,+0.00000000e+00f,-1.89988792e-01f,
+3.96327108e-01f,-2.16320470e-01f,+4.02420104e-01f,+0.00000000e+00f,-1.21070258e-01f,
+0.00000000e+00f,}; 
k2c_tensor conv2d_30_bias = {&conv2d_30_bias_array[0],1,16,{16, 1, 1, 1, 1}}; 

 
size_t max_pooling2d_30_stride[2] = {1,2}; 
size_t max_pooling2d_30_pool_size[2] = {1,2}; 
float max_pooling2d_30_output_array[48] = {0}; 
k2c_tensor max_pooling2d_30_output = {&max_pooling2d_30_output_array[0],3,48,{ 3, 1,16, 1, 1}}; 
float max_pooling2d_30_padded_input_array[96] = {0}; 
k2c_tensor max_pooling2d_30_padded_input = {&max_pooling2d_30_padded_input_array[0],3,96,{ 3, 2,16, 1, 1}}; 
size_t max_pooling2d_30_pad[4] = {0,0,0,1}; 
float max_pooling2d_30_fill = -HUGE_VALF; 


float flatten_30_1_output_array[48] = {0}; 
k2c_tensor flatten_30_1_output = {&flatten_30_1_output_array[0],1,48,{48, 1, 1, 1, 1}}; 
float dense_60_output_array[64] = {0}; 
k2c_tensor dense_60_output = {&dense_60_output_array[0],1,64,{64, 1, 1, 1, 1}}; 
float dense_60_kernel_array[3072] = {
+2.22168658e-02f,+5.42217903e-02f,-8.19172896e-03f,+5.03179915e-02f,-7.49897351e-03f,
+1.23827010e-02f,-2.21635073e-01f,+2.01482058e-01f,-3.72847766e-02f,+1.09736167e-03f,
-1.61951669e-02f,+2.28522167e-01f,+1.72720790e-01f,+1.26228526e-01f,-6.47562146e-02f,
-3.74764949e-02f,-1.74381986e-01f,-2.48873845e-01f,-4.15710434e-02f,-2.24590212e-01f,
+3.11826114e-02f,-1.51464269e-01f,-5.35334535e-02f,-1.54571533e-01f,+1.08122021e-01f,
-1.00648284e-01f,+2.33666822e-01f,-2.61283014e-02f,-2.85901651e-02f,-1.47735298e-01f,
+9.83684584e-02f,-8.56334716e-02f,+8.37798789e-02f,-4.81099151e-02f,+3.95576954e-02f,
-1.42423391e-01f,-1.25455530e-02f,-5.17814271e-02f,-1.81809604e-01f,+2.46791080e-01f,
-8.24821293e-02f,+8.24971497e-03f,-1.07208401e-01f,+8.22722726e-03f,-4.19571586e-02f,
+2.34409869e-01f,-1.41858980e-01f,+3.76401842e-02f,-4.17559259e-02f,+4.24486920e-02f,
-1.00018978e-01f,+9.75054651e-02f,+9.77146477e-02f,+1.49023324e-01f,+1.54263377e-01f,
+2.19209820e-01f,-6.72732741e-02f,+8.54292214e-02f,+7.06659034e-02f,+5.41732796e-02f,
-1.56652629e-01f,-1.85528219e-01f,+3.41118798e-02f,-5.55638336e-02f,+5.54651730e-02f,
-1.95521533e-01f,-1.31043300e-01f,+7.73152709e-02f,-1.83525071e-01f,+1.01063967e-01f,
-5.16782403e-02f,-1.14717241e-02f,+1.24346539e-01f,+5.89284301e-02f,-1.21637218e-01f,
-3.50891277e-02f,-2.55913623e-02f,+2.61374474e-01f,+1.03784554e-01f,+1.31805241e-03f,
+1.55805767e-01f,-1.03466101e-01f,+2.27087602e-01f,+1.73900917e-01f,+5.36621874e-03f,
+1.47419320e-02f,-1.00266270e-01f,-1.18738160e-01f,+1.42418608e-01f,-2.65736151e-02f,
+1.47577852e-01f,+2.22670600e-01f,-1.44033134e-01f,-7.18979985e-02f,+1.02490030e-01f,
-1.03089899e-01f,-3.03579103e-02f,+1.84475750e-01f,+1.85565248e-01f,+1.99091300e-01f,
-1.30691797e-01f,+1.67352989e-01f,-1.41494079e-02f,-2.14452744e-01f,-7.08040446e-02f,
+1.00973099e-02f,-5.26741259e-02f,-1.27602905e-01f,+8.89040083e-02f,+1.15847155e-01f,
+1.99970841e-01f,-1.82592086e-02f,+9.58602652e-02f,-8.10226351e-02f,-3.22874039e-02f,
-6.96428344e-02f,-1.15452670e-01f,+1.57022566e-01f,-1.68795176e-02f,+2.58755922e-01f,
+9.34684426e-02f,-1.99002057e-01f,+1.65855587e-02f,+2.34729201e-01f,-1.58965081e-01f,
+1.67258337e-01f,+1.87858880e-01f,+1.83063805e-01f,+1.10066989e-02f,-7.47027397e-02f,
+1.41160205e-01f,-4.56153639e-02f,-6.73579797e-02f,-2.43136659e-01f,+2.58430749e-01f,
-4.37028240e-03f,+4.09101963e-01f,-2.94347331e-02f,-1.27476782e-01f,-2.13791981e-01f,
-1.54455127e-02f,-4.39987898e-01f,+1.13216341e-02f,+1.96511060e-01f,-1.09208547e-01f,
+1.79771513e-01f,-5.88883385e-02f,+3.93852182e-02f,+1.07788555e-01f,+1.29910246e-01f,
-2.12312743e-01f,+4.17541601e-02f,+2.81981677e-01f,+3.92027318e-01f,-2.00838938e-01f,
-1.07689805e-01f,-8.21642354e-02f,+3.90776396e-02f,-8.33300129e-02f,+1.19596273e-02f,
-2.43509352e-01f,-1.36580104e-02f,+2.00887427e-01f,+7.32774958e-02f,-4.34580296e-02f,
-2.46935055e-01f,+1.18936189e-01f,-1.76510021e-01f,+1.08529210e-01f,-2.21197963e-01f,
-1.41780779e-01f,+1.73219608e-03f,-1.01914339e-01f,-2.25379080e-01f,+1.04105212e-02f,
+1.20005012e-01f,-1.42905816e-01f,-1.95136270e-03f,-8.70471671e-02f,+2.66463250e-01f,
-2.55471736e-01f,+1.11862116e-01f,+3.02079678e-01f,-7.76529312e-02f,-1.98053926e-01f,
+1.71652466e-01f,+2.68199921e-01f,-3.70675661e-02f,+7.49960840e-02f,+1.58151880e-01f,
-8.46575126e-02f,+2.90889531e-01f,-1.00687556e-01f,+4.89466498e-03f,-9.90415439e-02f,
+1.46395266e-01f,-1.04933463e-01f,+2.82480925e-01f,+1.50389701e-01f,-8.56339559e-02f,
-2.53483802e-01f,-9.01141688e-02f,+1.51478067e-01f,-1.14502339e-02f,+2.70033807e-01f,
+1.02720909e-01f,-9.84622445e-03f,-1.15397520e-01f,-3.57372202e-02f,+8.38012323e-02f,
+4.60102744e-02f,+1.34992346e-01f,+1.31700799e-01f,-1.08589366e-01f,-1.70464590e-01f,
+5.00522181e-02f,+1.01077795e-01f,-7.06637576e-02f,-1.26894891e-01f,-1.96625039e-01f,
-1.39282495e-01f,+6.55623078e-02f,-1.13142014e-01f,+1.08371705e-01f,-2.55623102e-01f,
-8.92957449e-02f,+2.16685757e-01f,-2.82308131e-01f,-1.08628877e-01f,+2.04744056e-01f,
+1.97115391e-01f,+2.42644265e-01f,-1.37777776e-01f,-1.10992409e-01f,+2.04646930e-01f,
-3.57482545e-02f,+1.84269041e-01f,-2.11686268e-01f,-9.82015952e-02f,+1.08534761e-01f,
+2.66674697e-01f,+1.36593267e-01f,+1.04105756e-01f,+2.96762101e-02f,-2.87841499e-01f,
+5.31596318e-02f,-7.08751231e-02f,+2.68210322e-01f,-8.04017708e-02f,+4.32299107e-01f,
+1.09349437e-01f,-3.13365720e-02f,+1.21007442e-01f,-1.12555310e-01f,+1.43754706e-01f,
+3.08516752e-02f,-1.84692666e-02f,+1.95112854e-01f,+9.44203790e-03f,+1.76130235e-01f,
-6.67718053e-02f,-3.84399407e-02f,+3.52577239e-01f,-1.08285494e-01f,-3.59499723e-01f,
-2.07840800e-01f,+1.55665830e-01f,-7.02960342e-02f,+1.09342217e-01f,+1.99219808e-01f,
-2.01207735e-02f,+9.06127691e-02f,+8.61929953e-02f,-3.94524261e-03f,+3.74788493e-01f,
+2.66485196e-02f,+2.24198461e-01f,-1.43873701e-02f,+1.57389328e-01f,+2.94785857e-01f,
+4.98773791e-02f,+1.48362219e-01f,+3.04679293e-02f,-5.13620228e-02f,-6.93684593e-02f,
-6.42588288e-02f,+6.75166547e-02f,+1.78354889e-01f,-1.78535327e-01f,+2.15763733e-01f,
+3.96105140e-01f,+4.03142981e-02f,-3.09610158e-01f,-3.37588459e-01f,-2.14144111e-01f,
-5.93970940e-02f,+1.45715475e-01f,-1.05189785e-01f,-1.97487399e-01f,+2.70433307e-01f,
+2.25804925e-01f,-3.25103909e-01f,+3.22638266e-02f,+6.81353286e-02f,-3.02289039e-01f,
+3.22517827e-02f,-1.15586564e-01f,+2.12528259e-02f,+4.06954177e-02f,-1.46368414e-01f,
+1.36079296e-01f,+1.46813273e-01f,+3.40731964e-02f,+1.35717895e-02f,+8.36046506e-03f,
+4.55562957e-02f,-1.38944402e-01f,+1.59483507e-01f,+3.26460361e-01f,+2.02183247e-01f,
+9.79665741e-02f,-3.98433097e-02f,+8.64047930e-03f,-1.54260397e-01f,+1.90842658e-01f,
+2.05341931e-02f,-1.73759341e-01f,-1.01562314e-01f,+1.21717818e-01f,-4.43792045e-02f,
+1.50466546e-01f,+3.62002365e-02f,+1.94739342e-01f,+2.57846981e-01f,-1.72078192e-01f,
-2.90612280e-02f,+8.42452571e-02f,-1.53902486e-01f,-3.02014593e-02f,+1.77541867e-01f,
+6.72992915e-02f,-2.08182648e-01f,+1.19576640e-01f,-7.97083005e-02f,-6.78575560e-02f,
-1.69146299e-01f,-6.49689585e-02f,-8.25957507e-02f,+2.32921407e-01f,-1.90050215e-01f,
-1.22939656e-02f,+2.71707773e-02f,+1.43096790e-01f,-2.89052422e-03f,+1.52142778e-01f,
+7.07519948e-02f,-2.95666680e-02f,-1.37642762e-02f,-2.66657174e-02f,+5.32531412e-03f,
+1.91653371e-02f,+1.83122247e-01f,-9.55090374e-02f,-4.14863452e-02f,+1.86109051e-01f,
-1.08362786e-01f,-1.11583091e-01f,-1.33706838e-01f,-2.82777045e-02f,-1.96555316e-01f,
+1.62260160e-01f,+6.22933395e-02f,-1.50153423e-02f,-1.62664443e-01f,+1.07946746e-01f,
+7.85441995e-02f,+2.50427455e-01f,+2.64531344e-01f,-1.70694049e-02f,-7.79719502e-02f,
+8.98984075e-02f,-1.60010513e-02f,-1.82639673e-01f,+1.83821544e-01f,+8.25529397e-02f,
+1.62923425e-01f,+9.80468690e-02f,-5.14207929e-02f,-6.04220480e-02f,+1.33592308e-01f,
-2.28664741e-01f,+1.07138246e-01f,-9.57676768e-03f,-1.79541349e-01f,+1.41509384e-01f,
+7.54002035e-02f,-1.69984609e-01f,+4.36457992e-02f,-8.79636407e-03f,+1.30581826e-01f,
-1.09848075e-01f,-3.12632620e-02f,+1.91581488e-01f,-1.35288179e-01f,+2.26718992e-01f,
-1.41014099e-01f,+5.51964343e-02f,-1.75615504e-01f,-6.33862615e-02f,-1.56798363e-01f,
-7.76374340e-02f,-1.95570126e-01f,+1.95850521e-01f,+7.61937201e-02f,-1.37910709e-01f,
-1.35482401e-02f,-2.31211394e-01f,+1.51337385e-01f,+1.04641497e-01f,+2.14142472e-01f,
+1.87854201e-01f,+5.98098934e-02f,-2.04616472e-01f,-4.65648323e-02f,+3.63014936e-02f,
+4.19209599e-02f,+2.03299463e-01f,-8.20181519e-02f,-1.09818995e-01f,+2.25337654e-01f,
-1.62626758e-01f,-2.07481578e-01f,+1.03433520e-01f,+1.72620714e-01f,+1.89523369e-01f,
-1.26463071e-01f,-2.03526154e-01f,-1.41651899e-01f,+1.70496106e-02f,+6.27561212e-02f,
-1.96127027e-01f,+2.29263991e-01f,-1.84677839e-01f,-1.00528359e-01f,+1.47697449e-01f,
-1.75675377e-01f,+2.12533861e-01f,-1.96680635e-01f,-1.29627153e-01f,-1.20674193e-01f,
+1.64249137e-01f,-1.52175993e-01f,-1.36576980e-01f,-1.34752197e-02f,+3.23652551e-02f,
-1.27923742e-01f,-6.20473959e-02f,-1.32196292e-01f,+1.59179032e-01f,-1.89417630e-01f,
+1.37236908e-01f,+3.01884621e-01f,+7.58434534e-02f,+1.08766437e-01f,+2.06168592e-01f,
+1.23789750e-01f,-8.08584243e-02f,-4.54769842e-02f,-2.11588979e-01f,-2.78521717e-01f,
+3.26506168e-01f,+1.07730255e-01f,+1.45393699e-01f,-2.67207563e-01f,+2.94798583e-01f,
+1.13489076e-01f,+1.60077191e-03f,+7.26251900e-02f,-1.57646626e-01f,-1.20510243e-01f,
+2.26366967e-02f,-5.93258105e-02f,-2.48134702e-01f,-1.19652323e-01f,+2.22704425e-01f,
+1.69519395e-01f,-2.67735898e-01f,+7.05012605e-02f,-1.74880236e-01f,-2.07490474e-02f,
-6.23613410e-02f,+6.12623692e-02f,-4.99307662e-02f,+2.02441081e-01f,+5.34873754e-02f,
+2.37674844e-02f,+2.44241327e-01f,-1.97103128e-01f,-2.27465883e-01f,+1.25032634e-01f,
+1.25534451e-02f,+1.88122600e-01f,-5.21733500e-02f,+1.21807039e-01f,+1.87152117e-01f,
+7.35220462e-02f,-9.57908481e-02f,+2.52433047e-02f,+5.37078083e-02f,-1.70942396e-02f,
-6.11381195e-02f,-2.01693714e-01f,-1.25928462e-01f,+8.23800862e-02f,+1.78630382e-01f,
-1.65153816e-01f,-1.50383264e-01f,-9.88879204e-02f,-1.95407882e-01f,-1.78326547e-01f,
-4.67428565e-02f,+2.13470936e-01f,+1.49276912e-01f,-1.51402280e-01f,+1.21504545e-01f,
-2.67657787e-02f,-4.11435366e-02f,+5.73358834e-02f,+4.50181067e-02f,-1.98042989e-02f,
+2.16287076e-02f,-1.55615181e-01f,+2.31208146e-01f,-1.49612576e-02f,-8.56359601e-02f,
+8.75735581e-02f,+1.46193475e-01f,+7.31253922e-02f,-1.43073201e-01f,-1.67714864e-01f,
-1.79091603e-01f,-1.72837079e-02f,+1.22063816e-01f,+1.96282595e-01f,-1.94101319e-01f,
-1.10422313e-01f,-9.22083259e-02f,+3.29869688e-02f,-5.32499999e-02f,+1.06384903e-02f,
+1.81972176e-01f,+7.52630234e-02f,+1.30441666e-01f,-6.99455589e-02f,-2.30997354e-02f,
+6.42608106e-03f,+1.63299739e-02f,-4.78621870e-02f,-7.97718614e-02f,+8.94709826e-02f,
+5.67097664e-02f,-2.97824144e-02f,-1.24711059e-01f,-1.69447064e-02f,+1.88335955e-01f,
-5.89086115e-03f,-1.88586920e-01f,+1.16089255e-01f,-9.65281278e-02f,+1.47856593e-01f,
+2.02363670e-01f,+1.85062140e-01f,-2.06845433e-01f,+1.14112526e-01f,-1.96942419e-01f,
-2.72861570e-02f,-1.39609531e-01f,+9.71962810e-02f,+1.67088866e-01f,+8.19769781e-03f,
-2.04079270e-01f,+2.60026716e-02f,+1.89990811e-02f,+8.47534314e-02f,-2.00192869e-01f,
+8.27092901e-02f,-5.95133454e-02f,+5.50115220e-02f,+1.15977384e-01f,+1.37103021e-01f,
+1.75791144e-01f,-1.92106217e-01f,+1.85059935e-01f,+7.86602199e-02f,+4.63672429e-02f,
-6.47011325e-02f,-2.41992086e-01f,+8.15359503e-02f,+9.48749110e-02f,-1.41404554e-01f,
-8.47735405e-02f,+4.43901345e-02f,+4.49029543e-02f,-9.88318771e-02f,-1.78873632e-02f,
-1.31449312e-01f,-2.46130452e-01f,-1.48147404e-01f,+7.01409206e-02f,+5.43073677e-02f,
-6.40920699e-02f,-1.94750018e-02f,+1.83134586e-01f,+7.35781565e-02f,-7.73788542e-02f,
-1.15346774e-01f,-2.24090666e-01f,+2.88284123e-02f,+1.02249354e-01f,-4.14466262e-02f,
+1.04019411e-01f,+1.48814127e-01f,-2.33221352e-02f,+1.93842530e-01f,+6.50371239e-02f,
-3.04476786e-02f,-2.49386981e-01f,+1.44027129e-01f,+8.76305997e-03f,+8.71687382e-02f,
-8.64073783e-02f,+7.76305571e-02f,-1.48555532e-01f,-6.97847158e-02f,-1.83357880e-01f,
-5.59291020e-02f,-1.37004942e-01f,-3.18332426e-02f,+7.92710856e-02f,-2.27228805e-01f,
+2.59342462e-01f,-3.13089013e-01f,-4.40721869e-01f,-4.48800288e-02f,-1.66358963e-01f,
+5.82736842e-02f,-7.42820650e-02f,+4.87197101e-01f,-2.30388060e-01f,+1.13546111e-01f,
-2.23895743e-01f,+1.21738061e-01f,-3.61253589e-01f,-2.32953578e-01f,-3.41858327e-01f,
-2.08384320e-01f,+3.88483822e-01f,+7.12953284e-02f,-3.80881131e-01f,-1.80620119e-01f,
-2.49755427e-01f,+2.18706459e-01f,+5.63496172e-01f,-1.86506212e-01f,-4.77575958e-02f,
-8.84992033e-02f,+4.13620591e-01f,+2.18480200e-01f,+5.84768923e-03f,+1.66466743e-01f,
-2.87523597e-01f,+1.34001702e-01f,+2.29627445e-01f,-1.11224234e-01f,+3.95827964e-02f,
+3.82518739e-01f,+1.67778298e-01f,-3.50893259e-01f,-3.59005928e-01f,+2.94098794e-01f,
+7.14872181e-02f,-5.97939491e-02f,+4.79936525e-02f,-3.02370310e-01f,-9.61837023e-02f,
+7.01510087e-02f,-1.05166428e-01f,+3.00974041e-01f,+2.55478293e-01f,-1.74115747e-01f,
-2.02021256e-01f,-2.77811855e-01f,+9.90898237e-02f,+3.31246816e-02f,-7.98640251e-02f,
+4.50831532e-01f,+1.47670150e-01f,+1.44045800e-01f,-7.35634640e-02f,-2.37305798e-02f,
+4.91478443e-02f,-1.94949917e-02f,-1.41347811e-01f,-9.63919684e-02f,-1.58342585e-01f,
+1.58101201e-01f,-3.64051074e-01f,+8.92510787e-02f,+1.70989800e-02f,-1.84887812e-01f,
-1.91388931e-02f,+9.17077661e-02f,+6.41378313e-02f,-3.81863005e-02f,-6.69339076e-02f,
+1.48656294e-01f,-2.12872401e-01f,+3.26827824e-01f,+1.43480197e-01f,-2.46741623e-02f,
-7.41106123e-02f,+6.56706020e-02f,-1.14684299e-01f,-1.62447393e-01f,-5.60774282e-02f,
+1.09056294e-01f,+1.40398845e-01f,+1.68176457e-01f,-1.62952393e-01f,+4.09494899e-02f,
+1.63710043e-01f,+1.66772351e-01f,+1.29967824e-01f,-6.56379610e-02f,+6.13539703e-02f,
+5.60268760e-04f,+5.32431901e-02f,+3.05003449e-02f,+6.78597763e-02f,-1.08080320e-01f,
+1.37917608e-01f,+1.07413545e-01f,+1.20942675e-01f,-1.82773575e-01f,-6.45500869e-02f,
-1.05698243e-01f,-4.28116955e-02f,-8.88679028e-02f,-5.97722009e-02f,-5.85972033e-02f,
-1.52146220e-01f,-1.06838651e-01f,+2.00158313e-01f,+1.70612574e-01f,+8.22169799e-03f,
+1.24769650e-01f,+2.16985673e-01f,+3.37983295e-03f,+9.35380533e-03f,+7.81408921e-02f,
+1.07410006e-01f,+2.18057021e-01f,+1.13398530e-01f,+7.51975039e-03f,-1.05535120e-01f,
+1.97033301e-01f,-1.49737254e-01f,-1.96408495e-01f,+5.66108599e-02f,-2.46890238e-03f,
-2.04244807e-01f,-1.30756442e-02f,+1.55277878e-01f,+3.33297104e-02f,+5.34441695e-02f,
+8.04341882e-02f,-4.98583823e-01f,-2.02643514e-01f,+1.09723866e-01f,-2.28280455e-01f,
+1.52495697e-01f,+2.97538221e-01f,+1.84109688e-01f,-1.13921762e-02f,-3.32969427e-01f,
-1.57159567e-01f,+2.32975319e-01f,-6.76450655e-02f,-9.33568031e-02f,-3.57868105e-01f,
+2.32942492e-01f,-2.79375259e-02f,-1.36805356e-01f,-7.79117584e-01f,-2.45729432e-01f,
-1.88080892e-01f,+1.06332578e-01f,+2.04467148e-01f,+6.94815293e-02f,-1.24451093e-01f,
-2.16178402e-01f,+1.56814873e-01f,+9.42690577e-03f,-2.94667333e-01f,+1.25673488e-01f,
-2.46666506e-01f,-1.26833692e-01f,-1.13568991e-01f,+7.78796375e-02f,-3.93564850e-02f,
-1.49353579e-01f,+9.24749952e-03f,+1.02217436e-01f,+4.73772809e-02f,-1.22963093e-01f,
-3.91518883e-02f,-1.32378832e-01f,+1.28383890e-01f,+6.09327555e-02f,+8.90248045e-02f,
-1.82853535e-01f,-1.08088419e-01f,-5.73695488e-02f,+5.81114292e-01f,-2.18369380e-01f,
+5.66566139e-02f,+1.69331729e-01f,-4.17988077e-02f,+1.94778293e-01f,+1.74447000e-02f,
+2.18099341e-01f,+1.49015233e-01f,-1.36320710e-01f,+1.24382824e-01f,-3.93147022e-02f,
+2.87277997e-03f,+8.93217623e-02f,-1.08284906e-01f,-1.18543014e-01f,-2.00013414e-01f,
-4.86925393e-02f,+1.59517020e-01f,-2.07604259e-01f,-2.17184544e-01f,+1.73969448e-01f,
+6.73190057e-02f,-6.35074526e-02f,-8.39696527e-02f,-3.00346017e-02f,+5.58834970e-02f,
-1.65916115e-01f,+2.17312902e-01f,+1.72591805e-01f,-1.56086341e-01f,+1.31771415e-02f,
+2.14477599e-01f,+2.35918164e-02f,-1.69510543e-02f,+1.42347604e-01f,+3.08081508e-04f,
+5.74017763e-02f,-6.79601878e-02f,-6.57758713e-02f,+7.04175532e-02f,+4.84977663e-03f,
-6.40144795e-02f,-1.11385979e-01f,+6.38993084e-02f,+1.92352504e-01f,+8.94358754e-02f,
+1.63644075e-01f,-3.16313803e-02f,+3.26943696e-02f,+1.71545476e-01f,+1.94560111e-01f,
-3.93178016e-02f,-1.40185580e-01f,+5.63088655e-02f,-1.49548620e-01f,-3.81502807e-02f,
-1.98419064e-01f,+2.81057358e-02f,-2.20868021e-01f,-1.00079179e-02f,+7.76918530e-02f,
+2.04057842e-01f,-3.72848958e-02f,-2.08010122e-01f,-7.59184808e-02f,+3.55989933e-02f,
+7.62195885e-03f,-1.62342459e-01f,+1.38546228e-02f,-7.20845759e-02f,+2.17847347e-01f,
+1.84339911e-01f,-3.33514251e-02f,-4.74431328e-02f,-2.36631244e-01f,+1.58343166e-01f,
+9.15787444e-02f,+1.44790947e-01f,-1.38725296e-01f,+1.55412918e-02f,-1.14605837e-01f,
+2.32294068e-01f,+1.93797186e-01f,+1.51873991e-01f,-2.32160851e-01f,+3.56863290e-01f,
+5.91341332e-02f,+2.62493193e-02f,+1.75584629e-01f,-2.50176817e-01f,+2.90815294e-01f,
+1.34357363e-01f,-1.45421118e-01f,-1.13547444e-01f,+1.64162412e-01f,+1.22315079e-01f,
+1.09820358e-01f,-9.59053040e-02f,-1.59559101e-02f,+2.13251084e-01f,+1.62317395e-01f,
+1.19408846e-01f,-8.13074932e-02f,-5.88987172e-02f,+1.24657504e-01f,-1.74770281e-01f,
-2.69976705e-01f,+1.75151542e-01f,+2.22034022e-01f,-2.06050828e-01f,-8.83130878e-02f,
+1.16751492e-01f,+9.16320682e-02f,+1.53819263e-01f,+1.48400918e-01f,-4.11499329e-02f,
+1.24221295e-02f,-4.90861982e-02f,-1.31772652e-01f,-4.99915294e-02f,-8.71024355e-02f,
-3.97732109e-02f,+1.34273961e-01f,-6.20571636e-02f,+6.45112619e-02f,-1.11958355e-01f,
+3.78078744e-02f,+4.26075280e-01f,-2.04034224e-01f,-7.70994872e-02f,+1.71543971e-01f,
+4.15306017e-02f,-6.93159252e-02f,+6.62576333e-02f,+1.13401130e-01f,-2.02836394e-01f,
+3.37550640e-02f,-1.51522085e-01f,-1.62555963e-01f,+1.69491947e-01f,+1.40044540e-01f,
-1.38462991e-01f,-7.08486289e-02f,-1.26634300e-01f,+6.97960854e-02f,-2.06052661e-01f,
+9.80082452e-02f,-9.71415937e-02f,-1.23609379e-01f,-1.32625550e-01f,+1.37968957e-02f,
+2.28485614e-01f,+1.79556966e-01f,-1.67075634e-01f,-2.08321080e-01f,+2.20779777e-01f,
+7.50219822e-02f,+5.42852283e-02f,+1.88665003e-01f,-2.09584832e-04f,-2.76680142e-02f,
+9.41312909e-02f,+5.26887476e-02f,+1.04660541e-01f,+2.14640051e-01f,-1.30201668e-01f,
-6.68607652e-02f,-5.37275076e-02f,+1.95587218e-01f,+1.77658260e-01f,-1.48494348e-01f,
-1.42641962e-01f,-1.04625925e-01f,-2.17292160e-01f,-2.04587117e-01f,-1.52850896e-01f,
-1.38456136e-01f,+2.19108999e-01f,-4.45844233e-02f,+1.43268168e-01f,+1.85022622e-01f,
-1.67842120e-01f,+1.22308284e-01f,-8.39087218e-02f,+3.77215147e-02f,-1.31203204e-01f,
+6.17555380e-02f,-1.03947341e-01f,+2.43469179e-02f,-1.32225737e-01f,+1.69083685e-01f,
+2.29154944e-01f,-2.31096774e-01f,+3.55817378e-02f,-2.06742615e-01f,-1.64288267e-01f,
+1.40059322e-01f,+9.18805599e-05f,-9.16985571e-02f,+1.12887114e-01f,+7.56689534e-02f,
+1.09473027e-01f,-1.49361774e-01f,+1.78562012e-02f,-7.46966451e-02f,-8.09931755e-02f,
-8.47666860e-02f,+2.35613957e-02f,-1.52544245e-01f,-6.11690581e-02f,-1.05553307e-01f,
+1.99571088e-01f,-3.87374461e-02f,-3.85235958e-02f,+1.70844153e-01f,+1.83882654e-01f,
+5.28701618e-02f,+1.28404528e-01f,-5.50045036e-02f,+1.11769885e-02f,+7.23942593e-02f,
-1.07591636e-01f,-1.12175927e-01f,-5.46524534e-03f,+1.00123666e-01f,+1.35125995e-01f,
+4.30379324e-02f,+2.68741459e-01f,-1.28518999e-01f,-1.78388506e-02f,+7.32542202e-02f,
+1.14676505e-01f,+2.48944294e-02f,-1.22348525e-01f,-1.72199368e-01f,-1.78814322e-01f,
-3.89960483e-02f,+1.89438045e-01f,-1.70079276e-01f,+5.60645349e-02f,-1.25515297e-01f,
-9.08988416e-02f,+6.86943606e-02f,+1.76134840e-01f,-1.39588699e-01f,+3.96224633e-02f,
-2.46697426e-01f,+1.73048928e-01f,+1.18051670e-01f,+1.43457294e-01f,-5.64159192e-02f,
+1.49873659e-01f,+1.65447593e-01f,-5.59407249e-02f,+1.26974329e-01f,+1.16100781e-01f,
+1.38189510e-01f,-2.22238135e-02f,-1.08893439e-02f,-6.24102429e-02f,+1.63839579e-01f,
+1.47900581e-01f,+1.89299077e-01f,+4.18161554e-03f,+5.00879586e-02f,+2.23101974e-02f,
+2.11232994e-02f,+2.50611305e-02f,-1.65120542e-01f,+2.34162241e-01f,-2.26633456e-02f,
+9.99559686e-02f,+1.43603133e-02f,+1.03408881e-01f,+4.29485589e-02f,+9.63461772e-02f,
-1.08152822e-01f,+3.26765150e-01f,-1.70909926e-01f,+1.28463060e-02f,+1.57429054e-01f,
-1.71480715e-01f,+1.84104130e-01f,+1.55471340e-01f,+8.79601166e-02f,-2.65780598e-01f,
+9.68627036e-02f,+1.75002247e-01f,+1.80240348e-01f,-2.46047139e-01f,+4.76424694e-02f,
-1.76479697e-01f,-8.07719678e-02f,-1.05248675e-01f,+8.17264840e-02f,-2.72268802e-02f,
+2.05488443e-01f,-8.99970457e-02f,-9.99278873e-02f,-5.82414716e-02f,-1.56457469e-01f,
-1.53273165e-01f,-1.80076972e-01f,-7.37520820e-03f,+1.12277627e-01f,+3.69472206e-02f,
-1.52715504e-01f,-5.40975807e-03f,+1.16517447e-01f,+8.23652744e-02f,+1.89994827e-01f,
-1.68598697e-01f,+7.77632520e-02f,-9.35296938e-02f,-1.39316455e-01f,+2.41352692e-02f,
-6.82193711e-02f,+2.39967573e-02f,-1.04530036e-01f,+2.54082680e-01f,-8.95412788e-02f,
+4.12769951e-02f,+1.79318458e-01f,-1.29333079e-01f,+1.26171589e-01f,+1.80702075e-01f,
+1.62032694e-01f,+2.04558074e-01f,-3.43285054e-01f,+6.24612384e-02f,+9.38454568e-02f,
-2.84943819e-01f,-1.44405827e-01f,+2.23079011e-01f,+2.36655548e-02f,+2.51485378e-01f,
+2.98479229e-01f,+2.67836362e-01f,-1.70590654e-01f,+7.10149556e-02f,+8.20240080e-02f,
-2.60495722e-01f,+1.04855571e-03f,+1.50783062e-01f,-1.30947977e-01f,+4.33977926e-03f,
+1.28024518e-01f,+2.91453814e-03f,+8.98805857e-02f,+1.07309274e-01f,-8.70266855e-02f,
-7.88678378e-02f,-1.52514189e-01f,+1.61288813e-01f,+7.28903189e-02f,-1.00534856e-01f,
+1.03364214e-01f,+3.46283317e-02f,-1.40580818e-01f,-1.16533577e-01f,+2.47021809e-01f,
+1.39746040e-01f,-1.37032747e-01f,+9.06106159e-02f,-6.23462088e-02f,+2.66601685e-02f,
+1.35079443e-01f,-7.48166144e-02f,+1.90632045e-01f,+1.77030295e-01f,-6.60059080e-02f,
+9.07167867e-02f,+1.45741746e-01f,+1.30029976e-01f,+2.09055126e-01f,+5.34315147e-02f,
+2.71343794e-02f,-1.44936487e-01f,+1.90832213e-01f,+4.29003648e-02f,+2.52238549e-02f,
-1.27925500e-02f,-6.26694039e-02f,-3.06749046e-01f,+1.42335504e-01f,+1.08678918e-02f,
-1.95911527e-02f,-2.82885373e-01f,-5.36047816e-02f,+2.17564497e-02f,-6.29089847e-02f,
-2.12238535e-01f,+1.50846511e-01f,-3.04189742e-01f,-3.20766270e-01f,-2.96014566e-02f,
-1.59991458e-01f,+3.68136495e-01f,-1.35629073e-01f,+4.02350992e-01f,-2.18216389e-01f,
+3.36332053e-01f,-1.53386295e-01f,-3.65709066e-02f,-2.33471826e-01f,-5.18958420e-02f,
-2.28892371e-01f,+2.21959174e-01f,+5.04151344e-01f,+1.64303318e-01f,-3.27985212e-02f,
+3.53536978e-02f,-9.05117169e-02f,-8.16253424e-02f,+9.60054025e-02f,-2.65028805e-01f,
-2.64105827e-01f,-1.91852570e-01f,+3.63801807e-01f,+2.23531332e-02f,+2.97491133e-01f,
+6.26601577e-02f,+1.32965585e-02f,-6.29185885e-02f,+3.91258076e-02f,-5.87400049e-03f,
-6.55634701e-02f,-3.17490213e-02f,+1.15491979e-01f,-3.43541414e-01f,+3.21595639e-01f,
+5.58422245e-02f,+2.03147501e-01f,+1.41018033e-01f,+1.03784902e-02f,-3.13309222e-01f,
-1.61480844e-01f,+2.14211375e-01f,-2.24649925e-02f,+6.05010867e-01f,+3.70403975e-01f,
-9.92378145e-02f,+1.22051097e-01f,-2.74446696e-01f,+4.17576373e-01f,+2.68236965e-01f,
-8.94110724e-02f,-1.96390137e-01f,-2.79704351e-02f,+6.04300976e-01f,+1.45537276e-02f,
-3.49269733e-02f,-1.44162863e-01f,+4.43668552e-02f,-5.99409454e-02f,-1.71146169e-01f,
+1.58585489e-01f,-1.69249013e-01f,+4.83678281e-02f,+9.70252678e-02f,-8.36432353e-02f,
+2.42229015e-01f,-5.13249412e-02f,-5.24534211e-02f,-1.73171580e-01f,-2.61735409e-01f,
-1.95666745e-01f,-2.21624404e-01f,+2.59148300e-01f,+3.28891784e-01f,+2.09795281e-01f,
-1.49206430e-01f,+1.19334713e-01f,-3.58268023e-02f,+9.64399800e-02f,+9.44120288e-02f,
-5.67866750e-02f,-1.64532453e-01f,+2.46189222e-01f,+3.91946025e-02f,+2.39135906e-01f,
-1.06582746e-01f,-1.88333705e-01f,+9.89362597e-02f,-2.53031492e-01f,-2.20060140e-01f,
+1.89082906e-01f,+1.63096637e-01f,+1.72380924e-01f,-3.66361067e-02f,+2.90681094e-01f,
-7.85421208e-02f,-1.95520535e-01f,-8.64070579e-02f,-1.20169014e-01f,+1.79301515e-01f,
-1.96045026e-01f,+5.41053414e-02f,-2.26976201e-01f,-5.30922152e-02f,+2.71928668e-01f,
-1.84215799e-01f,+1.13357835e-01f,-1.12948932e-01f,+1.14905484e-01f,+2.26458296e-01f,
-1.89888142e-02f,-1.18416131e-01f,+9.71364081e-02f,-3.34092528e-02f,+1.23203546e-01f,
-1.30454600e-01f,-1.87086672e-01f,-1.73414215e-01f,+1.02052435e-01f,+3.10376682e-03f,
-3.25104594e-02f,-1.17796898e-01f,+3.04739345e-02f,+8.57794359e-02f,-9.24237370e-02f,
+1.51296854e-01f,+8.16924274e-02f,+1.11016273e-01f,+9.53879654e-02f,-1.38209462e-01f,
+1.33736446e-01f,+1.89323023e-01f,-8.20662268e-03f,+4.42608967e-02f,-1.36667460e-01f,
-2.14262441e-01f,+1.71972692e-01f,-1.65092185e-01f,+1.52694866e-01f,-5.49498051e-02f,
-1.28857985e-01f,+1.38696462e-01f,+4.21852209e-02f,-2.11602852e-01f,+2.00692430e-01f,
+7.04548210e-02f,+1.26452312e-01f,-2.33330708e-02f,+6.02658875e-02f,+1.21743800e-02f,
-1.44796237e-01f,+6.85798451e-02f,-1.53433338e-01f,+1.33243859e-01f,-1.59700327e-02f,
-1.86754838e-01f,+2.23565593e-01f,+1.80874750e-01f,-1.76397160e-01f,+2.30566263e-01f,
+2.21594378e-01f,-1.62153140e-01f,+2.36864477e-01f,+2.72287633e-02f,+6.28731251e-02f,
-1.16117604e-01f,-7.95018673e-02f,+1.76007986e-01f,-4.62348051e-02f,+9.19073299e-02f,
-1.54347673e-01f,+1.47160441e-01f,-7.10760057e-03f,+2.04290040e-02f,-1.43792853e-01f,
+2.01978996e-01f,+2.53438622e-01f,+2.32975617e-01f,+1.97866201e-01f,+1.75878018e-01f,
+2.27737427e-01f,-2.48412229e-03f,+8.49452987e-02f,+4.63279933e-02f,+7.03696012e-02f,
+4.75793220e-02f,+9.87791047e-02f,-1.19798407e-01f,+1.61596596e-01f,+1.75821334e-02f,
-1.82898968e-01f,-7.86546767e-02f,-9.24744755e-02f,-1.34636521e-01f,-1.43039659e-01f,
-1.15217067e-01f,-8.80854279e-02f,+3.97018790e-02f,-2.25847155e-01f,+1.81987166e-01f,
-7.81133771e-03f,-1.16603330e-01f,+2.29758471e-01f,+6.48743510e-02f,-7.41242021e-02f,
+1.55148000e-01f,+2.22769678e-01f,+8.20622444e-02f,+5.27181923e-02f,-6.48613721e-02f,
+1.85498804e-01f,+1.06086612e-01f,-7.43582845e-02f,+2.10207582e-01f,+1.53487325e-01f,
-5.47223985e-02f,-1.54520348e-01f,+3.86150777e-02f,-1.55481309e-01f,-1.35078222e-01f,
+2.04122961e-01f,+3.73291969e-03f,-9.02027488e-02f,-1.46788418e-01f,+2.04787970e-01f,
+2.97712088e-02f,+2.22142249e-01f,-1.89700902e-01f,+8.07363987e-02f,+3.17385495e-02f,
+3.57105732e-02f,-2.24345222e-01f,-2.26518720e-01f,-2.16353551e-01f,+6.48747683e-02f,
-3.20507735e-02f,+8.93964171e-02f,+1.62064284e-01f,+1.86404526e-01f,+1.48880452e-01f,
-1.44096911e-01f,+1.41464949e-01f,+5.30912876e-02f,-7.89298862e-02f,+5.10033369e-02f,
+2.40163803e-02f,-1.21340744e-01f,-4.18423712e-02f,-4.52805012e-02f,+3.71460617e-02f,
-2.08380625e-01f,+1.32741272e-01f,+9.00501236e-02f,+1.52762443e-01f,+6.90300614e-02f,
-2.11300299e-01f,-7.55845830e-02f,-4.49038623e-03f,-1.28318012e-01f,-6.87375665e-02f,
-2.99120396e-01f,-1.15046196e-01f,-2.47432245e-03f,-7.97715560e-02f,+7.49349147e-02f,
+7.57246017e-01f,+7.76320398e-02f,-5.89181930e-02f,-5.63937053e-02f,-1.98708978e-02f,
+2.45725922e-02f,-1.22677878e-01f,+1.27156943e-01f,+1.38614580e-01f,+2.35245302e-01f,
+6.61424547e-02f,+1.49577796e-01f,-1.12931602e-01f,+2.32519314e-01f,+1.45029470e-01f,
+1.81344017e-01f,-4.81520146e-02f,+2.27434505e-02f,-1.13276772e-01f,+2.57150292e-01f,
-3.12706940e-02f,-1.80715501e-01f,+5.79921976e-02f,-2.94278469e-02f,+4.64129001e-02f,
-2.08318401e-02f,+6.14882670e-02f,-2.13950038e-01f,-1.87819704e-01f,+9.44508687e-02f,
-5.65717109e-02f,+1.29203349e-01f,+1.19103156e-01f,-1.66715048e-02f,+2.00724974e-01f,
+2.99096376e-01f,+1.53806195e-01f,-1.94691762e-01f,-3.28193419e-02f,-1.08021855e-01f,
-4.64364067e-02f,+1.30126074e-01f,+1.88495919e-01f,+8.01214576e-02f,-1.70460865e-01f,
-3.58250327e-02f,+1.86917320e-01f,-2.17624635e-01f,-7.43158013e-02f,+1.35300204e-01f,
+5.12142517e-02f,+1.08573020e-01f,+1.67327970e-01f,+4.58523631e-02f,+1.12021029e-01f,
+5.45195937e-02f,+2.21931934e-02f,-1.63260594e-01f,+7.43387640e-02f,+1.22896403e-01f,
-7.56309181e-02f,+6.73929453e-02f,-5.53496182e-02f,-1.83214217e-01f,-3.35703492e-02f,
-5.82709610e-02f,+8.73452127e-02f,-2.08751738e-01f,+8.50853324e-03f,+8.12616050e-02f,
+1.14805907e-01f,+1.01360917e-01f,-1.95065081e-01f,+1.96550488e-02f,+1.62136793e-01f,
-1.44667625e-02f,-6.04317635e-02f,-1.49863988e-01f,-1.09623075e-02f,-1.43315136e-01f,
-5.01734316e-02f,+3.04778814e-02f,+4.60256934e-02f,+1.11442804e-01f,+1.45642161e-02f,
+1.97503358e-01f,-1.93269312e-01f,-5.22829145e-02f,+1.21341407e-01f,-1.94080234e-01f,
-3.92986834e-03f,+7.92880058e-02f,-1.72121406e-01f,-1.37779653e-01f,-1.67617798e-02f,
-1.54421180e-01f,+1.01379156e-02f,-2.05986276e-01f,-1.19028680e-01f,-8.60403478e-02f,
-6.47196621e-02f,+4.88405228e-02f,-1.89130858e-01f,+1.98103189e-01f,-1.47162288e-01f,
+2.17278242e-01f,-1.17136009e-01f,+1.55063748e-01f,-5.54978848e-04f,-2.96220183e-04f,
+7.58071840e-02f,+7.99106061e-02f,+1.32988751e-01f,-1.18596926e-01f,-2.03662515e-01f,
+2.00298399e-01f,+1.61649331e-01f,-1.71980128e-01f,+1.19023971e-01f,-6.76275939e-02f,
-3.98968793e-02f,+1.37783587e-01f,-5.76350018e-02f,-5.84863760e-02f,+1.87654212e-01f,
+6.86894963e-03f,+4.27593105e-02f,-2.86873733e-03f,+6.51122704e-02f,+2.60082614e-02f,
-2.20703080e-01f,+9.91695672e-02f,-1.79344803e-01f,+3.00401002e-02f,+1.93657905e-01f,
+9.40834507e-02f,+1.32898524e-01f,+1.41685009e-01f,+1.24906413e-01f,-1.46666929e-01f,
-3.62868570e-02f,+1.26022384e-01f,-1.52637735e-01f,+1.68960124e-01f,-9.77812707e-03f,
+1.03850991e-01f,-9.51084793e-02f,+1.08271539e-02f,+6.65573701e-02f,+9.72988456e-02f,
+2.06061304e-01f,+9.21897218e-02f,-1.29696459e-01f,-1.00434721e-01f,-1.85733840e-01f,
-6.15929216e-02f,-1.16068102e-01f,-7.33244698e-03f,+3.44224162e-02f,+7.74751157e-02f,
+1.56691238e-01f,-1.60099879e-01f,+4.64086747e-03f,-1.34604394e-01f,+1.45318434e-01f,
+2.42780205e-02f,+2.81465389e-02f,+4.83511109e-03f,-8.36670678e-03f,-6.82337210e-02f,
+1.59297213e-01f,+2.18780309e-01f,+9.01684761e-02f,-9.58178192e-03f,-6.25074431e-02f,
-8.16057622e-02f,-1.35874689e-01f,-1.46710530e-01f,+1.71262950e-01f,+3.56014878e-01f,
+2.33956710e-01f,-6.27073944e-01f,-1.63696632e-01f,-6.31160438e-02f,+3.64746541e-01f,
+9.03112441e-02f,+1.71564236e-01f,-1.56113768e+00f,+1.53935120e-01f,-1.70754805e-01f,
+1.56495452e-01f,-6.90654740e-02f,+1.49371552e+00f,-5.71074113e-02f,-4.05702293e-02f,
+1.81812122e-02f,-1.26126349e-01f,+3.84279490e-02f,+4.98314723e-02f,+1.22957021e-01f,
-8.58803988e-02f,+3.88268650e-01f,+1.41870975e-01f,-7.48095289e-02f,-1.31314123e+00f,
+9.90257785e-02f,+2.74448562e-03f,+2.00455964e-01f,+9.67244804e-03f,+2.32427970e-01f,
-1.76890835e-01f,-6.73004389e-02f,+1.69910133e-01f,-9.19185951e-02f,-8.53382796e-02f,
-9.62204561e-02f,+1.98954120e-01f,-7.89042354e-01f,+3.11227366e-02f,+2.30352193e-01f,
+4.32396531e-02f,+8.87606367e-02f,-9.67621654e-02f,-1.69054002e-01f,+1.03445843e-01f,
+1.31749094e-01f,-1.48616150e-01f,+2.48154253e-01f,-1.44498810e-01f,-9.67583582e-02f,
+4.17354070e-02f,+1.78859562e-01f,-1.45625249e-01f,-1.22376792e-01f,+5.29057860e-01f,
+1.55173197e-01f,+4.50325042e-01f,+1.21931456e-01f,-1.40032127e-01f,+7.45918155e-02f,
-1.56382963e-01f,+1.66931674e-01f,-8.17382485e-02f,-9.78066549e-02f,+1.57683074e-01f,
-2.12139323e-01f,+1.90403745e-01f,-5.38089611e-02f,+1.30268171e-01f,-2.36198567e-02f,
-5.22617809e-02f,-7.10487589e-02f,+1.86371043e-01f,-1.81988373e-01f,-2.44996652e-01f,
-1.79058671e-01f,+2.85568200e-02f,+1.36368379e-01f,-6.15116954e-02f,-1.92618772e-01f,
+3.27893272e-02f,-4.29166295e-02f,+1.44974172e-01f,+1.45847037e-01f,-2.11278543e-01f,
+1.03287905e-01f,+2.34764576e-01f,+1.38072833e-01f,-3.22890252e-01f,+1.24294691e-01f,
+1.74891427e-02f,+1.58216819e-01f,+1.82875395e-01f,+1.20477453e-01f,+1.31541848e-01f,
-1.12590663e-01f,-1.78435355e-01f,+2.46504154e-02f,+7.59069696e-02f,-1.72839433e-01f,
+5.36710722e-03f,-2.22939011e-02f,-1.30316600e-01f,-2.31200695e-01f,-9.85430330e-02f,
+9.34939012e-02f,+1.85077012e-01f,+1.41168654e-01f,-1.58087745e-01f,+1.00426972e-01f,
-1.76409278e-02f,-1.57281935e-01f,+1.50469914e-01f,+6.04952015e-02f,+5.70017397e-02f,
+4.41853888e-02f,-1.64044082e-01f,-1.98428318e-01f,+2.19178513e-01f,+1.46654397e-01f,
-1.02646254e-01f,+4.96531427e-02f,+1.92677572e-01f,-6.59920126e-02f,+1.55521616e-01f,
-1.63427845e-01f,+2.39462301e-01f,+9.39162076e-02f,+2.85809100e-01f,-4.76276159e-01f,
-4.72357385e-02f,+1.22913107e-01f,+5.15546575e-02f,-5.66260815e-02f,-3.08529645e-01f,
-3.66871387e-01f,-7.39910901e-02f,-2.16510519e-01f,+1.46325663e-01f,+1.48438746e-02f,
+9.27939177e-01f,+6.90234154e-02f,+4.77506220e-02f,-6.12656474e-02f,+2.18782946e-01f,
-2.53260806e-02f,+7.00916126e-02f,+1.49670228e-01f,-1.28257126e-01f,+2.65926510e-01f,
-4.89132330e-02f,-1.41117960e-01f,-5.53404868e-01f,+8.10280070e-02f,-2.56479621e-01f,
-2.45471001e-01f,-6.76980019e-02f,+1.61137268e-01f,+1.50925994e-01f,-2.80920029e-01f,
+2.62192011e-01f,+1.90459058e-01f,-1.42151386e-01f,-1.25763975e-02f,-1.99176535e-01f,
-6.42776847e-01f,-7.02152923e-02f,-9.07168388e-02f,-1.68396875e-01f,-2.21115872e-01f,
+1.08351938e-01f,+2.47807592e-01f,-7.05396235e-02f,-1.40207872e-01f,-2.51016408e-01f,
-2.71443427e-01f,+1.81769028e-01f,-6.53470634e-03f,+7.90700391e-02f,-2.57318676e-01f,
+5.60314879e-02f,+9.16696563e-02f,+5.41833460e-01f,+1.31630376e-01f,-8.30290392e-02f,
-1.21202916e-02f,+3.39132398e-02f,+1.35695934e-01f,+1.69465899e-01f,-1.69259295e-01f,
-1.01408072e-01f,-1.32886782e-01f,-1.45690143e-02f,-2.03943118e-01f,+1.39200300e-01f,
-1.28665596e-01f,-5.96592575e-02f,-2.38043070e-02f,-5.39702475e-02f,-5.05815595e-02f,
-1.09620668e-01f,+2.28718936e-01f,+1.22094542e-01f,+1.91811264e-01f,+1.75738126e-01f,
-1.66128188e-01f,-1.46411061e-01f,+1.43845558e-01f,+1.43839985e-01f,-1.18067890e-01f,
-1.62626043e-01f,+1.13163918e-01f,-1.76592022e-01f,-2.00868309e-01f,+1.22652024e-01f,
+1.60034865e-01f,-1.86556131e-02f,+7.50428736e-02f,+1.84317380e-01f,+3.92088592e-02f,
-5.01759648e-02f,+1.73694968e-01f,-2.82765776e-02f,-8.61108154e-02f,-2.27592543e-01f,
-1.08217597e-02f,+2.12462962e-01f,-7.15056509e-02f,+1.40652388e-01f,+1.25204235e-01f,
-1.85404941e-01f,-1.99041367e-02f,-1.10565126e-01f,+1.22686028e-02f,+1.34863228e-01f,
+2.75743604e-02f,+7.83642530e-02f,+1.41337574e-01f,-1.97543800e-01f,+4.27596271e-02f,
-1.41884342e-01f,+4.74757850e-02f,-2.42897570e-02f,-1.01966411e-02f,+1.33318752e-02f,
+4.74274158e-02f,-9.49870199e-02f,-1.76602900e-01f,+1.51400059e-01f,-1.46990836e-01f,
+2.24111468e-01f,-2.11743921e-01f,+9.67782736e-02f,-3.09436917e-02f,-6.54925555e-02f,
+3.51873436e-03f,+7.10145459e-02f,-7.21822903e-02f,+1.68523774e-01f,-2.69355159e-02f,
+1.37158975e-01f,-9.73721296e-02f,-2.17358440e-01f,-1.26805708e-01f,-2.07728714e-01f,
-1.35442272e-01f,+1.21406138e-01f,+4.27694842e-02f,+2.84932345e-01f,+2.34532356e-01f,
+8.53236914e-02f,-2.62971818e-01f,-2.79244799e-02f,+1.51919082e-01f,+1.61027331e-02f,
+1.20230829e-02f,-1.02504842e-01f,+2.47097224e-01f,-7.98363145e-03f,+2.01306596e-01f,
-7.60548860e-02f,-8.80178958e-02f,-1.97506055e-01f,+6.36444017e-02f,-1.50169432e-01f,
+1.15297362e-01f,+3.73024642e-02f,+1.00891240e-01f,+2.38460019e-01f,+1.68657809e-01f,
-2.30698884e-01f,-2.93751899e-02f,-1.05411768e-01f,-2.55851775e-01f,-4.41929745e-03f,
-2.00334087e-01f,+8.43971074e-02f,+1.42504409e-01f,+1.36922166e-01f,-3.02236322e-02f,
-2.10131988e-01f,+8.50219727e-02f,-1.41227648e-01f,+1.59521282e-01f,+1.05480701e-01f,
-1.62653551e-01f,-5.01891822e-02f,-1.59704134e-01f,-9.08855647e-02f,-4.29369286e-02f,
+3.92266601e-01f,-6.76469728e-02f,-1.39127359e-01f,+1.03445046e-01f,+2.20427349e-01f,
-1.78679824e-01f,-1.41419649e-01f,-5.87991960e-02f,-7.16655105e-02f,-1.10147722e-01f,
+4.51837182e-02f,-1.22493580e-01f,-9.93613452e-02f,+1.65142506e-01f,+1.44257158e-01f,
-1.18715569e-01f,-5.66525459e-02f,+9.84174311e-02f,+1.89416587e-01f,+1.70444071e-01f,
-2.22855896e-01f,-1.29963458e-01f,-1.07016183e-01f,-6.96986765e-02f,-1.88453346e-02f,
+1.86976820e-01f,-1.16262570e-01f,+1.24165416e-02f,+2.13394076e-01f,-1.74351245e-01f,
+1.16601110e-01f,-1.44832447e-01f,-2.23997802e-01f,+2.13949114e-01f,+1.84828341e-01f,
+1.49997771e-01f,+1.92766160e-01f,+2.04438120e-01f,+1.12284571e-02f,+4.97560799e-02f,
+1.73982799e-01f,-1.58951893e-01f,+3.38816345e-02f,+1.65828317e-01f,-1.75775141e-01f,
-1.28101707e-02f,-2.07459003e-01f,-1.49132490e-01f,-4.06126082e-02f,-9.17882770e-02f,
-3.09200138e-02f,+7.65114129e-02f,-8.48606229e-04f,+8.34645331e-03f,+1.00678623e-01f,
+2.00749665e-01f,+4.06398177e-02f,+9.85328853e-03f,+2.29370594e-02f,+4.75662351e-02f,
+1.94409460e-01f,-1.82078272e-01f,+1.18191928e-01f,+1.73323750e-02f,+1.95843399e-01f,
+6.33384883e-02f,-1.21738233e-01f,-2.92290896e-02f,-1.19257912e-01f,+2.08949447e-01f,
+1.00648165e-01f,-1.00867063e-01f,-1.34431243e-01f,+2.33693630e-01f,-1.69397295e-01f,
+1.57859191e-01f,-8.96216631e-02f,+1.16393588e-01f,+1.81755811e-01f,+7.15067536e-02f,
+2.20411688e-01f,+2.49044016e-01f,+2.46018589e-01f,+4.26392704e-02f,+8.71934444e-02f,
+1.16569750e-01f,-9.80678737e-01f,+4.76330034e-02f,-1.90008983e-01f,+1.10533617e-01f,
-2.16926828e-01f,-3.20780687e-02f,+1.80074051e-01f,+6.03954792e-02f,+1.55387059e-01f,
-4.64930803e-01f,-2.03135967e-01f,+4.73066382e-02f,+3.74184549e-01f,+2.49775589e-01f,
-1.12028336e-02f,+1.84174508e-01f,-2.20957249e-01f,-2.70741522e-01f,-5.83374500e-02f,
+2.31180459e-01f,-2.55929619e-01f,-2.06041206e-02f,+2.96535701e-01f,+3.89430337e-02f,
+2.50183880e-01f,+2.34785810e-01f,+2.02558354e-01f,-1.61880016e-01f,-2.17973500e-01f,
+4.55486675e-04f,-1.31766275e-01f,-4.59543355e-02f,+7.22500235e-02f,-1.98260278e-01f,
-1.82513837e-02f,+1.81076420e-03f,-4.61803861e-02f,-8.83420035e-02f,+8.17753002e-02f,
+3.03631663e-01f,+2.37659186e-01f,+7.46964589e-02f,-8.25040221e-01f,+6.98888898e-02f,
-1.10084563e-01f,+1.63021922e-01f,+1.03755556e-02f,+3.27423215e-02f,-2.54104316e-01f,
+5.32954521e-02f,+9.67635959e-02f,+5.85940927e-02f,+2.07885683e-01f,-5.60223639e-01f,
+1.74678475e-01f,-1.83275327e-01f,-2.31151909e-01f,-1.10011905e-01f,-2.64165103e-01f,
-7.39259601e-01f,+7.82490149e-02f,+2.83957291e-02f,+5.64471819e-02f,+2.54717082e-01f,
-3.07242393e-01f,+2.07582772e-01f,-1.52661726e-01f,-2.27351174e-01f,+1.99690029e-01f,
+2.31688142e-01f,+9.76493433e-02f,+2.66508639e-01f,-7.74206698e-01f,+2.46400177e-01f,
+2.74196178e-01f,+2.97810286e-01f,-4.54426795e-01f,-1.49972752e-01f,-1.58838883e-01f,
-6.63628355e-02f,-2.02217877e-01f,+2.43358493e-01f,-4.31427658e-02f,+1.29080430e-01f,
-2.31414363e-02f,+7.15109482e-02f,+1.42214606e-02f,-1.01422518e-01f,-1.06993914e+00f,
-7.88573205e-01f,+5.87240383e-02f,-4.52443063e-02f,-1.36402443e-01f,-2.04656184e-01f,
+8.71434808e-02f,-7.06931800e-02f,-1.10136844e-01f,+3.26804481e-02f,-3.23608279e-01f,
+1.19577665e-02f,+3.37907076e-02f,+2.04000846e-01f,+9.91182625e-02f,-8.51600021e-02f,
-1.29078344e-01f,+1.71748936e-01f,+3.86699796e-01f,-6.54902160e-02f,+1.70882925e-01f,
+1.67927012e-01f,+1.73861772e-01f,+1.84406340e-03f,+1.69140771e-02f,+1.32473543e-01f,
+3.79822291e-02f,-2.68157649e+00f,+1.28318202e+00f,+1.69908607e+00f,+9.19116080e-01f,
+1.21348016e-01f,-7.23727560e+00f,+1.19912183e+00f,-1.65883780e+00f,+2.47549295e+00f,
-1.01052296e+00f,+1.61099911e-01f,-2.07201552e+00f,+1.06183481e+00f,+3.41007292e-01f,
+1.28990281e+00f,-1.43601924e-01f,-2.17932105e+00f,-1.38582408e-01f,+9.91398513e-01f,
+1.85132563e-01f,+9.60980356e-01f,+4.73811507e-01f,-3.01261306e-01f,+1.45946622e+00f,
+1.17777276e+00f,+1.07086957e+00f,-9.60435390e-01f,-1.28088629e+00f,-1.18809319e+00f,
+3.33696604e-04f,+9.34252501e-01f,-1.79857209e-01f,-1.10388100e+00f,+1.08381367e+00f,
+9.12281692e-01f,-1.21632886e+00f,-1.06214476e+00f,+1.25723779e-01f,+4.86552596e-01f,
-2.17159152e+00f,-5.39772660e-02f,-2.22972766e-01f,-1.58793449e-01f,+1.35850859e+00f,
+9.54061270e-01f,-1.06572700e+00f,-2.20497474e-01f,-4.57345438e+00f,-4.64893818e+00f,
+8.72949958e-01f,-1.48846388e-01f,+1.32427478e+00f,-1.09618449e+00f,-1.19262087e+00f,
+1.23909271e+00f,-4.00611758e-01f,-1.01780808e+00f,-8.27350998e+00f,+1.31274295e+00f,
+1.10647309e+00f,+1.31730914e-01f,+9.43493962e-01f,+1.20257533e+00f,+1.18648899e+00f,
+2.03651294e-01f,-7.91778266e-01f,+1.73699439e+00f,-5.95285833e-01f,-2.12595761e-01f,
+6.51648879e-01f,-8.87434304e-01f,+4.84836549e-01f,+1.55043840e+00f,+6.25392854e-01f,
-1.68752432e-01f,+3.30182314e-02f,-5.76261163e-01f,-4.60303932e-01f,-7.76617885e-01f,
+1.55325234e-02f,+3.54038745e-01f,+1.28007188e-01f,-7.35952914e-01f,-1.76812500e-01f,
-8.37118864e-01f,+1.70450866e+00f,-5.82601964e-01f,-7.59602368e-01f,-5.65484762e-01f,
+1.66937661e+00f,+7.40991414e-01f,+6.47444606e-01f,+7.63188124e-01f,-6.94155842e-02f,
-8.00605476e-01f,+2.39936411e-02f,+4.87232327e-01f,-7.33766198e-01f,-1.31860936e+00f,
+6.65735245e-01f,+6.58827364e-01f,+2.09990382e+00f,+2.09476948e+00f,+4.90258634e-02f,
+1.48417473e-01f,+2.30622530e-01f,-1.47738054e-01f,-6.57669723e-01f,-5.10589242e-01f,
+8.92755568e-01f,+2.11766198e-01f,+4.25492615e-01f,+9.03713480e-02f,-4.63867605e-01f,
+1.21127844e-01f,-8.84985387e-01f,+8.48865747e-01f,+8.46424818e-01f,-6.34038866e-01f,
-7.52877653e-01f,+5.31860352e-01f,+6.40209675e-01f,-7.49126673e-01f,-8.56475890e-01f,
+1.64720476e-01f,-6.07894182e-01f,-6.58732891e-01f,-7.88835227e-01f,-2.22869158e-01f,
+1.82424784e-01f,-5.06078541e-01f,+3.79505455e-01f,-2.56720353e-02f,-1.03662267e-01f,
+4.30146277e-01f,-5.06317496e-01f,-4.82541561e-01f,-4.66195166e-01f,+2.18228385e-01f,
-2.94855803e-01f,+1.62529632e-01f,-1.22184190e-03f,+3.15175980e-01f,-6.77681416e-02f,
-3.19851547e-01f,+7.19910413e-02f,+2.34313101e-01f,+1.36431068e-01f,+4.39448833e-01f,
-7.72425354e-01f,+7.53577471e-01f,+4.98092651e-01f,+3.12301874e-01f,-4.52523917e-01f,
-2.87784666e-01f,-3.97126347e-01f,-1.97266012e-01f,+4.23363745e-02f,+4.08813924e-01f,
-1.84086055e-01f,-9.07836482e-02f,+1.15075670e-01f,+4.40867662e-01f,-2.99492806e-01f,
-3.77082855e-01f,-8.30890298e-01f,-5.01708150e-01f,-1.73328117e-01f,-1.82207078e-01f,
+4.09272611e-02f,+1.76777184e-01f,+3.53076130e-01f,+3.60048741e-01f,-1.75114870e-01f,
+4.43062149e-02f,-3.99866104e-01f,-5.54679692e-01f,+3.22120696e-01f,-3.49536352e-02f,
+3.97977829e-01f,-2.91678101e-01f,-5.22480197e-02f,+3.93499762e-01f,+8.19926858e-01f,
-6.72884583e-02f,+3.13809246e-01f,+2.89222598e-01f,+9.81939733e-02f,+6.82868063e-02f,
+4.90487516e-01f,+3.92757028e-01f,+4.74752218e-01f,-1.94943115e-01f,+3.97711899e-03f,
+2.01031297e-01f,+1.03604451e-01f,-4.97465096e-02f,+2.23103106e-01f,+4.22516130e-02f,
-1.72321692e-01f,+6.37227714e-01f,+2.21903380e-02f,-1.50544256e-01f,+8.59497935e-02f,
-4.77825031e-02f,-6.25571132e-01f,-9.57367867e-02f,-1.91742003e-01f,-1.10581398e-01f,
-2.16267973e-01f,-1.33944884e-01f,-8.90685022e-02f,-1.43550426e-01f,+4.16641623e-01f,
-4.86732215e-01f,+1.37206450e-01f,-3.01923100e-02f,+3.90516579e-01f,+6.19598292e-02f,
+2.26034015e-01f,-1.86873060e-02f,-9.22735631e-02f,+1.28681324e-02f,-2.51629949e-03f,
+9.70778614e-02f,-1.56834632e-01f,+1.50328293e-01f,+1.12046167e-01f,+5.17750159e-02f,
+1.47934839e-01f,+3.35805833e-01f,-8.50008428e-02f,+3.88687551e-02f,-2.26341978e-01f,
-2.22847983e-01f,+9.19037610e-02f,+2.19115674e-01f,-8.17532372e-03f,-5.24347089e-02f,
+7.48276636e-02f,+1.62782699e-01f,-6.36106357e-03f,-2.20721796e-01f,+1.02799833e-01f,
+9.49054584e-02f,+5.18498681e-02f,+2.12753952e-01f,-7.11180985e-01f,-7.31746182e-02f,
+1.48032576e-01f,+1.96496844e-01f,+2.12704286e-01f,+1.59888804e-01f,-7.07419962e-02f,
+2.03434244e-01f,+1.25744149e-01f,+4.97518778e-02f,+2.07220078e-01f,-1.32285058e-02f,
-5.39562404e-02f,-1.89806908e-01f,-2.30326593e-01f,+2.28617132e-01f,-4.75364476e-02f,
-1.28300935e-02f,+1.17018759e-01f,+1.08274579e-01f,+2.12841302e-01f,+2.25994825e-01f,
+1.86174035e-01f,+4.49169576e-02f,+1.74054027e-01f,+7.79981613e-02f,+1.48234874e-01f,
+1.04846269e-01f,+1.65428847e-01f,+3.94119918e-02f,-5.14768064e-02f,+1.52566910e-01f,
-9.83054638e-02f,-2.00740069e-01f,-1.00944653e-01f,+1.65686667e-01f,+1.23745501e-02f,
+4.00388241e-02f,-1.12652980e-01f,+1.15722209e-01f,-4.30270433e-02f,+3.93328667e-02f,
-2.14104831e-01f,-1.55909032e-01f,+1.16326302e-01f,-3.06037664e-02f,-4.85987812e-02f,
+1.98973596e-01f,-2.13798225e-01f,+7.20071495e-02f,+2.09701419e-01f,+3.10083032e-02f,
+1.73484445e-01f,-2.25991502e-01f,+1.10842854e-01f,-1.53674886e-01f,-2.15760171e-02f,
-1.07178867e-01f,+1.06656224e-01f,-8.00271481e-02f,-2.18741596e-01f,+4.92804050e-02f,
+1.03460282e-01f,-1.83155283e-01f,-1.94587752e-01f,+2.19510347e-01f,-1.27249375e-01f,
+2.11308092e-01f,-1.40497640e-01f,+1.08221382e-01f,-1.57251090e-01f,-1.83424696e-01f,
+4.45470214e-02f,+3.39295030e-01f,-6.47316873e-02f,-8.41205478e-01f,-1.93959996e-01f,
+1.68656528e-01f,-2.15666443e-02f,-2.70585954e-01f,+3.34271997e-01f,-9.81683254e-01f,
+2.40977153e-01f,-2.13826120e-01f,+5.29293835e-01f,-3.55396420e-01f,+3.86839882e-02f,
-3.05257708e-01f,-3.43933553e-02f,+4.09784436e-01f,+1.68438822e-01f,-1.01838373e-01f,
-2.11402237e-01f,-1.07466795e-01f,-6.35501921e-01f,+4.54105288e-01f,-1.75775588e-01f,
-2.84505486e-01f,-1.11313784e+00f,+7.52598047e-02f,+2.45450646e-01f,+1.28325477e-01f,
+6.18419647e-02f,-1.16647258e-02f,+1.75086677e-01f,+1.51912451e-01f,+1.25295827e-02f,
-5.02222031e-02f,+3.09067428e-01f,+4.42919105e-01f,-9.65320706e-01f,-7.09225416e-01f,
+4.96156663e-01f,-1.33894593e-01f,-9.95504558e-02f,-3.56563157e-03f,+1.98051240e-02f,
-3.30906957e-02f,+3.07366520e-01f,+1.70662671e-01f,+3.69651228e-01f,+2.72101134e-01f,
-1.80162832e-01f,+1.57764703e-01f,-2.95635045e-01f,+5.96358813e-02f,+5.55323772e-02f,
-1.63618833e-01f,+2.67216772e-01f,+3.85561109e-01f,+5.70386946e-02f,+7.43467733e-03f,
-1.33330613e-01f,-2.21582368e-01f,-1.95434690e-02f,-4.32054430e-01f,-4.36991602e-01f,
+1.74784869e-01f,-1.37671217e-01f,+1.53407961e-01f,+6.17920160e-02f,-7.64737278e-02f,
-1.19871937e-01f,-1.23895064e-01f,-3.52556556e-02f,-2.21752718e-01f,-2.03261390e-01f,
-2.23087490e-01f,+1.22998834e-01f,-1.36029571e-01f,+1.29548132e-01f,+1.25016510e-01f,
-4.85996604e-02f,-1.88308239e-01f,-4.04541194e-02f,-5.74937016e-02f,-1.04583204e-02f,
+6.22573197e-02f,+1.10914648e-01f,+2.05642492e-01f,+1.75051481e-01f,+1.55101389e-01f,
-6.96615279e-02f,+7.10750520e-02f,-1.35744274e-01f,-1.41281798e-01f,-1.13278486e-01f,
-3.77621204e-02f,-9.27481353e-02f,-2.04068616e-01f,+6.07086122e-02f,-2.16302827e-01f,
-9.03899968e-03f,-2.28912681e-01f,-2.11099386e-01f,-8.74973834e-03f,-9.58483815e-02f,
-2.06483200e-01f,-6.71656579e-02f,+1.22981817e-02f,+2.00162470e-01f,-1.89247340e-01f,
-2.09248826e-01f,-1.69354916e-01f,-8.86155218e-02f,+1.99196100e-01f,-2.19224498e-01f,
-1.65901631e-02f,-2.18389913e-01f,-1.38122559e-01f,+1.36604071e-01f,+2.18864202e-01f,
+1.76222026e-02f,+7.80500472e-03f,-7.66651034e-02f,+2.13629276e-01f,-1.24928981e-01f,
-1.39385536e-01f,-5.21823764e-02f,-1.89730033e-01f,+2.07987666e-01f,+9.12096724e-02f,
-8.70382860e-02f,+4.69048172e-01f,+1.03407033e-01f,-8.83098878e-03f,+8.06491226e-02f,
+1.78396985e-01f,+2.44167790e-01f,+4.05755758e-01f,+2.42528126e-01f,-2.74905879e-02f,
-4.72146198e-02f,-9.63277221e-02f,-8.63469601e-01f,-2.62412846e-01f,-2.64509022e-02f,
+2.55779684e-01f,+4.14411649e-02f,-1.74094569e-02f,-2.36192212e-01f,+2.15016767e-01f,
+9.79257897e-02f,-3.88196766e-01f,-1.65219411e-01f,+4.27571833e-02f,+3.72752458e-01f,
+6.07177317e-02f,+3.33368033e-01f,+1.69119135e-01f,-1.96314707e-01f,+1.16084665e-01f,
+6.35147095e-03f,+1.06938332e-01f,+1.90819651e-01f,+9.65761170e-02f,+1.04331374e-01f,
+2.13902429e-01f,+3.45896184e-01f,+2.39629686e-01f,+1.91691145e-01f,-4.46106344e-02f,
-3.81108224e-02f,+8.40021595e-02f,-2.25559533e-01f,-2.75397718e-01f,+2.01453328e-01f,
-7.48176500e-02f,+1.12254009e-01f,+1.12480082e-01f,-1.77352384e-01f,+4.32695411e-02f,
-1.95026711e-01f,+1.27581768e-02f,+2.13782743e-01f,-1.00529812e-01f,-6.61122739e-01f,
-1.48054054e-02f,+2.23402511e-02f,-5.56836352e-02f,+1.84349611e-01f,-1.49685591e-01f,
+1.42175645e-01f,+1.55300066e-01f,+3.80568691e-02f,-6.20373106e+00f,+4.16795588e+00f,
+5.86351633e-01f,+4.48554659e+00f,+3.82479951e-02f,-4.32304668e+00f,+4.14066744e+00f,
-5.63554287e+00f,+2.02488375e+00f,-4.55560923e+00f,+8.79365951e-02f,-6.33113194e+00f,
+4.46294689e+00f,+4.31560993e+00f,+4.16025400e+00f,-2.29551271e-01f,-6.37076950e+00f,
-8.97802338e-02f,+4.32447100e+00f,+1.10233249e-02f,+4.43403196e+00f,-4.05660063e-01f,
+4.84317350e+00f,+4.49096060e+00f,+4.33656597e+00f,+7.24643618e-02f,-4.17898703e+00f,
-4.48005772e+00f,-4.42647076e+00f,-1.34026259e-01f,+4.42130613e+00f,-5.35091907e-02f,
-4.29016590e+00f,+4.36989355e+00f,+4.20848513e+00f,-4.42735720e+00f,-4.22540569e+00f,
-1.05683231e+00f,+5.97581506e-01f,-6.03951645e+00f,-7.70451576e-02f,-2.03655124e-01f,
-1.70119658e-01f,+4.46779013e+00f,+4.13946342e+00f,-4.17406082e+00f,+7.15197548e-02f,
-6.85986900e+00f,-6.71370792e+00f,+4.09529972e+00f,-2.25920975e-01f,+4.41022253e+00f,
-4.15435266e+00f,-4.17121983e+00f,+4.53222466e+00f,+4.68878794e+00f,-4.18111801e+00f,
-3.96231532e+00f,+4.50335741e+00f,+4.47977114e+00f,-7.81107992e-02f,+4.19279432e+00f,
+4.13241529e+00f,+4.14346933e+00f,-2.08161082e-02f,+8.59677568e-02f,+6.37258470e-01f,
-5.90213127e-02f,+1.02607064e-01f,+1.42234325e-01f,+8.36558826e-03f,-2.44208485e-01f,
+4.26532149e-01f,+7.30897710e-02f,+1.04405768e-01f,-3.70429993e-01f,+1.14350498e-01f,
-3.65110725e-01f,-2.75127832e-02f,+1.79971278e-01f,+1.19769340e-02f,-5.37433624e-02f,
-4.69501279e-02f,-2.10387781e-01f,+2.86390483e-01f,+7.01374173e-01f,-5.03829002e-01f,
-8.91003478e-03f,+2.00960226e-02f,+5.87583899e-01f,+2.36281678e-02f,+3.76121439e-02f,
+6.05488196e-02f,-2.37945467e-02f,+3.49868625e-01f,-6.60602748e-02f,-1.29971936e-01f,
+3.52963626e-01f,-5.12900576e-02f,+8.33685994e-02f,-2.11387426e-01f,+5.47641754e-01f,
+8.16570580e-01f,-1.06890716e-01f,+1.88443482e-01f,-1.38773561e-01f,+2.16767073e-01f,
+3.34173352e-01f,+2.35865444e-01f,+1.03721946e-01f,+1.57700062e-01f,-3.19679052e-01f,
-3.20954442e-01f,+3.01361650e-01f,-6.97015971e-02f,-9.22865793e-03f,+1.13861054e-01f,
-9.94173065e-02f,+2.37805769e-01f,-5.79003453e-01f,+1.18883170e-01f,-1.57330886e-01f,
+3.15147191e-01f,+3.44974138e-02f,-1.25563741e-02f,+2.45488256e-01f,+3.44323784e-01f,
-6.52937591e-02f,+4.70445901e-01f,-3.63681883e-01f,-1.73348236e+00f,-1.70800418e-01f,
+4.12117206e-02f,-1.25683203e-01f,-2.51484394e-01f,+3.72425944e-01f,-1.71648097e+00f,
+2.02010885e-01f,+1.24803759e-01f,+4.97685254e-01f,-1.34318992e-01f,+1.57705998e+00f,
-2.36558780e-01f,+1.53534561e-01f,+1.63870439e-01f,-1.72116265e-01f,-1.28387228e-01f,
+4.53786962e-02f,-4.83842880e-01f,-1.62558830e+00f,+5.84777236e-01f,-7.54707754e-02f,
-3.17144245e-01f,-2.21525621e+00f,+3.36190611e-01f,+4.33254838e-01f,+3.79700333e-01f,
+1.95896298e-01f,-1.59507051e-01f,+1.87381655e-01f,+3.01972270e-01f,-3.20292234e-01f,
-1.77047938e-01f,+3.23359966e-02f,+2.36566886e-01f,-1.48329544e+00f,-1.56177104e+00f,
+5.65457225e-01f,-1.92171067e-01f,-7.54468888e-02f,-1.89264894e-01f,-9.01227742e-02f,
-3.29569615e-02f,+3.93010795e-01f,+1.40632674e-01f,+3.92335474e-01f,+5.33194840e-01f,
-4.23467577e-01f,+1.74879819e-01f,-2.49232411e-01f,+3.22074860e-01f,+3.38378221e-01f,
-1.72425166e-01f,+1.21055543e+00f,+1.25402033e-01f,+2.27564812e-01f,-3.01603079e-01f,
-6.16726354e-02f,-1.27104729e-01f,-8.27047080e-02f,-2.98424959e-01f,-2.27268606e-01f,
-7.95484781e-02f,+1.29277021e-01f,+1.53580904e-01f,+1.66298300e-02f,-2.31421649e-01f,
+1.21242732e-01f,+2.14508057e-01f,-5.80319017e-02f,-2.96582282e-03f,-1.18190452e-01f,
-1.00526258e-01f,-1.17554240e-01f,-6.70905411e-03f,-1.80691913e-01f,+9.12302136e-02f,
-3.72943431e-02f,+1.24059230e-01f,+9.72083211e-02f,+1.61507308e-01f,-3.84930223e-02f,
-1.05703875e-01f,-1.90142244e-01f,-2.22255602e-01f,+4.98778820e-02f,+2.10279077e-01f,
-7.34624416e-02f,+2.15909749e-01f,-6.56057298e-02f,-6.04311526e-02f,+5.05853593e-02f,
-1.63764536e-01f,+1.77193791e-01f,-3.64798903e-02f,-8.11021626e-02f,+6.44633770e-02f,
-1.87810764e-01f,-1.90248698e-01f,-3.36398333e-02f,-1.22558422e-01f,+1.03096753e-01f,
+5.65671325e-02f,-2.13601887e-02f,-2.12670177e-01f,-2.26594597e-01f,+7.10273087e-02f,
-5.65620363e-02f,+5.84087968e-02f,+1.18342757e-01f,+1.45413518e-01f,-7.04872459e-02f,
+1.65584236e-02f,+2.11390585e-01f,-7.35394210e-02f,-1.16548643e-01f,+2.13940114e-01f,
-1.01375252e-01f,+2.30592519e-01f,+2.29887038e-01f,+1.23966575e-01f,+2.21512079e-01f,
-1.73089653e-01f,-1.62791103e-01f,-1.37462020e-01f,-1.36504203e-01f,+1.57902732e-01f,
-1.42700151e-01f,+4.72190917e-01f,+5.45760021e-02f,-1.92233816e-01f,-8.45332891e-02f,
+2.27787584e-01f,+5.41608594e-02f,+2.06049100e-01f,+8.92867967e-02f,+2.27805674e-02f,
+2.29796469e-02f,-8.66833255e-02f,+2.13217705e-01f,+5.15035763e-02f,+1.06397927e-01f,
+7.88194761e-02f,+1.14002272e-01f,-1.36109442e-01f,-1.28940552e-01f,-2.63161778e-01f,
+6.33831978e-01f,-3.07112515e-01f,+2.14837909e-01f,-1.72487304e-01f,+5.33287048e-01f,
-2.02806704e-02f,+2.89524019e-01f,+2.74377942e-01f,+7.28073716e-02f,-4.24430743e-02f,
+1.64255261e-01f,-1.74062550e-01f,-1.06420197e-01f,-1.01114899e-01f,+2.72028218e-03f,
+2.22685963e-01f,+8.13801467e-01f,+5.16880691e-01f,+1.51190996e-01f,-1.48314625e-01f,
-1.74983382e-01f,-1.90148517e-01f,-4.13780828e-04f,+3.07942554e-02f,+1.62528396e-01f,
-2.13094249e-01f,+1.69853687e-01f,+3.11643463e-02f,+1.90632820e-01f,-7.65381753e-02f,
-2.00617328e-01f,+2.61350889e-02f,+2.50526994e-01f,-1.68195546e-01f,-5.71920812e-01f,
+2.75995851e-01f,-2.98882201e-02f,-2.60366887e-01f,-2.58859873e-01f,-1.52124405e-01f,
+3.86178195e-02f,+1.18613273e-01f,+1.78720787e-01f,+1.17381811e-02f,-4.01452631e-02f,
-9.02713984e-02f,+7.05117881e-02f,-8.69991481e-02f,-1.39588714e-01f,-2.28371397e-01f,
+1.27831280e-01f,-1.65724367e-01f,+1.84061497e-01f,+1.50946140e-01f,-1.07298173e-01f,
-9.24839675e-02f,+2.11611778e-01f,+1.61878526e-01f,+6.94082975e-02f,+1.43502414e-01f,
-8.66833329e-02f,-1.91160768e-01f,+1.89980298e-01f,+6.57016039e-03f,-9.67664123e-02f,
-4.53484356e-02f,-3.36880684e-02f,-7.40919113e-02f,+1.10266477e-01f,+2.00128704e-01f,
+5.55328131e-02f,+3.11121047e-02f,-6.10764623e-02f,-5.17355055e-02f,+1.49556845e-01f,
+2.30951101e-01f,+2.61234939e-02f,+1.27659053e-01f,+4.78139520e-03f,+1.83810323e-01f,
+2.09236026e-01f,+1.73616499e-01f,-1.92452103e-01f,-8.80320072e-02f,-2.12134570e-01f,
+1.08333915e-01f,-2.09841266e-01f,+2.05512762e-01f,-4.37160581e-02f,+6.55185878e-02f,
+1.29644006e-01f,-2.26466253e-01f,-4.83561903e-02f,+1.11826897e-01f,-1.54135823e-01f,
+1.14352852e-01f,-1.01018265e-01f,-1.27830058e-01f,-1.60748154e-01f,-1.42565966e-01f,
-3.13864648e-03f,-1.38163775e-01f,-2.07414418e-01f,+2.74095535e-02f,+2.22484052e-01f,
-1.54890746e-01f,-4.66600806e-02f,}; 
k2c_tensor dense_60_kernel = {&dense_60_kernel_array[0],2,3072,{48,64, 1, 1, 1}}; 
float dense_60_bias_array[64] = {
-9.32810605e-02f,+8.60304758e-02f,-2.11719081e-01f,+7.65449032e-02f,-2.07966007e-02f,
-5.32989018e-02f,+9.92384553e-02f,-9.60172117e-02f,-2.97402740e-01f,-8.64406154e-02f,
-2.34619272e-03f,-1.09221503e-01f,+8.94314200e-02f,+3.67734253e-01f,+1.08822778e-01f,
+0.00000000e+00f,-9.21533108e-02f,-2.80836541e-02f,+1.43036500e-01f,-1.93300955e-02f,
+1.06595784e-01f,-1.68849990e-01f,+2.72805423e-01f,+1.76309064e-01f,+1.31982192e-01f,
-2.74978310e-01f,-5.40002026e-02f,-3.31490487e-02f,-7.72866085e-02f,+0.00000000e+00f,
+8.76220167e-02f,+0.00000000e+00f,-7.82018006e-02f,+1.07192099e-01f,+6.62964508e-02f,
-7.76578188e-02f,-8.08340833e-02f,-1.61309913e-01f,-1.49190545e-01f,-6.04019351e-02f,
+0.00000000e+00f,+0.00000000e+00f,-1.99590307e-02f,+1.02760643e-01f,+7.84439370e-02f,
-7.98570961e-02f,-2.25516688e-02f,-6.43044114e-02f,-6.92851618e-02f,+9.72537771e-02f,
-1.98508818e-02f,+1.12958409e-01f,-4.92284447e-02f,-5.72170280e-02f,+7.86622465e-02f,
+3.67961019e-01f,-8.76550972e-02f,-2.84471195e-02f,+7.97531679e-02f,+1.04879208e-01f,
+0.00000000e+00f,+8.60502273e-02f,+6.95942864e-02f,+7.85117373e-02f,}; 
k2c_tensor dense_60_bias = {&dense_60_bias_array[0],1,64,{64, 1, 1, 1, 1}}; 
float dense_60_fwork[3120] = {0}; 

 
float dense_61_kernel_array[64] = {
+1.21565449e+00f,-5.77986956e-01f,+6.83259249e+00f,-3.32055479e-01f,+2.85551548e-01f,
+1.71910751e+00f,-1.37858021e+00f,+9.17348802e-01f,+9.29754353e+00f,+3.63941282e-01f,
+1.09304458e-01f,+1.47924721e+00f,-7.32618988e-01f,-9.72156429e+00f,-6.24597609e-01f,
-8.41636956e-02f,+9.19782341e-01f,+1.72223926e-01f,-6.19216800e-01f,+2.04407752e-01f,
-6.79659724e-01f,+5.39212370e+00f,-8.98839378e+00f,-7.29297042e-01f,-7.67369151e-01f,
+7.84146404e+00f,+5.43006480e-01f,+4.41695035e-01f,+4.84682262e-01f,+2.92633533e-01f,
-6.98052466e-01f,+8.05412829e-02f,+4.47744250e-01f,-6.09726965e-01f,-7.10754812e-01f,
+4.18452412e-01f,+4.61562902e-01f,+5.51602077e+00f,+5.58372402e+00f,+1.34421599e+00f,
-2.35480100e-01f,+4.27880287e-02f,+3.07936966e-02f,-6.73457623e-01f,-2.99782872e-01f,
+5.79666317e-01f,+1.50810987e-01f,+1.94045806e+00f,+2.19375372e+00f,-7.40771234e-01f,
+8.81583542e-02f,-6.24275625e-01f,+2.79626131e-01f,+6.19439960e-01f,-6.79905176e-01f,
-1.18303528e+01f,+1.86893478e-01f,+2.62898946e+00f,-6.46814287e-01f,-5.35991311e-01f,
-2.64228821e-01f,-6.33855462e-01f,-3.69475812e-01f,-9.40637112e-01f,}; 
k2c_tensor dense_61_kernel = {&dense_61_kernel_array[0],2,64,{64, 1, 1, 1, 1}}; 
float dense_61_bias_array[1] = {
-7.08737299e-02f,}; 
k2c_tensor dense_61_bias = {&dense_61_bias_array[0],1,1,{1,1,1,1,1}}; 
float dense_61_fwork[128] = {0}; 

 
k2c_conv2d(&conv2d_30_output,conv2d_30_input_1_input,&conv2d_30_kernel, 
	&conv2d_30_bias,conv2d_30_stride,conv2d_30_dilation,k2c_relu); 
k2c_pad2d(&max_pooling2d_30_padded_input,&conv2d_30_output,max_pooling2d_30_fill, 
	max_pooling2d_30_pad); 
k2c_maxpool2d(&max_pooling2d_30_output,&max_pooling2d_30_padded_input,max_pooling2d_30_pool_size, 
	max_pooling2d_30_stride); 
k2c_flatten(&flatten_30_1_output,&max_pooling2d_30_output); 
k2c_dense(&dense_60_output,&flatten_30_1_output,&dense_60_kernel, 
	&dense_60_bias,k2c_relu,dense_60_fwork); 
k2c_dense(dense_61_1_output,&dense_60_output,&dense_61_kernel, 
	&dense_61_bias,k2c_sigmoid,dense_61_fwork); 

 } 

void keras2c_model_initialize() { 

} 

void keras2c_model_terminate() { 

} 

