#include <math.h> 
#include <string.h> 
#include <iostream>
#include "../Model/include/k2c_include.h" 
#include "../Model/include/k2c_tensor_include.h" 
#include "./keras2c_model_CNN_ACK_RTT.h" 

 using namespace std;



void CNN_ACK_RTTModel:: keras2c_model(const k2c_tensor* conv2d_2_input_input, k2c_tensor* dense_5_output) { 

size_t conv2d_2_stride[2] = {1,1}; 
size_t conv2d_2_dilation[2] = {1,1}; 
float conv2d_2_output_array[96] = {0}; 
k2c_tensor conv2d_2_output = {&conv2d_2_output_array[0],3,96,{ 3, 2,16, 1, 1}}; 
float conv2d_2_kernel_array[16] = {
+3.69867533e-01f,-1.54536963e-02f,+1.19415843e+00f,+1.49857795e+00f,+4.89016593e-01f,
-1.08712584e-01f,-4.82363671e-01f,-3.83404106e-01f,-2.71825969e-01f,+9.13859129e-01f,
-1.28497124e-01f,+1.11467671e+00f,+1.51385391e+00f,-5.91318309e-01f,-5.80390096e-01f,
+7.32971907e-01f,}; 
k2c_tensor conv2d_2_kernel = {&conv2d_2_kernel_array[0],4,16,{ 1, 1, 1,16, 1}}; 
float conv2d_2_bias_array[16] = {
+3.12669903e-01f,+0.00000000e+00f,-3.29934329e-01f,-3.49130005e-01f,-4.17361766e-01f,
+0.00000000e+00f,+0.00000000e+00f,+0.00000000e+00f,+0.00000000e+00f,-3.97711664e-01f,
+0.00000000e+00f,-5.78379273e-01f,-4.68584150e-01f,+0.00000000e+00f,+0.00000000e+00f,
+4.07256752e-01f,}; 
k2c_tensor conv2d_2_bias = {&conv2d_2_bias_array[0],1,16,{16, 1, 1, 1, 1}}; 

 
size_t max_pooling2d_2_stride[2] = {1,2}; 
size_t max_pooling2d_2_pool_size[2] = {1,2}; 
float max_pooling2d_2_output_array[48] = {0}; 
k2c_tensor max_pooling2d_2_output = {&max_pooling2d_2_output_array[0],3,48,{ 3, 1,16, 1, 1}}; 
float max_pooling2d_2_padded_input_array[96] = {0}; 
k2c_tensor max_pooling2d_2_padded_input = {&max_pooling2d_2_padded_input_array[0],3,96,{ 3, 2,16, 1, 1}}; 
size_t max_pooling2d_2_pad[4] = {0,0,0,0}; 
float max_pooling2d_2_fill = -HUGE_VALF; 


float flatten_2_output_array[48] = {0}; 
k2c_tensor flatten_2_output = {&flatten_2_output_array[0],1,48,{48, 1, 1, 1, 1}}; 
float dense_4_output_array[64] = {0}; 
k2c_tensor dense_4_output = {&dense_4_output_array[0],1,64,{64, 1, 1, 1, 1}}; 
float dense_4_kernel_array[3072] = {
-1.32532269e-01f,-5.87858446e-02f,-5.59658408e-02f,-1.89162701e-01f,+1.59417689e-01f,
-2.45181799e-01f,-1.60027236e-01f,+7.63861537e-02f,+1.48394927e-01f,-1.39779478e-01f,
-5.77144362e-02f,+1.06646277e-01f,-1.23051457e-01f,+2.00385034e-01f,-1.51587278e-01f,
-1.97200388e-01f,+2.39964440e-01f,+3.47057313e-01f,+1.86435312e-01f,+1.23747498e-01f,
-1.50832683e-01f,+2.69158989e-01f,-9.77689400e-02f,+1.26607344e-01f,+2.32371632e-02f,
-8.78418386e-02f,-1.36829674e-01f,+2.14305520e-02f,-4.68252860e-02f,-1.09036816e-02f,
+3.75471860e-02f,-1.14143871e-01f,+3.12748432e-01f,-2.41659418e-01f,+3.77183139e-01f,
+4.26689833e-01f,-1.75315961e-01f,-8.89137983e-02f,+2.09571540e-01f,+4.86649573e-03f,
+1.52510226e-01f,+8.04226939e-03f,-4.44536060e-02f,-9.76825655e-02f,+1.41388893e-01f,
-5.01918644e-02f,-1.64458126e-01f,+4.92459126e-02f,-3.33492309e-02f,-8.15095305e-02f,
+1.21563315e-01f,-1.40550599e-01f,+2.87069649e-01f,-3.98400947e-02f,-1.96514919e-01f,
+3.47265322e-03f,-2.69666910e-01f,+1.49401724e-01f,+3.09921414e-01f,+1.04253337e-01f,
+9.80178341e-02f,+3.36176232e-02f,+2.43521005e-01f,-8.94084424e-02f,+1.81998104e-01f,
+2.19946623e-01f,-1.96809202e-01f,-1.89207047e-02f,+1.75966680e-01f,+1.93505496e-01f,
-7.83412457e-02f,+1.36933148e-01f,+9.25591886e-02f,-1.86607823e-01f,-2.30366930e-01f,
-1.97536349e-01f,+1.17234111e-01f,-1.66389644e-01f,+1.31440938e-01f,+1.65165126e-01f,
+1.73386753e-01f,+4.45370078e-02f,+6.07855916e-02f,-2.80716866e-02f,-1.95010900e-01f,
-1.63543463e-01f,-1.38321713e-01f,-1.04029238e-01f,+1.93686187e-02f,+1.61412686e-01f,
+2.29337692e-01f,+6.99120760e-03f,+1.05923563e-01f,+1.42913938e-01f,+7.77607262e-02f,
-5.15451729e-02f,-1.46681368e-02f,+2.06888586e-01f,+1.22962087e-01f,+1.65602624e-01f,
+5.73527515e-02f,-1.66137293e-01f,-5.34725189e-03f,+1.25617832e-02f,+7.49555230e-02f,
-9.29951370e-02f,+1.58562422e-01f,-3.87680084e-02f,+3.10119092e-02f,-1.02500767e-01f,
-1.83809921e-01f,-1.68339044e-01f,-1.67219937e-01f,+1.76653385e-01f,+1.82633877e-01f,
+1.42186582e-01f,-2.26166382e-01f,+1.59140557e-01f,-8.90750885e-02f,-1.64495766e-01f,
-1.43134028e-01f,-1.57940328e-01f,-1.72540098e-02f,+1.79381430e-01f,+1.46160603e-01f,
-1.75021172e-01f,-5.70233166e-02f,+2.24905550e-01f,+1.74705833e-01f,+8.71140063e-02f,
-1.23728521e-01f,+7.05656409e-02f,+1.83690935e-02f,+1.11262158e-01f,-2.30830133e-01f,
+1.46588594e-01f,+2.38340482e-01f,-6.47125989e-02f,-1.02126278e-01f,+1.14825055e-01f,
-9.46960002e-02f,+1.10579088e-01f,+6.35265112e-02f,-1.71519205e-01f,-7.08476128e-03f,
+2.63241772e-02f,+4.00256626e-02f,+1.34390354e-01f,+9.18457210e-02f,-1.08805291e-01f,
+1.84054211e-01f,-1.22716531e-01f,-1.43629983e-01f,-1.06150866e-01f,+1.42621160e-01f,
-1.34025156e-01f,-7.22350329e-02f,-2.54531708e-02f,+2.61006802e-01f,-1.47619575e-01f,
+8.70446190e-02f,+2.45048758e-02f,+4.54469770e-02f,-4.73310836e-02f,+2.01975524e-01f,
+8.12174678e-02f,-1.34628803e-01f,-1.51771396e-01f,-1.30345613e-01f,+2.65860166e-02f,
+1.46820098e-01f,-1.85393244e-01f,-1.05003104e-01f,+1.43489182e-01f,+1.14742339e-01f,
+9.79394168e-02f,+4.36720252e-03f,+8.55737627e-02f,-4.72913235e-02f,+1.04861677e-01f,
+1.10654846e-01f,+1.54350832e-01f,-2.12471023e-01f,+1.77389219e-01f,-1.94249302e-01f,
-2.44656891e-01f,+5.00312448e-02f,+7.20879361e-02f,+1.30273283e-01f,+9.80615616e-02f,
+1.39691681e-03f,+1.45783618e-01f,+1.18778788e-01f,+2.21553102e-01f,-1.54254317e-01f,
-1.98251143e-01f,-1.79089785e-01f,-2.20161118e-02f,-1.49143025e-01f,-1.87290385e-01f,
-1.72082111e-01f,-1.34816319e-02f,+1.52210947e-02f,+3.51974778e-02f,-6.17095567e-02f,
-2.48229399e-01f,+9.39768627e-02f,+1.58941686e-01f,+9.07148942e-02f,-6.91922307e-02f,
+1.99921355e-01f,-1.76302090e-01f,-1.11975722e-01f,+1.81394592e-02f,+1.58635572e-01f,
+1.30860224e-01f,+7.48949274e-02f,-1.83770850e-01f,+1.96143955e-01f,-1.68129951e-02f,
+2.38099992e-01f,-1.13259673e-01f,+4.59619612e-02f,+2.25916743e-01f,-4.76381853e-02f,
-4.35069688e-02f,-1.22468524e-01f,+2.34918073e-01f,+9.49986279e-02f,+2.01705158e-01f,
-1.48673356e-01f,-1.80445626e-01f,+1.05526388e-01f,+9.37225595e-02f,+2.08566129e-01f,
-9.40170139e-02f,+2.23050743e-01f,-1.79656297e-01f,-1.02307901e-01f,+5.73084243e-02f,
-1.79267302e-01f,+9.13755596e-02f,-1.19966798e-01f,+1.93529010e-01f,+1.09608531e-01f,
-1.82519197e-01f,-4.03201431e-02f,-1.17011629e-01f,+2.34888773e-02f,+1.18138462e-01f,
+2.07905814e-01f,+2.33231649e-01f,+1.84991330e-01f,+2.28422135e-01f,+2.10087284e-01f,
-1.95017643e-02f,-2.37200335e-01f,-2.96496481e-01f,-2.11528718e-01f,-6.08631223e-02f,
-2.20331639e-01f,-1.74622789e-01f,+1.63109124e-01f,-1.42550454e-01f,-6.10977471e-01f,
-1.61189124e-01f,+5.01392722e-01f,+3.02190602e-01f,-1.63481459e-01f,+4.38134223e-01f,
-2.46040121e-01f,-4.47629422e-01f,-3.41902882e-01f,-9.94977117e-01f,-9.76256192e-01f,
+7.50485659e-02f,-1.85138524e-01f,+3.73923063e-01f,-4.22148228e-01f,+2.33014718e-01f,
-5.12623549e-01f,+8.19160521e-01f,-1.15757026e-01f,+1.70970291e-01f,-5.17782748e-01f,
+1.94569960e-01f,-5.54862976e-01f,+1.31525069e-01f,-7.27172315e-01f,-5.99255204e-01f,
-1.00677264e+00f,-1.32571137e+00f,+8.26635063e-02f,+3.29624057e-01f,+1.58936709e-01f,
-1.63358152e-02f,+7.35596344e-02f,+3.22623402e-01f,-5.47133982e-01f,+5.91030717e-02f,
-1.94250792e-02f,+1.56523675e-01f,-1.38156563e-02f,+6.59604490e-01f,-2.17931837e-01f,
+1.17776841e-01f,+1.19961947e-01f,+3.62533778e-01f,+4.18343425e-01f,+2.09417999e-01f,
-9.43048447e-02f,+2.08352804e-02f,-2.82273263e-01f,+6.25570536e-01f,-3.94385487e-01f,
-3.29082310e-01f,-2.01122537e-01f,-1.70036882e-01f,+2.60688275e-01f,-4.31834280e-01f,
-4.40540016e-02f,-1.49885297e-01f,-1.40437052e-01f,+1.42708063e-01f,-4.96814698e-02f,
+1.06711745e-01f,-1.75620526e-01f,-2.00441197e-01f,-1.85506195e-01f,-1.30051360e-01f,
+1.13731712e-01f,-1.94423646e-01f,+3.27772200e-02f,+2.04181522e-01f,-2.25473121e-01f,
-9.63203609e-02f,+4.23400104e-02f,+9.95333493e-02f,-1.66493565e-01f,-1.60372317e-01f,
-1.74268156e-01f,-1.88600987e-01f,-8.35855156e-02f,+5.61879575e-02f,+6.11448884e-02f,
+7.09978044e-02f,-1.82714313e-01f,-4.26294506e-02f,+6.38309419e-02f,+1.26533270e-01f,
+1.28201336e-01f,+3.94574106e-02f,+6.56997263e-02f,-1.38008058e-01f,+1.94427729e-01f,
+7.83219934e-03f,+7.23022223e-02f,+1.03352517e-01f,+1.81216091e-01f,-9.84997600e-02f,
-1.44118264e-01f,+8.29737484e-02f,-1.77846938e-01f,-5.76663613e-02f,+2.05005556e-01f,
-2.94279754e-02f,-1.91933334e-01f,-1.71321422e-01f,+1.18121028e-01f,-1.97998673e-01f,
+5.71896434e-02f,+5.97456694e-02f,+5.77491522e-03f,-9.36672688e-02f,+4.96941507e-02f,
-1.66623503e-01f,-1.98982432e-01f,+1.94586277e-01f,+6.86319768e-02f,+1.11874580e-01f,
+2.20593810e-01f,+1.63344681e-01f,-3.39046121e-03f,+2.07326174e-01f,-7.70788193e-02f,
+7.04526305e-02f,-1.12958089e-01f,+3.86745334e-02f,-1.24155313e-01f,+5.38894534e-02f,
-8.26753825e-02f,+4.83120382e-02f,+2.17431009e-01f,+9.94907916e-02f,+2.19692558e-01f,
+8.65705907e-02f,-4.47132736e-02f,+1.97256565e-01f,-6.42742217e-02f,-1.93656474e-01f,
-1.62466019e-01f,-1.95787549e-01f,-1.72304735e-01f,+1.04516596e-01f,-2.10520625e-01f,
-6.71115220e-02f,-7.79909343e-02f,+1.41354352e-01f,-4.71879095e-02f,-2.04966664e-01f,
+1.22500598e-01f,-8.61708522e-02f,+9.72140133e-02f,-4.79919761e-02f,-1.20833948e-01f,
-8.63575339e-02f,+2.90262997e-02f,+1.29164219e-01f,+1.85005695e-01f,+1.55075669e-01f,
-1.90056831e-01f,+1.72642738e-01f,+1.41652852e-01f,-1.68487549e-01f,-3.19125950e-02f,
-1.17053121e-01f,+1.23269856e-02f,-2.14046896e-01f,+8.67970586e-02f,-1.41230375e-02f,
+1.55353069e-01f,-2.01760516e-01f,+4.85929847e-02f,+3.31754088e-02f,+1.90037906e-01f,
+1.49656445e-01f,-1.71789095e-01f,-8.51623863e-02f,+4.52943146e-03f,+1.54484808e-02f,
+1.40100718e-02f,+9.21120942e-02f,-1.72176316e-01f,-7.98769891e-02f,+7.06643760e-02f,
+7.97698200e-02f,+2.49390304e-02f,+1.46776706e-01f,+3.53090167e-02f,-1.52289301e-01f,
+2.29373008e-01f,+1.21282578e-01f,-3.99237573e-02f,+7.78430700e-03f,+1.82914019e-01f,
+5.82959652e-02f,-4.85559553e-02f,+1.08650982e-01f,-1.91974550e-01f,-5.42800575e-02f,
-2.71716416e-02f,+2.67767012e-02f,+1.26666158e-01f,-4.92686033e-03f,+1.88350081e-02f,
+1.56219929e-01f,+1.92754686e-01f,-1.48727328e-01f,+1.07896924e-01f,+4.27526832e-02f,
+4.88922000e-04f,-1.85868859e-01f,-1.44028872e-01f,-1.31386131e-01f,-1.11107975e-02f,
+2.08981782e-01f,-9.87981409e-02f,+2.17852920e-01f,-1.78062543e-01f,+5.53901792e-02f,
+6.89561963e-02f,+1.70590699e-01f,-1.14902750e-01f,-6.27609342e-02f,-1.13639273e-01f,
-1.65767401e-01f,+3.97216678e-02f,-1.48934871e-01f,-9.65109617e-02f,-2.18156323e-01f,
-1.11569352e-01f,-6.01082742e-02f,+1.51285410e-01f,-1.59079373e-01f,-5.17056435e-02f,
+5.06262481e-02f,-2.29208320e-02f,-7.70384073e-03f,+4.92381155e-02f,-9.28402394e-02f,
-2.15304017e-01f,-1.43785238e-01f,-1.28293186e-02f,+3.51140499e-02f,+1.29185468e-02f,
+1.69918448e-01f,-9.00802463e-02f,-7.10613728e-02f,+1.23580366e-01f,-2.59001553e-03f,
+1.59727663e-01f,-9.74922925e-02f,-2.09514692e-01f,+4.75250781e-02f,+1.92405492e-01f,
+1.70575410e-01f,+1.32391721e-01f,-1.71898633e-01f,+1.37796313e-01f,+4.97930944e-02f,
-4.84327376e-02f,+5.31828403e-02f,-1.34792864e-01f,+1.48848891e-02f,+1.90665722e-01f,
+1.48989171e-01f,-9.31223333e-02f,-1.52691141e-01f,-1.01692498e-01f,-2.01795340e-01f,
+4.79217470e-02f,+6.56880140e-02f,-1.99555516e-01f,-4.64722961e-02f,+9.47255194e-02f,
+1.28797054e-01f,+1.94863230e-01f,+2.09950417e-01f,-1.27708435e-01f,-1.45018801e-01f,
+1.71276480e-02f,-1.39076680e-01f,+2.14922041e-01f,+1.08479410e-01f,-1.31541416e-01f,
+1.95707262e-01f,-1.76550239e-01f,-1.72854066e-02f,+1.80193067e-01f,+2.21688807e-01f,
+5.81967831e-03f,+1.34439915e-01f,-1.63252711e-01f,+9.13634896e-03f,-1.90525055e-01f,
-1.80353701e-01f,-1.63625464e-01f,-4.93127853e-02f,+7.90833533e-02f,+9.29015577e-02f,
+7.33545721e-02f,-1.74186319e-01f,-1.33740351e-01f,+2.83075273e-02f,+1.37756586e-01f,
-7.21479207e-02f,-1.60725087e-01f,-7.94834793e-02f,-7.38406181e-03f,-1.05370134e-01f,
-3.22270244e-02f,+1.93517983e-01f,+1.82925016e-01f,-7.33544528e-02f,-5.28180897e-02f,
+1.31712645e-01f,+1.77686512e-01f,+4.66848761e-02f,+3.83445621e-03f,-1.43798858e-01f,
-6.26932830e-02f,+1.95414811e-01f,+1.57702059e-01f,+1.71284020e-01f,+8.42921510e-02f,
+7.31215775e-02f,+5.37008010e-02f,+1.33217007e-01f,+1.50432169e-01f,-1.11504555e-01f,
-1.24780349e-01f,+4.07807827e-02f,-1.92033917e-01f,+1.22415021e-01f,+5.28273992e-02f,
+1.17520869e-01f,-4.14640307e-02f,-8.12524259e-02f,+1.59155428e-01f,+1.44765154e-01f,
-6.75303340e-02f,-9.55881253e-02f,+4.98660542e-02f,+7.91057944e-04f,-1.99277759e-01f,
-2.63143212e-01f,-1.34153828e-01f,-1.07026786e-01f,+2.22615436e-01f,+1.89752042e-01f,
+1.25409842e-01f,-2.20615447e-01f,-1.80197969e-01f,+2.99638091e-03f,-5.71057647e-02f,
-5.59585094e-02f,-1.60035323e-02f,-1.80198103e-02f,-1.50506988e-01f,-9.27664489e-02f,
-9.48311388e-02f,-5.58097214e-02f,-1.17826022e-01f,-9.72684771e-02f,-8.92797112e-03f,
-1.57911912e-01f,-2.15866998e-01f,-1.99109003e-01f,-6.08505607e-02f,+1.36023208e-01f,
+1.11157179e-01f,-1.18277045e-02f,-1.09314770e-01f,-4.93990779e-02f,-1.72146440e-01f,
+5.81990331e-02f,+4.95683327e-02f,-7.79261887e-02f,+4.46143821e-02f,-7.89011363e-03f,
-7.23499507e-02f,-1.30833238e-02f,+6.04501963e-02f,-2.01999798e-01f,-7.71278143e-02f,
+1.61763430e-01f,+1.05243534e-01f,+2.19962895e-02f,-2.26221234e-01f,+2.21484035e-01f,
+5.62434196e-02f,-3.74461710e-03f,-1.88971043e-01f,-9.17561054e-02f,+1.11741573e-02f,
-2.11406752e-01f,-6.40487373e-02f,+6.37893677e-02f,+2.03977823e-01f,-9.88060385e-02f,
-2.13632077e-01f,-5.34024239e-02f,-1.35304749e-01f,+6.60523474e-02f,-1.29403681e-01f,
+5.10157943e-02f,+2.00905353e-01f,+2.83191800e-02f,-2.20940709e-02f,+2.17623979e-01f,
-1.25588089e-01f,+5.41120172e-02f,+1.08303547e-01f,+1.64643377e-02f,+8.94662142e-02f,
+2.19904482e-02f,+1.71388298e-01f,-2.01958269e-02f,-1.05206728e-01f,-5.17623723e-02f,
-7.91080743e-02f,+9.67285931e-02f,+1.99837089e-02f,-8.59491825e-02f,+1.10751301e-01f,
+3.25087905e-02f,+1.07460737e-01f,+2.27395803e-01f,-2.78060287e-02f,-1.39025033e-01f,
-4.41014618e-02f,-1.50783345e-01f,+1.84880257e-01f,+1.44122958e-01f,+1.83094025e-01f,
+5.37660718e-03f,-1.64407849e-01f,+1.10221267e-01f,+1.75048560e-01f,-2.55035162e-02f,
-7.76532739e-02f,+1.80685788e-01f,-4.13624942e-03f,+6.77870214e-02f,+1.66874155e-01f,
+1.48888826e-01f,-1.81711361e-01f,-8.84869397e-02f,-1.15273744e-01f,-1.65711582e-01f,
+1.11727446e-01f,+9.90131497e-02f,+1.50498480e-01f,-8.63693953e-02f,-1.77618966e-01f,
+3.42904329e-02f,-3.37914303e-02f,+4.97535691e-02f,-1.02288038e-01f,+2.18347773e-01f,
-2.06731692e-01f,-1.23533010e-01f,-1.19188040e-01f,+1.15068525e-01f,-8.25690478e-02f,
-1.33445024e-01f,+1.88255887e-02f,+6.19758014e-03f,+4.42891568e-02f,+5.02740741e-02f,
+2.18554839e-01f,-1.67907014e-01f,+1.47038475e-01f,+1.09146707e-01f,-3.08208972e-01f,
-1.23476610e-01f,-2.12315153e-02f,+3.60277258e-02f,-1.60033911e-01f,-6.78159967e-02f,
-4.06413078e-02f,-1.07923597e-01f,+1.69063658e-02f,-9.34629738e-02f,-1.09431043e-01f,
-5.42543046e-02f,-1.07589625e-01f,-1.19366348e-01f,+3.65304947e-02f,-2.18784362e-01f,
-1.32496133e-01f,-2.30067700e-01f,-4.53463346e-02f,+1.77678645e-01f,-1.42005801e-01f,
+1.74808830e-01f,+1.07924610e-01f,-1.77528426e-01f,-1.05480775e-01f,+1.29348084e-01f,
-4.45370153e-02f,+1.54924035e-01f,-1.48332506e-01f,+3.34258154e-02f,+2.26434842e-01f,
-1.97818711e-01f,-1.64847657e-01f,+1.28455818e-01f,+1.47713929e-01f,+1.65160894e-02f,
+2.21088856e-01f,-1.12619929e-01f,-8.99443328e-02f,-9.51484069e-02f,+1.89230561e-01f,
-2.26627886e-01f,+1.59972340e-01f,-1.43712163e-01f,-4.29868214e-02f,+4.30131629e-02f,
+6.14873469e-02f,+1.93391398e-01f,-1.92657381e-01f,+2.17854992e-01f,-6.14057779e-02f,
+1.88775390e-01f,+1.67861953e-01f,-1.29372060e-01f,+9.17417705e-02f,-3.55128907e-02f,
+4.37842719e-02f,+1.11041188e-01f,+9.10926261e-04f,-2.21064035e-02f,+9.98405591e-02f,
+1.86801076e-01f,-2.58864695e-03f,+1.75948679e-01f,+2.32360661e-02f,-7.13684112e-02f,
-6.90353960e-02f,+2.11499870e-01f,+1.68429911e-01f,+1.64851353e-01f,-2.25161329e-01f,
+1.42442957e-01f,-2.39352137e-02f,-1.88105047e-01f,+1.10091396e-01f,-8.04338306e-02f,
+6.46949410e-02f,+2.10773259e-01f,-2.15244144e-01f,-1.12278618e-01f,-7.84113854e-02f,
-2.59942889e-01f,+8.58660638e-02f,-1.52755871e-01f,-3.76121998e-02f,-2.10868001e-01f,
-2.28165343e-01f,-9.42574348e-03f,+1.72349870e-01f,-1.12833709e-01f,+1.81675687e-01f,
+1.06376164e-01f,+7.38547891e-02f,+1.79783061e-01f,-1.46438718e-01f,+1.02256611e-01f,
+9.86083820e-02f,+1.18012913e-01f,+1.67355508e-01f,+1.57941043e-01f,+2.59916186e-02f,
+1.52310729e-03f,-1.64588898e-01f,-2.00300813e-01f,+4.71325517e-02f,-2.27993160e-01f,
+1.21542394e-01f,-2.26829082e-01f,+8.76478255e-02f,+1.61196142e-01f,+1.25256062e-01f,
+6.64678216e-02f,+3.98649275e-02f,+1.51798666e-01f,-1.22531652e-01f,-6.70787394e-02f,
+5.09724319e-02f,+1.58580065e-01f,-4.65662777e-03f,+7.36095011e-02f,+1.09634250e-01f,
+1.82972074e-01f,-2.05978110e-01f,-2.07358405e-01f,-1.90024495e-01f,-1.79755449e-01f,
+1.71954304e-01f,+1.66714191e-04f,+1.09572947e-01f,-5.50833344e-03f,-7.76301473e-02f,
-9.16208476e-02f,+4.87653911e-03f,-1.52372569e-01f,+3.22197378e-03f,+4.04657722e-02f,
+1.87212974e-01f,-1.46031305e-01f,+2.22073495e-03f,+1.36345208e-01f,+1.60598457e-01f,
+9.75724161e-02f,-2.05880269e-01f,+1.55836582e-01f,-3.82967889e-02f,+1.55812949e-02f,
+4.40391600e-02f,-8.59788656e-02f,-8.45860392e-02f,-1.17220879e-01f,+1.20877862e-01f,
-6.47180080e-02f,+4.39980030e-02f,+8.04206133e-02f,-1.47386819e-01f,-4.68717664e-02f,
+2.03581661e-01f,-6.59658015e-02f,+5.03700972e-02f,+9.84572172e-02f,-5.01142740e-02f,
-8.41718465e-02f,+1.14860028e-01f,-2.19123796e-01f,-2.26181731e-01f,-1.91102490e-01f,
+1.34262651e-01f,+2.10087061e-01f,+8.33466351e-02f,+3.66957784e-02f,-4.63240147e-02f,
+2.11636096e-01f,-9.36256647e-02f,-1.47872984e-01f,+3.79604101e-02f,-1.86179817e-01f,
+1.23466134e-01f,+5.12767136e-02f,-2.21856847e-01f,-7.08617121e-02f,-4.64588851e-02f,
-8.21066052e-02f,+1.47286654e-02f,+2.29831159e-01f,-1.59531832e-02f,-5.43091297e-02f,
+1.91741019e-01f,+1.90397739e-01f,+2.23715812e-01f,+2.09154129e-01f,+3.21237147e-02f,
-1.89937964e-01f,+1.84751689e-01f,+4.30387557e-02f,-1.63770586e-01f,+4.02599573e-03f,
+2.09263891e-01f,+1.09410137e-01f,-3.95307988e-02f,-1.38071015e-01f,+9.13432240e-02f,
-8.15331936e-04f,+1.76527232e-01f,-7.03506023e-02f,-8.17974806e-02f,-1.86047107e-01f,
-2.17119485e-01f,+4.58126962e-02f,+3.58516872e-02f,-6.15629554e-03f,+9.31016803e-02f,
+9.33640301e-02f,+1.54300928e-02f,+2.65220404e-02f,-6.88491315e-02f,-5.80891967e-03f,
+5.24310768e-02f,-1.91807181e-01f,+9.03380513e-02f,-1.89451799e-01f,+1.84480786e-01f,
-1.40816271e-01f,+1.79036081e-01f,+1.28929883e-01f,-5.52361608e-02f,-1.49186462e-01f,
+1.35907114e-01f,+6.83291182e-02f,-9.30410475e-02f,+1.25986576e-01f,+9.48818922e-02f,
+3.85560771e-03f,+7.07898736e-02f,-2.82980502e-02f,+7.41294473e-02f,+2.28539377e-01f,
+2.45590076e-01f,+1.01342969e-01f,-4.05727215e-02f,+1.69059157e-01f,+1.80314794e-01f,
-6.14033900e-02f,+2.20439151e-01f,+2.51889199e-01f,+9.48411152e-02f,-1.87743381e-01f,
+1.65046334e-01f,+7.74343610e-02f,+5.39026745e-02f,-1.61135681e-02f,-2.40635015e-02f,
+1.77318917e-03f,-2.17939615e-01f,-1.87216818e-01f,+1.79184124e-01f,-8.38310868e-02f,
+4.54886794e-01f,+2.39345431e-03f,+1.23306856e-01f,-6.17904812e-02f,+3.41676563e-01f,
+2.96353549e-01f,-1.37575865e-01f,+1.76401198e-01f,-8.87862593e-02f,-1.40781507e-01f,
-4.08777148e-02f,+2.52452999e-01f,+3.35524753e-02f,-1.16333365e-02f,-8.17140937e-02f,
-4.61586863e-02f,+1.82420969e-01f,+1.72031838e-02f,+1.01960540e-01f,-2.16547012e-01f,
+7.39152133e-02f,+5.19701429e-02f,-1.69630066e-01f,+1.95182621e-01f,+6.08766973e-02f,
+1.34587940e-02f,+1.44544527e-01f,+2.60309011e-01f,+1.51480332e-01f,-1.50384352e-01f,
+1.11466356e-01f,+2.56711155e-01f,+2.19017655e-01f,+3.75326201e-02f,+1.41563579e-01f,
-2.57122725e-01f,-1.97575927e-01f,+6.08946383e-03f,+5.26416004e-02f,-2.07710848e-03f,
+1.23679250e-01f,+5.04589975e-02f,-1.89070985e-01f,-1.15020506e-01f,+1.10809386e-01f,
+1.54186085e-01f,+1.90480560e-01f,+1.05082795e-01f,-2.07118541e-01f,-1.75300583e-01f,
-4.31342311e-02f,+1.40186384e-01f,+9.58344266e-02f,+6.87824190e-02f,-1.12968355e-01f,
+1.76619768e-01f,+1.05214857e-01f,+2.24451199e-01f,-9.91299301e-02f,-4.75893654e-02f,
+2.39753351e-03f,+8.41557682e-02f,+1.05793722e-01f,+2.58376479e-01f,+1.48826241e-01f,
+1.75140798e-03f,+4.58329767e-02f,+8.40865523e-02f,+3.74152631e-01f,+1.16187215e-01f,
+3.12711596e-02f,+1.46975040e-01f,-1.22695938e-01f,+1.53346509e-01f,+7.61162862e-02f,
+2.76566237e-01f,-2.00825214e-01f,-1.12887122e-01f,+1.17341131e-01f,-9.30714607e-03f,
-7.46271908e-02f,+1.96020808e-02f,-5.37462682e-02f,+2.59611011e-02f,-5.40467948e-02f,
-8.07719305e-02f,+1.76164821e-01f,+1.68711990e-01f,-1.87960088e-01f,+1.87145501e-01f,
-1.54685780e-01f,+2.33359292e-01f,+4.26701680e-02f,-1.16131999e-01f,-2.01031357e-01f,
+9.66923013e-02f,+3.55139114e-02f,-2.39475384e-01f,+1.15838706e-01f,-1.62953943e-01f,
+8.13719630e-03f,-7.40031749e-02f,-1.71860725e-01f,+1.59870952e-01f,-1.41915470e-01f,
-1.66598558e-01f,-1.59381777e-01f,+3.17196250e-02f,-1.70768484e-01f,+1.19484454e-01f,
-1.63094759e-01f,-2.06080481e-01f,-9.91995633e-03f,-4.33376133e-02f,-1.17634095e-01f,
-2.79358774e-02f,+4.33174074e-02f,-6.39059842e-02f,-1.11538470e-02f,-1.34428769e-01f,
+1.77193791e-01f,-4.44526970e-02f,+9.52993035e-02f,-2.80406773e-02f,+1.41053110e-01f,
+1.69623941e-01f,-1.09964184e-01f,+7.34587908e-02f,-1.70493126e-01f,-5.05615324e-02f,
-1.50551587e-01f,-1.83816329e-01f,+2.57208943e-03f,+2.20851868e-01f,-2.16691658e-01f,
-1.72019541e-01f,-1.14512049e-01f,+1.08488321e-01f,+1.05595887e-01f,+6.84655011e-02f,
-1.58470526e-01f,+2.39478350e-02f,-2.74597555e-02f,-5.19042462e-02f,-1.14395559e-01f,
+1.06960893e-01f,+2.29101241e-01f,-9.63845849e-03f,+1.28767341e-01f,+1.44648135e-01f,
+1.90351993e-01f,-1.77720353e-01f,-1.98826820e-01f,-2.24732667e-01f,-1.58718407e-01f,
-1.84302211e-01f,-6.04806542e-02f,-1.49751917e-01f,+1.64940357e-02f,-6.27415031e-02f,
-1.17350504e-01f,+1.53735548e-01f,+4.64645214e-02f,-1.04981467e-01f,-1.59951419e-01f,
-1.79637358e-01f,+2.31403828e-01f,-9.87999961e-02f,+1.51640892e-01f,-1.23724990e-01f,
-1.71425804e-01f,+4.85322177e-02f,+1.71694547e-01f,+1.69923604e-01f,+4.06512022e-02f,
+1.67479068e-01f,+1.60605401e-01f,+6.21757321e-02f,+1.63197860e-01f,-1.37601823e-01f,
-6.10979386e-02f,+3.80436778e-02f,-4.48670089e-02f,-1.08007483e-01f,+6.30091205e-02f,
+1.82161048e-01f,-1.61117718e-01f,-2.40104631e-01f,-2.10066177e-02f,+4.81870770e-03f,
+6.11099750e-02f,-9.73631293e-02f,+1.55657575e-01f,-8.52745622e-02f,+2.23219275e-01f,
-4.17808183e-02f,-1.62936792e-01f,+1.77327842e-01f,-2.09998429e-01f,-7.03809038e-02f,
+2.31427044e-01f,+2.18136400e-01f,+1.08244479e-01f,-1.54706255e-01f,+8.19450468e-02f,
-1.89829409e-01f,-3.48595381e-02f,-8.48699063e-02f,-1.62879556e-01f,-1.57664567e-01f,
-1.71979204e-01f,-6.41948134e-02f,+2.58858800e-02f,+5.21741956e-02f,-6.32681996e-02f,
-3.02450005e-02f,-1.08340696e-01f,+6.59477040e-02f,+2.16184154e-01f,-4.48509008e-02f,
-2.82303779e-03f,-1.18536785e-01f,+1.41783297e-01f,+1.69510394e-01f,+6.14388138e-02f,
-2.93090772e-02f,+2.20643785e-02f,-2.23525748e-01f,-2.17239559e-02f,+1.83622479e-01f,
-1.85123295e-01f,+1.33386925e-01f,+1.80246532e-02f,-2.08886757e-01f,-5.65385297e-02f,
-8.88188183e-02f,-6.20524660e-02f,+1.21540472e-01f,+2.02586353e-01f,+2.11094409e-01f,
-2.32808292e-02f,-1.24179736e-01f,-2.25359991e-01f,+2.63093621e-01f,-1.15000166e-01f,
+5.34727275e-02f,-1.36331469e-01f,-1.28108695e-01f,+1.83434486e-01f,-6.37042569e-03f,
+1.17006548e-01f,-2.47049093e-01f,-1.56917945e-01f,+4.87579107e-02f,+1.81550592e-01f,
-4.62313890e-02f,+1.00268863e-01f,-3.75766605e-02f,+1.03488334e-01f,-3.04853674e-02f,
+2.63438761e-01f,+2.16083840e-01f,+1.26266330e-01f,-2.05032244e-01f,+5.48788309e-02f,
+2.93434262e-02f,-1.97002843e-01f,-1.50742337e-01f,+1.70644715e-01f,+9.75745022e-02f,
+4.23106551e-02f,+4.28882539e-02f,+5.77867627e-02f,-9.92034376e-02f,+4.03099358e-02f,
-1.38449073e-01f,+4.88381684e-02f,+9.89673734e-02f,+2.05996647e-01f,+2.08114266e-01f,
-2.17713863e-01f,+1.45254508e-01f,+1.64219260e-01f,-1.70989409e-01f,-1.59263343e-01f,
+2.02038828e-02f,+1.37426883e-01f,+2.35200748e-01f,-2.25481257e-01f,-1.15314297e-01f,
-5.02091885e-01f,-7.04328418e-01f,-1.68522641e-01f,-1.15941457e-01f,+7.94392228e-02f,
-3.30958545e-01f,+8.59118700e-02f,-1.35955840e-01f,-5.75060844e-01f,+1.96969807e-02f,
+3.93397540e-01f,+3.44294697e-01f,-1.55958280e-01f,+3.33523959e-01f,-3.86124045e-01f,
-4.18542385e-01f,-3.31015646e-01f,-1.14800656e+00f,-1.39267713e-01f,+1.11061513e-01f,
-7.36820102e-02f,+4.55483347e-01f,-6.18739128e-01f,+3.52016628e-01f,-3.93241942e-01f,
+1.20101810e+00f,-3.31125557e-01f,-1.96085364e-01f,-6.87606275e-01f,+3.76725733e-01f,
-8.08131993e-01f,+1.54534578e-01f,-9.19058740e-01f,-5.99643648e-01f,-9.10373271e-01f,
-1.35487306e+00f,+7.97168911e-02f,+5.64204216e-01f,+1.36703193e-01f,+1.06297910e-01f,
+1.70672789e-01f,+7.15374947e-01f,-3.26202005e-01f,-2.51216441e-02f,-1.88390732e-01f,
+9.35256183e-02f,-1.30174637e-01f,+6.31515324e-01f,+9.92792249e-02f,+1.49169892e-01f,
+2.22281814e-01f,+4.72924352e-01f,+5.84267378e-01f,+4.97896791e-01f,+1.17206812e-01f,
-1.78367361e-01f,-5.63360572e-01f,+6.83004022e-01f,-2.46717781e-01f,-6.45197213e-01f,
-4.72038597e-01f,-1.34035304e-01f,+3.25626880e-01f,-7.55794108e-01f,+7.84607232e-02f,
-1.30902618e-01f,-1.56968832e-03f,+3.85806561e-02f,-6.79190159e-02f,-1.40074775e-01f,
-1.50697917e-01f,-5.87664992e-02f,-2.18351558e-01f,-2.27239311e-01f,+2.23524421e-01f,
+1.39701456e-01f,-1.28425658e-01f,-1.02163047e-01f,-1.09991662e-01f,+1.70624465e-01f,
-2.08732754e-01f,+3.00087929e-02f,-1.95130378e-01f,+1.44097507e-01f,-7.02039897e-03f,
+5.86892366e-02f,+1.91206723e-01f,-1.25009432e-01f,-3.57508063e-02f,-2.14944333e-01f,
-1.28572613e-01f,+1.42017007e-01f,+1.22210115e-01f,-1.14991426e-01f,-2.12769806e-02f,
+1.29687488e-01f,-2.13441193e-01f,-1.49177074e-01f,-1.71216741e-01f,-6.33002967e-02f,
-2.26940766e-01f,-1.24339677e-01f,+2.30786771e-01f,-1.57331496e-01f,-7.59966671e-03f,
-2.26875931e-01f,+1.37930304e-01f,-1.46682292e-01f,+1.62545592e-01f,+1.35732353e-01f,
-5.18815070e-02f,+1.75568759e-01f,-3.97668779e-02f,-1.71898246e-01f,-1.87486842e-01f,
-1.27530694e-01f,-1.77658543e-01f,-1.27718091e-01f,-2.11657122e-01f,-2.18363211e-01f,
-4.21574712e-02f,-1.03672475e-01f,+4.91503775e-02f,+1.20155185e-01f,-1.21050097e-01f,
-8.85149240e-02f,-1.69376597e-01f,+6.28203154e-02f,+1.13312095e-01f,+9.91328359e-02f,
-1.11339509e-01f,-1.99153945e-01f,-1.94796026e-02f,+7.78144598e-02f,-1.99147046e-01f,
-8.86955410e-02f,+1.04743421e-01f,-1.34775043e-01f,-2.08987921e-01f,-1.72248110e-01f,
-2.11599573e-01f,-1.43110290e-01f,-1.27594709e-01f,+7.08432794e-02f,+1.34144336e-01f,
+3.77040207e-02f,+1.02306128e-01f,+5.34571707e-02f,-1.74288511e-01f,-1.27022803e-01f,
-3.18471491e-02f,+1.92181557e-01f,-2.67499834e-02f,+1.06484622e-01f,+1.03356063e-01f,
-5.17180562e-02f,-1.05039746e-01f,-1.66257650e-01f,-1.80879086e-01f,-3.92283946e-02f,
+1.08898878e-01f,+1.04317665e-01f,-1.81434184e-01f,+1.73805773e-01f,+6.71313703e-03f,
-2.26533905e-01f,-1.77885681e-01f,-7.64088333e-03f,+1.44285083e-01f,+1.37866557e-01f,
+7.45234489e-02f,+7.51656592e-02f,-1.54669613e-01f,-8.30413401e-03f,-4.71849889e-02f,
-2.42366791e-02f,-8.17262381e-02f,+1.48936808e-01f,+1.58511430e-01f,+1.91600233e-01f,
+9.64521468e-02f,-1.18788481e-02f,-2.15094209e-01f,-1.76321268e-02f,+3.58124375e-02f,
-1.43025860e-01f,+1.28912032e-01f,-2.11443782e-01f,-1.17891029e-01f,+1.59585893e-01f,
+7.70641863e-02f,-1.09805092e-01f,+5.02856672e-02f,+1.37715369e-01f,+1.29299819e-01f,
+1.85505807e-01f,-2.25409552e-01f,+1.55912280e-01f,+8.72320235e-02f,+1.77032381e-01f,
-8.67280364e-03f,-5.06687015e-02f,-1.77679077e-01f,-1.82597220e-01f,-1.07669115e-01f,
-1.46481365e-01f,-2.16288596e-01f,+1.69649720e-03f,+7.08077848e-03f,-3.17236781e-03f,
+2.19036549e-01f,-1.05188027e-01f,-2.97588557e-02f,-8.14403892e-02f,-1.79687023e-01f,
-1.57450914e-01f,-1.73476428e-01f,+1.31287724e-01f,+9.96573865e-02f,+1.17182255e-01f,
-1.72529101e-01f,-1.95841566e-01f,-7.57167786e-02f,+1.82782412e-01f,-4.61402535e-03f,
+1.11363530e-01f,-1.97534472e-01f,-1.54646888e-01f,-7.99386352e-02f,+1.85162246e-01f,
+1.90932810e-01f,+2.16219217e-01f,+1.72853351e-01f,-9.32281762e-02f,-7.66518563e-02f,
+1.76352978e-01f,-8.91461670e-02f,-1.94542557e-01f,-1.16879903e-01f,-6.64848089e-02f,
+5.69079816e-02f,-3.10064852e-02f,-2.18682587e-02f,+1.26522720e-01f,+2.18637198e-01f,
-9.18801576e-02f,+1.11761987e-02f,-8.87848735e-02f,+5.54898977e-02f,-1.30861670e-01f,
+2.20661253e-01f,+1.25527322e-01f,-7.71643519e-02f,-2.01842904e-01f,-4.14425731e-02f,
+2.28780955e-01f,-1.24961317e-01f,-1.72101825e-01f,-5.50550967e-02f,-1.24730267e-01f,
-2.26778194e-01f,+2.25480080e-01f,+1.07372701e-02f,-6.81263208e-03f,-1.34976059e-01f,
+9.50593650e-02f,+4.02360559e-02f,+1.54517531e-01f,+1.98180348e-01f,+1.74452811e-02f,
+1.92880154e-01f,+1.76976919e-01f,-2.30938345e-02f,+5.73125184e-02f,+2.22148210e-01f,
-1.55182436e-01f,+7.01943934e-02f,+1.57972008e-01f,+1.46903694e-01f,-5.02875000e-02f,
-1.98114187e-01f,-1.16809875e-01f,+7.00581372e-02f,+1.34737581e-01f,-1.36348307e-02f,
-2.11161032e-01f,+1.76259488e-01f,-1.28077403e-01f,-1.54585958e-01f,+9.75831151e-02f,
+1.07388616e-01f,+4.41302657e-02f,+3.68002951e-02f,-1.13791905e-01f,-6.76987767e-02f,
+8.02483857e-02f,-7.72878528e-02f,-5.50844073e-02f,+2.05173880e-01f,+1.13655329e-02f,
-6.63946420e-02f,+7.82947242e-02f,-1.97617471e-01f,-1.30601376e-01f,-1.38068199e-01f,
+1.73641115e-01f,+6.91528022e-02f,-3.09923142e-02f,-1.70918360e-01f,-1.51898384e-01f,
-2.02428460e-01f,-1.38139725e-03f,+6.14982843e-03f,-1.38338059e-01f,-1.68607354e-01f,
+2.31902301e-03f,-4.78788018e-02f,-1.76899612e-01f,-8.18782002e-02f,+1.16697401e-01f,
+3.65959993e-03f,-2.06344388e-02f,-7.64399618e-02f,+3.16041112e-02f,+9.71483290e-02f,
-2.75217984e-02f,-6.38317019e-02f,-2.10902989e-02f,+1.76391318e-01f,+1.38198435e-01f,
-8.53634849e-02f,+1.04680002e-01f,+9.17263329e-02f,+1.45696420e-02f,+7.55981579e-02f,
+1.89925745e-01f,+2.10034251e-02f,-2.00201884e-01f,+8.20962787e-02f,+1.41699106e-01f,
+1.84707969e-01f,+3.91511694e-02f,+2.19760612e-01f,-2.53656566e-01f,+2.12611169e-01f,
-1.24146536e-01f,+1.03239333e-02f,+7.52561092e-02f,+5.19770943e-02f,+1.09288454e-01f,
+8.35026354e-02f,-6.52992427e-02f,+3.37296985e-02f,-8.38439390e-02f,+1.34237297e-02f,
+1.01982065e-01f,-3.97196412e-02f,-6.11096248e-02f,-3.33747268e-02f,-8.27803910e-02f,
-9.53132138e-02f,+8.11179206e-02f,-1.56722397e-01f,+2.01850235e-01f,-5.53040802e-02f,
-6.96163327e-02f,+1.30261719e-01f,-1.88401774e-01f,+1.59743935e-01f,+1.83990926e-01f,
+2.04657704e-01f,-1.57750443e-01f,+3.88371013e-02f,+8.21311772e-02f,+8.89083743e-02f,
+5.74761145e-02f,+1.87817309e-02f,+1.17403008e-01f,+1.15714341e-01f,-1.03902921e-01f,
+1.72963053e-01f,-3.21670137e-02f,-1.13839038e-01f,+1.13088712e-01f,-1.47978336e-01f,
-2.19655767e-01f,-2.08053276e-01f,-1.97754890e-01f,+8.28865170e-02f,+7.23721385e-02f,
-2.03598112e-01f,-1.27248615e-02f,+7.30238855e-03f,-1.79486573e-02f,-1.41648650e-01f,
-1.59394443e-02f,-1.80391714e-01f,-9.52229351e-02f,-1.55960634e-01f,+3.59331965e-02f,
+1.57543123e-01f,+2.15954185e-01f,+9.39112902e-02f,+9.87695456e-02f,-1.55894518e-01f,
+1.48909926e-01f,+2.02074468e-01f,+1.27062410e-01f,-7.46924728e-02f,+4.32146192e-02f,
-1.26217276e-01f,-6.69472963e-02f,+4.58637774e-02f,+1.68331861e-02f,+1.99575305e-01f,
+1.33581251e-01f,-1.54695168e-01f,-1.20637879e-01f,-2.22879842e-01f,+8.57161880e-02f,
-9.10218954e-02f,-1.53450519e-01f,-2.17264563e-01f,+7.23876953e-02f,-4.89694923e-02f,
+9.26392674e-02f,+1.78325206e-01f,-1.88798755e-02f,-1.12062693e-02f,+1.33146137e-01f,
-2.29759857e-01f,+2.17572808e-01f,+2.22517073e-01f,+1.31361783e-01f,-2.16156244e-04f,
-6.63799495e-02f,-1.83569655e-01f,-1.22676678e-01f,-1.00929379e-01f,-2.30360091e-01f,
+8.11355412e-02f,-2.08737820e-01f,+1.35355830e-01f,+1.43143535e-02f,-7.54697919e-02f,
-1.20825112e-01f,-1.55640453e-01f,+8.06906223e-02f,-1.28523543e-01f,+1.24592863e-01f,
+9.16894376e-02f,+1.86531842e-02f,+1.07488900e-01f,-1.56368449e-01f,+4.88578081e-02f,
-1.13240853e-01f,+1.88427672e-01f,-5.95658273e-02f,+4.96890545e-02f,+7.41969272e-02f,
-1.07950829e-01f,-1.10227091e-03f,+1.97441593e-01f,-7.46853575e-02f,+1.10162459e-01f,
-1.25282481e-01f,-5.57112955e-02f,-1.42584682e-01f,-1.48673862e-01f,+1.12913713e-01f,
+1.69516802e-01f,-4.00969237e-02f,+1.70886964e-01f,-1.93887755e-01f,+2.27749839e-01f,
-7.19250441e-02f,+7.20953941e-02f,-2.36920461e-01f,-2.28901401e-01f,+3.77956331e-02f,
+5.26542552e-02f,+2.32700072e-03f,-1.50219962e-01f,-2.13719858e-03f,+8.20755959e-03f,
+1.52524397e-01f,-4.34558690e-02f,+2.22478271e-01f,-5.71915060e-02f,+1.12819888e-01f,
-5.76672405e-02f,+1.78395569e-01f,-1.49885848e-01f,+5.65461516e-02f,-9.85057801e-02f,
+7.11668506e-02f,+7.48012364e-02f,+1.07046425e-01f,-1.10317469e-01f,-8.87553319e-02f,
-2.05064982e-01f,+9.78673473e-02f,-1.61964282e-01f,+4.83139884e-03f,+2.04543844e-01f,
+1.66978613e-01f,+8.08488876e-02f,+1.61564171e-01f,+1.52401522e-01f,+5.82567789e-02f,
-1.49996176e-01f,-7.43434019e-03f,-9.16967317e-02f,+4.57496345e-02f,+2.25940973e-01f,
-1.69748262e-01f,-8.80585611e-02f,-3.13260779e-02f,-2.23592967e-01f,+1.21544659e-01f,
+1.81587026e-01f,-5.12733907e-02f,-1.06561193e-02f,-1.72897801e-01f,+6.03462234e-02f,
-2.17100028e-02f,+2.84738634e-02f,-1.59247190e-01f,-6.70867860e-02f,+2.31746644e-01f,
-7.45836794e-02f,-8.55086595e-02f,-2.19870642e-01f,-1.47531360e-01f,+6.24065474e-03f,
+7.63996542e-02f,+2.05686897e-01f,-2.29911879e-02f,+6.57700524e-02f,-2.27639556e-01f,
+2.35748314e-03f,-2.05480810e-02f,-1.17788248e-01f,+1.92755520e-01f,-1.54976517e-01f,
-5.79189919e-02f,+6.01533949e-02f,-5.79429641e-02f,-1.19260229e-01f,+1.84897855e-01f,
+7.54199624e-02f,-1.68263346e-01f,+1.39976710e-01f,+1.82957515e-01f,+1.15300171e-01f,
+1.93023086e-02f,-8.40983391e-02f,+2.19150454e-01f,-1.30363256e-01f,-2.18468547e-01f,
-4.94171977e-02f,+8.35164189e-02f,-1.29151046e-01f,+1.86976716e-01f,-7.52788112e-02f,
+1.62310794e-01f,-1.85460895e-01f,+1.91023052e-02f,+1.02954723e-01f,+1.94826409e-01f,
+2.11205050e-01f,+1.26129597e-01f,+5.61467782e-02f,-9.95261222e-03f,-1.36185572e-01f,
-1.68054596e-01f,-1.24471568e-01f,+2.99526155e-02f,-1.82928890e-02f,-7.02615976e-02f,
+1.31245077e-01f,-1.77109361e-01f,-1.69356346e-01f,+1.48543060e-01f,-2.89245397e-02f,
+4.89344001e-02f,-1.28658593e-01f,+2.00350195e-01f,-2.14284226e-01f,-1.73329487e-01f,
+2.24643588e-01f,-2.13744268e-01f,-1.41060844e-01f,-1.48813188e-01f,-1.05199948e-01f,
+1.87029272e-01f,+1.69987798e-01f,-4.41405773e-02f,-2.05311775e-02f,-9.33826864e-02f,
+3.28949690e-02f,+1.15124255e-01f,-9.10831988e-03f,+1.40947610e-01f,-2.19250277e-01f,
-1.69367820e-01f,+1.98959708e-02f,+1.70139134e-01f,-1.17246158e-01f,+4.78076637e-02f,
-1.40508354e-01f,+1.23127013e-01f,-4.62038219e-02f,+1.38454109e-01f,+1.75558716e-01f,
+1.21449113e-01f,-1.65986687e-01f,-2.01820940e-01f,+8.73273313e-02f,-1.14133053e-01f,
+1.80011958e-01f,+5.97603023e-02f,+4.31902111e-02f,-1.40895456e-01f,+2.17574924e-01f,
-1.75216198e-01f,-2.00174883e-01f,+1.58244163e-01f,-1.95279539e-01f,-2.10592806e-01f,
+2.03319937e-01f,-6.71334863e-02f,+1.87992364e-01f,+6.84528053e-02f,+1.26174420e-01f,
+6.19826913e-02f,-2.10130483e-01f,-1.67055935e-01f,-1.04602531e-01f,-5.32063544e-02f,
+7.59297907e-02f,-1.56489179e-01f,-1.54078066e-01f,-1.88594639e-01f,+1.01859987e-01f,
+6.57605231e-02f,-1.74584687e-02f,-3.92708331e-02f,+7.90804625e-02f,-1.88738942e-01f,
-2.13660106e-01f,+2.01028347e-01f,-2.05899149e-01f,-2.42806524e-02f,+1.40997052e-01f,
+6.28555715e-02f,+5.34500480e-02f,+4.11035120e-02f,-1.05128810e-01f,-1.97547719e-01f,
-1.71306029e-01f,-2.29831874e-01f,+2.12039143e-01f,+2.09390104e-01f,-6.35495037e-02f,
-1.14871234e-01f,-1.80699587e-01f,-1.58368275e-01f,-1.89299881e-02f,+1.36818260e-01f,
-1.24013424e-03f,-1.02035299e-01f,+1.97541207e-01f,+2.00512707e-01f,-5.25926650e-02f,
+1.56630665e-01f,+1.58615321e-01f,-2.27277115e-01f,+6.45352304e-02f,-1.04957819e-03f,
-1.03322938e-01f,+6.49426579e-02f,-7.09220320e-02f,+2.96415985e-02f,+2.13023633e-01f,
-1.92712903e-01f,+6.71089888e-02f,-1.64072067e-01f,+1.98333532e-01f,-1.55296892e-01f,
-1.43125579e-01f,-7.13953376e-02f,+2.30200887e-01f,+1.27325863e-01f,-1.62568152e-01f,
+1.19548231e-01f,-7.35679567e-02f,+4.80446815e-02f,-1.48290783e-01f,+1.90263540e-01f,
+2.06026614e-01f,-1.77472413e-01f,-7.43936002e-02f,-1.78611234e-01f,-2.48151377e-01f,
-1.77867413e-01f,-1.60162598e-02f,-1.83319181e-01f,-9.11359042e-02f,-2.52907634e-01f,
+4.89886403e-02f,-1.16286792e-01f,-1.62187174e-01f,+6.02981150e-02f,-1.00654237e-01f,
+2.24831313e-01f,-2.88943518e-02f,+2.37551913e-01f,-1.37885571e-01f,-1.91579849e-01f,
+1.05159238e-01f,+2.30299503e-01f,+2.77063072e-01f,-6.12469763e-02f,-3.26081812e-02f,
+1.84576601e-01f,+3.32339928e-02f,+2.35744808e-02f,-2.32026994e-01f,-1.09420069e-01f,
-1.57946154e-01f,-1.34816974e-01f,+5.79111874e-02f,+2.19401225e-01f,+3.50634247e-01f,
+1.74234807e-02f,+2.67268628e-01f,-1.76528618e-01f,+2.02266872e-01f,+2.11515620e-01f,
-1.37202710e-01f,-4.45027649e-02f,+2.06959218e-01f,-1.60229653e-01f,+8.26771259e-02f,
+1.53073564e-01f,+1.49682492e-01f,-4.40275669e-02f,-1.38574719e-01f,-1.31303906e-01f,
+2.22505212e-01f,-3.58476304e-02f,+1.96484685e-01f,-2.06257552e-02f,+5.78012764e-02f,
+2.40772903e-01f,+1.89459160e-01f,-1.70541644e-01f,+1.39031976e-01f,+1.27290875e-01f,
-5.80344386e-02f,-1.20336446e-03f,+5.00451066e-02f,+1.46492692e-02f,-6.07269332e-02f,
+2.10284963e-02f,+1.73469439e-01f,+7.00089857e-02f,-4.08661924e-02f,-1.20224416e-01f,
+9.65862870e-02f,-1.88524336e-01f,-1.78254083e-01f,+1.91480685e-02f,-9.68595594e-02f,
+2.83909142e-02f,+1.40738726e-01f,-3.11191231e-02f,-6.00232817e-02f,+1.25468940e-01f,
-1.64776623e-01f,-2.13948563e-01f,-1.83176678e-02f,-2.53550541e-02f,-1.82140559e-01f,
+1.09763883e-01f,-1.20074339e-01f,+2.10571617e-01f,-2.24812463e-01f,-8.89595002e-02f,
+1.75911456e-01f,+1.18999504e-01f,-6.63746372e-02f,-2.26338059e-01f,+1.86804876e-01f,
-1.28934443e-01f,-1.67098977e-02f,+5.32861352e-02f,-3.12010478e-02f,+1.55362487e-01f,
-1.77229553e-01f,+2.96900868e-01f,-8.57580751e-02f,-1.74874142e-01f,+1.86008811e-01f,
-6.40176758e-02f,+5.64251840e-02f,-1.92322642e-01f,+2.28854157e-02f,-1.67635307e-01f,
-1.70735996e-02f,-7.07441717e-02f,+1.93942934e-01f,-7.92471319e-02f,-1.78829208e-01f,
+2.36531094e-01f,+5.23052216e-02f,-1.19008817e-01f,-4.72829342e-02f,+9.84841660e-02f,
-7.61331990e-02f,-2.84664482e-01f,-1.82685852e-01f,-1.65967032e-01f,+2.01730907e-01f,
+1.00890048e-01f,+1.07814699e-01f,+2.08087206e-01f,-2.70057451e-02f,-1.22255690e-01f,
-2.83816960e-02f,+7.09877014e-02f,-2.15502292e-01f,-4.89919037e-02f,+2.14857697e-01f,
-1.01557687e-01f,-1.28727674e-01f,-1.54891014e-01f,-2.22069204e-01f,+1.59493685e-02f,
-6.77374005e-03f,-9.13408548e-02f,-1.19201295e-01f,+6.56580925e-02f,+2.22271621e-01f,
-1.82209015e-01f,+1.72811210e-01f,+1.47101462e-01f,-2.25580171e-01f,+1.86675966e-01f,
-1.27258316e-01f,-2.51909047e-02f,-2.13586003e-01f,-2.89072692e-02f,-4.67916429e-02f,
+3.50746512e-02f,-1.10147394e-01f,-9.91065651e-02f,+6.55250549e-02f,+1.51116103e-01f,
+2.11009830e-01f,-1.27335340e-01f,-7.40601867e-02f,+9.89925563e-02f,-1.52955472e-01f,
-2.19892502e-01f,-2.19742507e-01f,-1.25524670e-01f,+1.13138199e-01f,+1.30311310e-01f,
-2.16163993e-01f,+7.71853328e-02f,+2.19110876e-01f,+1.82107180e-01f,+1.58003449e-01f,
+9.70191360e-02f,-9.82562453e-02f,+1.97210431e-01f,-1.25882387e-01f,-1.07178539e-01f,
-7.34158158e-02f,+1.63603723e-01f,-1.86748102e-01f,-1.66195780e-01f,+3.21854651e-02f,
+1.06936544e-01f,+1.82919502e-02f,-1.35579616e-01f,+8.17725956e-02f,+2.17746198e-01f,
+2.03318775e-01f,-1.09488890e-01f,+1.44420177e-01f,+1.64604753e-01f,-2.42045075e-02f,
+1.98612511e-02f,+1.21401027e-01f,+2.52248980e-02f,-1.03408843e-02f,-1.71391785e-01f,
+1.67952269e-01f,+2.83216149e-01f,+3.24157476e-02f,-1.71197981e-01f,+2.57972598e-01f,
+1.05778366e-01f,+1.34704217e-01f,-1.06789898e-02f,-1.32212326e-01f,-1.37376949e-01f,
+2.56633222e-01f,+1.25762492e-01f,-2.25950524e-01f,-2.91158110e-01f,-2.99413025e-01f,
-7.70567358e-02f,+7.20277429e-02f,+1.28493175e-01f,-7.46423602e-02f,+8.20372924e-02f,
+2.93719202e-01f,+2.37569213e-02f,+1.81330532e-01f,-8.14228952e-02f,+2.86184698e-01f,
-1.11502334e-01f,-3.67324859e-01f,-1.02587730e-01f,-2.54777014e-01f,+2.39571750e-01f,
-1.17560133e-01f,-4.41130280e-01f,+1.46537155e-01f,-2.41691604e-01f,-7.60677457e-02f,
-1.28206417e-01f,-1.52739510e-01f,+2.29391232e-02f,-1.32061765e-01f,-2.01336488e-01f,
-2.27649316e-01f,-1.18532330e-02f,-2.18234956e-01f,+2.34945610e-01f,-3.54098380e-02f,
-2.10895598e-01f,-1.36297315e-01f,-9.20513645e-02f,-6.77794293e-02f,-2.79870421e-01f,
+3.09894979e-02f,-2.13101327e-01f,+3.45475152e-02f,+8.47244859e-02f,+5.21648973e-02f,
+9.76819620e-02f,+6.72851279e-02f,-2.25541905e-01f,-5.41924080e-03f,+1.97794452e-01f,
+1.18449986e-01f,+2.53624916e-01f,+2.19067514e-01f,+9.90560055e-02f,-6.94441795e-03f,
+2.57514656e-01f,-1.16603106e-01f,+1.17147148e-01f,+2.53177136e-01f,-1.74560010e-01f,
+2.98573356e-03f,-1.73446476e-01f,-2.25587055e-01f,+1.44891977e-01f,+3.41521502e-02f,
+1.30603567e-01f,-9.26629603e-02f,-3.53867412e-01f,-3.66786063e-01f,-1.61798626e-01f,
+7.10124075e-02f,+4.42219749e-02f,+1.54252976e-01f,-2.48739779e-01f,-7.70932287e-02f,
+3.31554025e-01f,-1.70014799e-01f,-9.90593433e-03f,+3.97350006e-02f,-2.41087042e-02f,
-1.45431578e-01f,-1.28604293e-01f,-4.77728993e-01f,+2.55814314e-01f,-5.20417392e-01f,
-2.65780002e-01f,+6.10697865e-02f,-1.04444981e-01f,-2.11193919e-01f,-1.03249222e-01f,
-2.74027705e-01f,+1.15871571e-01f,-4.41731364e-02f,-1.08303666e-01f,-2.22093016e-02f,
-1.75060526e-01f,-1.06531568e-01f,+3.96886542e-02f,-1.10822670e-01f,-5.73543608e-02f,
+3.15552950e-02f,+4.44393568e-02f,-8.17475840e-02f,+1.43595234e-01f,+1.89746410e-01f,
-2.04648435e-01f,+1.96931466e-01f,+2.11485717e-02f,-3.68349046e-01f,+2.28521630e-01f,
+1.37164101e-01f,-2.72002965e-01f,-3.08133941e-02f,+2.63618827e-01f,-8.70817959e-01f,
-1.06872785e+00f,-1.63753435e-01f,+9.15707052e-02f,-3.00056934e-02f,-8.07467282e-01f,
-1.80569082e-01f,-1.58751354e-01f,-1.06072533e+00f,-1.78107083e-01f,+9.48881328e-01f,
+1.10680306e+00f,+4.07148190e-02f,+1.12334883e+00f,-7.17969358e-01f,-7.05806315e-01f,
-7.99578130e-01f,-1.92979980e+00f,-1.79099512e+00f,-1.26016364e-01f,+2.86926627e-02f,
+9.62718368e-01f,-1.11872017e+00f,+6.34868264e-01f,-9.76437449e-01f,+2.00156879e+00f,
-9.49356079e-01f,+6.75496757e-02f,-7.86089540e-01f,+1.10294497e+00f,-1.93678558e+00f,
+2.07108259e-01f,-2.09270787e+00f,-1.10575104e+00f,-2.11674023e+00f,-2.31814861e+00f,
-1.31169811e-01f,+7.89260745e-01f,-8.46208185e-02f,-9.86323208e-02f,+4.53122854e-01f,
+7.73019612e-01f,-8.47653329e-01f,-1.00402817e-01f,-2.28653982e-01f,+1.06959343e-01f,
+2.27866083e-01f,+1.23526037e+00f,-1.07906841e-01f,-1.16127096e-01f,+1.95549726e-02f,
+6.56089187e-01f,+6.96340799e-01f,+1.03772175e+00f,+5.54348528e-03f,-1.91196293e-01f,
-7.31315136e-01f,+8.34688544e-01f,-3.84585351e-01f,-9.46074963e-01f,-8.04865241e-01f,
-7.01154828e-01f,+1.12350202e+00f,-1.03013229e+00f,+1.04321659e-01f,+1.75524890e-01f,
-2.11632520e-01f,+1.33915842e-02f,+1.09268367e-01f,-1.36299700e-01f,-1.67188585e-01f,
+4.89568710e-03f,+1.38819039e-01f,+5.10093868e-02f,-1.02933466e-01f,+8.03202093e-02f,
+1.48507804e-01f,-5.91440052e-02f,-1.49625868e-01f,-1.68348044e-01f,-1.78935766e-01f,
-9.24721360e-03f,+1.43638402e-01f,-3.34588885e-02f,+2.64467597e-02f,+1.81152642e-01f,
+4.38758135e-02f,-8.23184103e-02f,-7.51705319e-02f,+2.28482932e-01f,+1.54339343e-01f,
-1.90720469e-01f,+1.12829953e-01f,+1.45711303e-01f,+2.29801744e-01f,+1.72867924e-01f,
+2.12029606e-01f,+2.20433414e-01f,-1.04489326e-02f,+2.90294290e-02f,-4.44013178e-02f,
+6.45592809e-04f,-2.99697667e-02f,-2.18496576e-01f,-6.80398643e-02f,+3.96046340e-02f,
-1.48318559e-02f,+7.67957270e-02f,-7.70172924e-02f,+1.49942040e-02f,-1.15405247e-01f,
+2.12234885e-01f,+5.58775365e-02f,+1.66131347e-01f,+2.38230228e-02f,+1.77865922e-01f,
-1.29205227e-01f,-9.98684168e-02f,-1.83335900e-01f,+1.92259133e-01f,-4.99556959e-03f,
+1.06048882e-01f,-3.96478474e-02f,-1.71870992e-01f,-7.34447837e-02f,+2.06019729e-01f,
-8.51091295e-02f,-2.13219419e-01f,+1.31838411e-01f,+1.85655951e-02f,-1.55981153e-01f,
-1.39772654e-01f,-8.16107839e-02f,+1.77879900e-01f,-1.22373223e-01f,-1.89762264e-02f,
-5.34253716e-02f,+1.79514259e-01f,-1.06031388e-01f,-1.72498152e-01f,+1.77353948e-01f,
+2.24105239e-01f,-6.32392615e-02f,-1.36227727e-01f,+2.07882822e-01f,-2.30476081e-01f,
+9.61537659e-02f,+3.21656168e-02f,+1.43907309e-01f,-1.77240476e-01f,-5.39957434e-02f,
-7.88182020e-04f,-1.67833835e-01f,-1.31074458e-01f,+3.54605913e-02f,+1.56673431e-01f,
-7.00169802e-03f,+3.18299830e-02f,+1.02257848e-01f,+3.37420404e-02f,-2.19125450e-01f,
+9.50565636e-02f,-7.72211850e-02f,-1.43191800e-01f,+5.08421957e-02f,+2.11203575e-01f,
-1.92061022e-01f,-2.30728492e-01f,-1.25651002e-01f,-6.58447891e-02f,+2.20086515e-01f,
+3.76716852e-02f,-8.58886391e-02f,+1.16043866e-01f,-2.13595867e-01f,-6.25433475e-02f,
-1.76147521e-02f,-6.53614998e-02f,+1.81941211e-01f,+1.46387398e-01f,-4.39482629e-02f,
-9.42525864e-02f,-2.14879364e-02f,-5.06630093e-02f,+1.41030699e-01f,-5.18583357e-02f,
-1.61373824e-01f,-1.93351433e-01f,-5.21623939e-02f,-6.50204569e-02f,+6.52963221e-02f,
+9.77898836e-02f,-1.20759062e-01f,-1.82651028e-01f,-2.14186117e-01f,+5.28813303e-02f,
+5.24926186e-02f,-2.05683440e-01f,-6.97824359e-03f,-2.51272768e-02f,+7.95913041e-02f,
-1.60790861e-01f,-7.06932992e-02f,-1.47719860e-01f,+7.13140368e-02f,-9.17980969e-02f,
-2.00092554e-01f,-1.78826988e-01f,+2.12532610e-01f,+8.69628489e-02f,-2.27496743e-01f,
+1.03178173e-02f,-1.15252443e-01f,-1.91341713e-01f,+1.41059518e-01f,-1.06828287e-01f,
-1.64536983e-02f,-2.21218765e-01f,-1.62807152e-01f,+1.96173489e-01f,-6.03940189e-02f,
-2.70581394e-02f,+1.11546457e-01f,-2.08311871e-01f,+7.05004334e-02f,+1.56707585e-01f,
+1.62779123e-01f,+8.04886520e-02f,-1.61394954e-01f,+1.32530898e-01f,-1.90854058e-01f,
+6.47623837e-03f,+1.42523348e-01f,-5.55638969e-03f,+1.78586185e-01f,+3.15322280e-02f,
+4.56234217e-02f,-1.38953239e-01f,-1.98594883e-01f,-1.83225587e-01f,+1.12513274e-01f,
+2.15207458e-01f,-2.69377232e-02f,+1.94482505e-01f,-1.52746379e-01f,-6.83790743e-02f,
+1.03746921e-01f,+3.41625214e-02f,+1.90737516e-01f,+1.44128710e-01f,+1.56783968e-01f,
+1.02252126e-01f,+1.54085129e-01f,-1.76718667e-01f,+3.14925015e-02f,-1.81792080e-02f,
+1.25412166e-01f,-1.56473845e-01f,+2.09716767e-01f,-1.62531435e-03f,+8.22730362e-02f,
-1.71123862e-01f,-1.75623938e-01f,+2.17077821e-01f,+2.10218728e-02f,+1.73268348e-01f,
+2.14694798e-01f,+6.99386597e-02f,-7.60634989e-02f,-6.63983375e-02f,-4.23667133e-02f,
-1.07697256e-01f,-4.57693636e-02f,+1.42109483e-01f,+1.34803504e-01f,-1.34395093e-01f,
-6.63152337e-03f,-1.48687601e-01f,+1.75823569e-02f,-1.84676796e-01f,+1.50514871e-01f,
-2.16888770e-01f,+1.90331131e-01f,-1.35939017e-01f,-1.50767177e-01f,-8.17241371e-02f,
+1.25920355e-01f,-1.03240550e-01f,+1.94325954e-01f,-6.13846630e-02f,+1.16731673e-01f,
+2.18548477e-02f,-2.30848938e-02f,-1.39593631e-02f,+7.65771866e-02f,+2.95611918e-02f,
-1.62129670e-01f,-2.24335238e-01f,+5.82906008e-02f,-1.46918416e-01f,+4.83731329e-02f,
-1.78022698e-01f,-1.48287296e-01f,+2.23080367e-01f,+1.03595376e-01f,+1.74743831e-01f,
-1.67631477e-01f,-2.09070414e-01f,-1.18101217e-01f,-8.56147110e-02f,-8.48186463e-02f,
+5.98240793e-02f,-1.54191673e-01f,+2.03871161e-01f,-2.18891799e-01f,+9.31689143e-02f,
+4.05829251e-02f,-1.72030136e-01f,-2.09448799e-01f,-1.27633333e-01f,-4.02095802e-02f,
+3.24268639e-02f,+1.24294013e-02f,-4.98894006e-02f,+2.24036545e-01f,+8.81446078e-02f,
-1.13111831e-01f,+1.00656271e-01f,+1.33392692e-01f,-7.40795583e-02f,-6.09092340e-02f,
-2.73497611e-01f,+1.51373381e-02f,-9.36972797e-02f,+1.99637309e-01f,+1.59244463e-02f,
-7.89589211e-02f,-6.14867449e-01f,-3.12244058e-01f,-1.94406360e-01f,+1.70375854e-01f,
+1.79404587e-01f,+1.87489018e-02f,-1.78698450e-02f,+1.87861130e-01f,+3.46529990e-01f,
-7.84906372e-02f,+1.50286645e-01f,+2.70709515e-01f,-5.41062914e-02f,-6.12800419e-01f,
-1.62691489e-01f,-3.50791872e-01f,+1.09586969e-01f,-2.46433541e-01f,-4.06257778e-01f,
+1.83728814e-01f,-2.70283878e-01f,-1.32508829e-01f,-1.59933269e-01f,-2.20952943e-01f,
-1.95310682e-01f,+1.20501235e-01f,-1.05752766e-01f,+1.13957018e-01f,+4.53342497e-02f,
+1.22537106e-01f,+2.17534110e-01f,-4.57018316e-02f,+1.34168684e-01f,+8.16305578e-02f,
-3.05560142e-01f,-1.74315289e-01f,+5.83705911e-03f,+2.76739299e-02f,+3.99084985e-02f,
+2.10009307e-01f,+8.98324549e-02f,-1.93665296e-01f,+1.87099293e-01f,-1.45532593e-01f,
-2.91979313e-01f,-4.15595993e-03f,-5.88333048e-02f,+4.21915650e-02f,-8.73749554e-02f,
+9.71667171e-02f,+1.77848697e-01f,+2.02428222e-01f,+2.02822804e-01f,-2.04849347e-01f,
+5.97756803e-02f,+1.60400778e-01f,+2.15260088e-01f,+1.61146075e-01f,-1.06098056e-01f,
+1.54213101e-01f,+1.38173878e-01f,-1.52440384e-01f,+1.89492345e-01f,-2.02923387e-01f,
+1.66395068e-01f,-7.50614852e-02f,+1.08184367e-02f,+4.79117334e-02f,-1.71515346e-02f,
+2.07252115e-01f,+2.29341984e-02f,+1.74116611e-01f,+2.02650189e-01f,-1.50988638e-01f,
-5.13291359e-02f,+6.77979290e-02f,+1.87565804e-01f,-5.81468493e-02f,+1.30465001e-01f,
+8.27313960e-02f,+3.90620828e-02f,-6.90309554e-02f,+5.38812280e-02f,+1.60947204e-01f,
+7.94405341e-02f,-7.03918785e-02f,-1.72806174e-01f,+2.21760869e-02f,-3.99622768e-02f,
-2.07795024e-01f,-1.26786381e-01f,-8.40553492e-02f,+4.63107228e-02f,+1.24828339e-01f,
+2.22534716e-01f,+6.37117028e-03f,-6.33443892e-02f,+1.81118488e-01f,+7.08729029e-02f,
+4.46921885e-02f,-2.26139724e-01f,+1.95647150e-01f,-4.41968143e-02f,+1.01638705e-01f,
-1.61578119e-01f,+1.07869655e-01f,-2.19501466e-01f,-1.14622138e-01f,-7.87642151e-02f,
-2.18160138e-01f,-5.81948608e-02f,-1.11414969e-01f,+3.02079886e-01f,-1.89197689e-01f,
+1.50833279e-01f,-2.03085899e-01f,-9.79658663e-02f,+9.56272483e-02f,+1.63074464e-01f,
+1.81906193e-01f,-8.55620205e-03f,+5.70369512e-02f,-8.57429132e-02f,-8.03464577e-02f,
-1.74619526e-01f,+1.16628464e-02f,-6.06434979e-02f,-7.79453740e-02f,-6.83271468e-01f,
-4.63865131e-01f,-6.89460784e-02f,+9.95436013e-02f,-1.75922006e-01f,+2.76317179e-01f,
-6.77980408e-02f,+1.94141537e-01f,+4.73739862e-01f,-4.87663150e-02f,-9.74004120e-02f,
-1.03923351e-01f,+3.48602533e-02f,-8.11847448e-01f,-8.45421255e-02f,-5.57466865e-01f,
+4.19596285e-02f,-7.69787431e-01f,-6.34539247e-01f,-1.57616124e-01f,-7.08882287e-02f,
-1.48134828e-02f,-1.89355165e-01f,+3.39053683e-02f,-2.99362212e-01f,+1.28191054e-01f,
+2.28487551e-02f,-1.27534837e-01f,+3.56989503e-02f,+2.04959273e-01f,+3.12993139e-01f,
-1.86058313e-01f,+3.54811847e-02f,+2.08084285e-03f,+1.85267557e-03f,-1.83145013e-02f,
-1.18056513e-01f,-1.89386249e-01f,-1.41932547e-01f,+1.42960642e-02f,-2.54462391e-01f,
-2.17897132e-01f,+1.58199862e-01f,+4.61275829e-03f,-3.61018926e-01f,-3.07719439e-01f,
+1.18593439e-01f,+2.44009331e-01f,+2.45327890e-01f,-4.90396917e-02f,-1.91443354e-01f,
+8.16298723e-02f,+1.31062225e-01f,+1.40920997e-01f,+1.16261810e-01f,+2.06438765e-01f,
+1.93637550e-01f,-1.36484489e-01f,-1.65087208e-01f,+4.43353830e-03f,+3.01490594e-02f,
+1.88857421e-01f,+1.93447575e-01f,-1.42717615e-01f,-3.97156894e-01f,-6.70412332e-02f,
-1.10639900e-01f,-1.98600397e-01f,-4.98434938e-02f,+2.85218120e-01f,-8.24697241e-02f,
+2.47713119e-01f,+2.90861487e-01f,+2.21116647e-01f,-1.68912679e-01f,+1.77351832e-01f,
-4.80799153e-02f,-4.97196823e-01f,+1.69442147e-01f,-1.76686406e-01f,+1.09031826e-01f,
-4.48440462e-01f,-5.41993082e-01f,+8.36739838e-02f,-1.07369795e-01f,-1.87576234e-01f,
-1.84999838e-01f,+1.48037836e-01f,-2.92446136e-01f,+2.23788410e-01f,-2.22186789e-01f,
-6.52115047e-02f,-6.34283125e-02f,-1.77862674e-01f,-1.27645105e-01f,-7.37158954e-02f,
+5.67068160e-03f,-1.07888132e-02f,-1.75892606e-01f,+8.73553902e-02f,+5.69036305e-02f,
-1.47533938e-01f,-1.35317802e-01f,-7.54258409e-02f,+7.48191923e-02f,-3.92462224e-01f,
-1.37357652e-01f,-4.80784737e-02f,-3.40833932e-01f,+4.96447645e-02f,-6.73833638e-02f,
+8.87792408e-02f,-6.48427159e-02f,-9.97619182e-02f,+7.43024349e-02f,-1.24122307e-01f,
-3.44072282e-03f,-8.11428875e-02f,-4.72350419e-02f,+5.29644787e-02f,-6.50929809e-02f,
-3.32418531e-02f,-1.02116257e-01f,+4.86939549e-02f,+1.75856590e-01f,-2.23647431e-01f,
-2.04499260e-01f,-9.10253674e-02f,-6.81588352e-02f,+5.67830503e-02f,+6.34604394e-02f,
+1.20506972e-01f,+1.75942898e-01f,-1.57107174e-01f,+1.58007920e-01f,-2.38816291e-02f,
-7.95002282e-03f,+4.41297889e-04f,-6.25342131e-04f,-7.43744522e-02f,+5.36100268e-02f,
+1.12636089e-01f,-1.89126492e-01f,+1.69451535e-03f,-1.87428832e-01f,-1.95733696e-01f,
-1.43718854e-01f,-2.06188962e-01f,+8.54033232e-02f,+1.23116642e-01f,-1.53365582e-01f,
-2.71340162e-02f,+2.02882111e-01f,-6.17029667e-02f,-1.92034751e-01f,+5.56605756e-02f,
-1.13678619e-01f,+1.18451178e-01f,-1.54196978e-01f,+9.63186026e-02f,-1.92084759e-01f,
+2.10950017e-01f,-1.67597055e-01f,+3.94820869e-02f,+2.05815881e-01f,+2.00817227e-01f,
+9.67498124e-02f,+7.90054202e-02f,+9.88315344e-02f,+1.79444611e-01f,-1.70438275e-01f,
-7.22499043e-02f,-1.84581339e-01f,+1.50218606e-01f,-4.04499322e-02f,+2.03663945e-01f,
-4.03172672e-02f,+1.74286574e-01f,-2.10331827e-02f,-4.96572405e-02f,+1.45858973e-01f,
-2.02874616e-01f,-8.80267173e-02f,-1.01842701e-01f,-9.58939642e-02f,-9.81095135e-02f,
+1.12711698e-01f,-2.88100392e-02f,+1.00330740e-01f,+7.66957998e-02f,-1.90293193e-02f,
+2.22879648e-03f,-5.16446084e-02f,+1.33481264e-01f,+1.05504394e-01f,+4.22215462e-02f,
-1.01069659e-02f,-4.39351946e-02f,+1.05305612e-01f,-7.47472048e-03f,-2.98743546e-02f,
-6.90854788e-02f,+2.14472860e-01f,+8.83511901e-02f,+1.80899799e-02f,+2.29962111e-01f,
-1.96184143e-01f,-4.69439924e-02f,+1.27023071e-01f,-8.21307302e-02f,-6.93360120e-02f,
-1.58260390e-01f,+1.82360321e-01f,-1.47216409e-01f,-8.71884823e-02f,-1.90394774e-01f,
+2.14531630e-01f,+2.23291159e-01f,-1.99299842e-01f,+2.80991495e-02f,-4.10883129e-03f,
-3.50897759e-02f,+1.73483163e-01f,-3.67447138e-02f,-1.53669983e-01f,-3.43164802e-02f,
+4.46431935e-02f,+3.14351022e-02f,-2.29465455e-01f,-1.11653119e-01f,-1.40751809e-01f,
+7.10976720e-02f,+1.60657644e-01f,-1.77266479e-01f,-3.92636061e-02f,-2.42879987e-02f,
+1.70086324e-03f,+2.57746279e-02f,-1.48491696e-01f,+8.36536102e-03f,+1.72318310e-01f,
+3.56919169e-02f,+1.92452282e-01f,-1.34543821e-01f,+2.55461484e-01f,-1.05267107e-01f,
-4.64406759e-02f,-1.00685589e-01f,-2.14159489e-04f,-8.54267254e-02f,-4.02995646e-02f,
+1.23739943e-01f,+3.83597538e-02f,-5.38616031e-02f,+3.22798282e-01f,+1.27122179e-01f,
-1.06274620e-01f,+7.53240511e-02f,+2.34628916e-02f,-9.54532623e-02f,-2.43806869e-01f,
+4.55487296e-02f,-2.27459177e-01f,+3.00824940e-01f,+2.23167524e-01f,-6.84655830e-02f,
+2.98844278e-03f,-1.40384808e-01f,+1.07644901e-01f,+6.42576590e-02f,-1.04848266e-01f,
+9.59928557e-02f,-3.70102264e-02f,-4.05588746e-02f,-1.47239208e-01f,-2.30221897e-01f,
-2.22743787e-02f,+1.25205547e-01f,+1.40106827e-01f,-6.37758896e-02f,-8.15998092e-02f,
-8.26972425e-02f,-1.79053470e-01f,+2.02855170e-02f,+2.22113132e-01f,+3.51005197e-02f,
+1.19949616e-01f,-6.94138110e-02f,-3.28385681e-02f,-6.23090416e-02f,-2.27447912e-01f,
+3.51927765e-02f,-1.09385019e-02f,-1.29382819e-01f,+8.03435668e-02f,-3.26358550e-03f,
-3.08406413e-01f,-1.09635636e-01f,-4.66601327e-02f,+1.95046887e-01f,-7.37462789e-02f,
-1.42697319e-02f,+2.92182744e-01f,}; 
k2c_tensor dense_4_kernel = {&dense_4_kernel_array[0],2,3072,{48,64, 1, 1, 1}}; 
float dense_4_bias_array[64] = {
-1.94287851e-01f,-1.99391082e-01f,+0.00000000e+00f,+0.00000000e+00f,+0.00000000e+00f,
-1.72286347e-01f,+0.00000000e+00f,+0.00000000e+00f,-1.85748041e-01f,+0.00000000e+00f,
+1.80082962e-01f,+1.82231337e-01f,-1.92606729e-03f,+1.77451476e-01f,-1.71556830e-01f,
-1.71131298e-01f,+3.23614597e-01f,+5.46902180e-01f,+4.06293660e-01f,+0.00000000e+00f,
+0.00000000e+00f,+1.84856802e-01f,-1.84095144e-01f,+1.60242230e-01f,-1.91851422e-01f,
-1.16312772e-01f,-2.06550762e-01f,+0.00000000e+00f,-1.85476094e-01f,+1.83859900e-01f,
+5.05043209e-01f,+0.00000000e+00f,+5.36215723e-01f,-1.89416856e-01f,+4.88460153e-01f,
+5.61284781e-01f,+0.00000000e+00f,+1.89294323e-01f,+0.00000000e+00f,+0.00000000e+00f,
+1.57012478e-01f,+1.90624103e-01f,-1.91429764e-01f,+0.00000000e+00f,+0.00000000e+00f,
+0.00000000e+00f,+0.00000000e+00f,-3.12766433e-03f,+0.00000000e+00f,+0.00000000e+00f,
+0.00000000e+00f,+1.97034627e-01f,+1.84632123e-01f,+1.76104665e-01f,+0.00000000e+00f,
-8.70864186e-03f,-1.86094895e-01f,+1.75629482e-01f,+2.97375619e-01f,-1.95205629e-01f,
-1.84683695e-01f,+3.02485079e-01f,+1.91010803e-01f,-1.89319745e-01f,}; 
k2c_tensor dense_4_bias = {&dense_4_bias_array[0],1,64,{64, 1, 1, 1, 1}}; 
float dense_4_fwork[3120] = {0}; 

 
float dense_5_kernel_array[64] = {
+1.66860849e-01f,+2.14881554e-01f,+1.36631608e-01f,+1.43493891e-01f,+7.11861551e-02f,
+6.91290438e-01f,+1.71377063e-01f,+1.71875417e-01f,+3.88633877e-01f,+1.11072570e-01f,
-2.36971632e-01f,-2.07716718e-01f,+8.43951479e-02f,-2.87995368e-01f,+8.57951105e-01f,
+7.80599654e-01f,+1.22290063e+00f,-1.33833714e+01f,-7.30660629e+00f,-2.72362292e-01f,
+1.20984107e-01f,-3.29981953e-01f,+3.48453760e-01f,-1.50604583e-02f,+2.50651330e-01f,
-3.65486145e+00f,-4.08551143e-03f,-2.85948515e-02f,+3.84996504e-01f,-3.50528091e-01f,
-1.35199862e+01f,+3.09263766e-02f,-1.28976431e+01f,+8.09381008e-01f,-1.26930437e+01f,
-1.29985313e+01f,-9.40586329e-02f,-5.46079688e-02f,-4.84126806e-02f,-4.19136584e-02f,
+1.34837599e-02f,-3.76897097e-01f,+2.52456278e-01f,-7.26944953e-02f,+9.82173085e-02f,
+2.93068945e-01f,+1.59429103e-01f,-1.32567644e+00f,-1.71376318e-01f,-2.86704987e-01f,
+2.05899239e-01f,-3.69706392e-01f,-1.72504187e-01f,-1.34990081e-01f,+6.15556836e-02f,
+1.27487227e-01f,+3.92695248e-01f,-1.67215690e-01f,+1.40170240e+00f,+1.71141967e-01f,
+3.22891712e-01f,+1.45707464e+00f,-1.36197701e-01f,+8.86981130e-01f,}; 
k2c_tensor dense_5_kernel = {&dense_5_kernel_array[0],2,64,{64, 1, 1, 1, 1}}; 
float dense_5_bias_array[1] = {
-1.78308293e-01f,}; 
k2c_tensor dense_5_bias = {&dense_5_bias_array[0],1,1,{1,1,1,1,1}}; 
float dense_5_fwork[128] = {0}; 

 
k2c_conv2d(&conv2d_2_output,conv2d_2_input_input,&conv2d_2_kernel, 
	&conv2d_2_bias,conv2d_2_stride,conv2d_2_dilation,k2c_relu); 
k2c_pad2d(&max_pooling2d_2_padded_input,&conv2d_2_output,max_pooling2d_2_fill, 
	max_pooling2d_2_pad); 
k2c_maxpool2d(&max_pooling2d_2_output,&max_pooling2d_2_padded_input,max_pooling2d_2_pool_size, 
	max_pooling2d_2_stride); 
k2c_flatten(&flatten_2_output,&max_pooling2d_2_output); 
k2c_dense(&dense_4_output,&flatten_2_output,&dense_4_kernel, 
	&dense_4_bias,k2c_relu,dense_4_fwork); 
k2c_dense(dense_5_output,&dense_4_output,&dense_5_kernel, 
	&dense_5_bias,k2c_sigmoid,dense_5_fwork); 

 } 

 void CNN_ACK_RTTModel:: keras2c_model_Round0000001(const k2c_tensor* conv2d_8_input_input, k2c_tensor* dense_17_output)
 {
size_t conv2d_8_stride[2] = {1,1}; 
size_t conv2d_8_dilation[2] = {1,1}; 
float conv2d_8_output_array[96] = {0}; 
k2c_tensor conv2d_8_output = {&conv2d_8_output_array[0],3,96,{ 3, 2,16, 1, 1}}; 
float conv2d_8_kernel_array[16] = {
+5.72499335e-01f,-2.84187585e-01f,+1.16854489e+00f,+1.44844007e+00f,+5.11080384e-01f,
+2.75028437e-01f,-2.35942602e-02f,-2.32067674e-01f,+4.69403058e-01f,+9.40914750e-01f,
+1.15775216e+00f,+8.54517519e-01f,-3.42472792e-02f,+1.42826807e+00f,-5.22140503e-01f,
-1.31701052e-01f,}; 
k2c_tensor conv2d_8_kernel = {&conv2d_8_kernel_array[0],4,16,{ 1, 1, 1,16, 1}}; 
float conv2d_8_bias_array[16] = {
-4.33150381e-01f,+0.00000000e+00f,-3.68626028e-01f,-3.82093102e-01f,+3.16830695e-01f,
+3.49850982e-01f,+0.00000000e+00f,+0.00000000e+00f,-3.95794958e-01f,-3.78669143e-01f,
-5.03598899e-02f,-3.81695330e-01f,+0.00000000e+00f,+3.17363530e-01f,+0.00000000e+00f,
+0.00000000e+00f,}; 
k2c_tensor conv2d_8_bias = {&conv2d_8_bias_array[0],1,16,{16, 1, 1, 1, 1}}; 

 
size_t max_pooling2d_8_stride[2] = {1,2}; 
size_t max_pooling2d_8_pool_size[2] = {1,2}; 
float max_pooling2d_8_output_array[48] = {0}; 
k2c_tensor max_pooling2d_8_output = {&max_pooling2d_8_output_array[0],3,48,{ 3, 1,16, 1, 1}}; 
float max_pooling2d_8_padded_input_array[96] = {0}; 
k2c_tensor max_pooling2d_8_padded_input = {&max_pooling2d_8_padded_input_array[0],3,96,{ 3, 2,16, 1, 1}}; 
size_t max_pooling2d_8_pad[4] = {0,0,0,0}; 
float max_pooling2d_8_fill = -HUGE_VALF; 


float flatten_8_output_array[48] = {0}; 
k2c_tensor flatten_8_output = {&flatten_8_output_array[0],1,48,{48, 1, 1, 1, 1}}; 
float dense_16_output_array[64] = {0}; 
k2c_tensor dense_16_output = {&dense_16_output_array[0],1,64,{64, 1, 1, 1, 1}}; 
float dense_16_kernel_array[3072] = {
-1.74986124e-01f,+3.96297649e-02f,+4.39737067e-02f,-2.99165636e-01f,+1.77241430e-01f,
-5.19509315e-02f,-6.11254126e-02f,+5.97798340e-02f,+2.03109682e-01f,-1.79818179e-02f,
+1.75550997e-01f,-1.43200293e-01f,+1.20146401e-01f,-8.20459872e-02f,+1.04273669e-02f,
+2.54368812e-01f,-8.66186619e-02f,+1.58177949e-02f,-1.14368074e-01f,+1.19753569e-01f,
-1.84283070e-02f,-1.51950121e-02f,+1.23692408e-01f,+1.06563121e-02f,-3.29777867e-01f,
-1.19155250e-01f,-1.34834158e-03f,-5.10610864e-02f,+1.62372842e-01f,+2.45772347e-01f,
-2.11799681e-01f,+1.67331040e-01f,+1.65835559e-01f,+7.93365836e-02f,+1.86385795e-01f,
-1.19382299e-01f,+5.06476164e-02f,+1.61242485e-01f,-3.86948884e-02f,-9.35996175e-02f,
-6.36228397e-02f,+5.86397946e-03f,+5.08183613e-02f,-1.62235513e-01f,-1.87837258e-01f,
+2.31016815e-01f,+1.98418796e-02f,-3.17995772e-02f,+5.93169630e-02f,+1.26770288e-01f,
-2.99418211e-01f,-4.60784510e-02f,+2.44550407e-02f,-2.99314708e-02f,-1.36265367e-01f,
-5.79020321e-01f,-1.04805112e-01f,+1.73478693e-01f,+8.84435773e-02f,+3.36770006e-02f,
+2.02425376e-01f,-2.24999979e-01f,-1.86752662e-01f,+9.35359001e-02f,-2.09329337e-01f,
+2.09425747e-01f,-9.35450941e-02f,+2.00913131e-01f,+1.90179050e-01f,+1.52782947e-02f,
-8.71631503e-02f,-4.87421453e-02f,+4.65324521e-02f,+7.71313906e-02f,+8.48745406e-02f,
+1.51244223e-01f,+1.76479399e-01f,-1.50495127e-01f,-1.52503788e-01f,+4.78455424e-03f,
+3.94746661e-03f,+1.55588418e-01f,-1.87407702e-01f,-1.64923936e-01f,-8.17965418e-02f,
-1.49623185e-01f,+1.13087565e-01f,+1.76801562e-01f,+1.02856636e-01f,+9.65971649e-02f,
-2.15837851e-01f,+1.02616310e-01f,+2.27326214e-01f,-2.76130438e-03f,-1.23450011e-01f,
+2.02696323e-01f,+3.61259878e-02f,-1.69624805e-01f,-8.02645981e-02f,-1.96442962e-01f,
-1.70394450e-01f,+9.41631496e-02f,+1.06451333e-01f,-9.04688537e-02f,-4.10984457e-02f,
-3.57019156e-02f,-8.68587643e-02f,-4.36788648e-02f,-7.06802160e-02f,-1.80683032e-01f,
-5.19562811e-02f,+2.86863148e-02f,-1.91247731e-01f,-6.59105182e-02f,-1.75090134e-03f,
-1.42265886e-01f,+1.28540993e-02f,-6.12645298e-02f,-1.45680398e-01f,-3.93038839e-02f,
-1.84757590e-01f,+8.45053196e-02f,-1.88516080e-03f,-1.69322193e-01f,+1.72240555e-01f,
+4.06597853e-02f,-1.30487204e-01f,-1.28515929e-01f,+1.09258100e-01f,+1.93143561e-01f,
-2.28196848e-02f,-1.02668256e-01f,-1.80686027e-01f,-2.28407040e-01f,-7.03547448e-02f,
-1.46949634e-01f,-1.39458761e-01f,-7.59531453e-04f,-1.92351013e-01f,-2.11333528e-01f,
+1.22789472e-01f,+1.90709785e-01f,+7.14126602e-02f,+1.77563936e-01f,-5.78080267e-02f,
-3.59499231e-02f,+2.93709040e-02f,+7.39033520e-02f,+1.22610636e-01f,+1.34373069e-01f,
+1.84427842e-01f,+1.31523252e-01f,+2.14468941e-01f,+6.27120435e-02f,-1.77387938e-01f,
-6.36333227e-02f,-7.81889036e-02f,-9.42991078e-02f,-5.08001111e-02f,+1.13082141e-01f,
-1.80428624e-02f,-4.12307680e-02f,+3.88140902e-02f,-3.46134305e-02f,+2.07728535e-01f,
-1.72991276e-01f,+1.47619039e-01f,+1.46780401e-01f,+1.37904316e-01f,+1.60552919e-01f,
+2.20495164e-01f,+2.04042852e-01f,+1.44642130e-01f,-2.87410617e-03f,-2.24779800e-01f,
+1.54012308e-01f,+1.09393477e-01f,-8.51340145e-02f,-1.66475683e-01f,+1.22462273e-01f,
+6.92255236e-03f,-1.42627537e-01f,-2.78010070e-02f,-1.59233153e-01f,-1.60511091e-01f,
+8.22453499e-02f,-4.36758250e-02f,+1.18252084e-01f,+1.70471296e-01f,-1.60531998e-01f,
-9.76622030e-02f,+1.02004379e-01f,-1.62364125e-01f,+1.60878912e-01f,+1.10213324e-01f,
-1.14016309e-01f,+1.98433042e-01f,+1.39907300e-01f,-1.75418764e-01f,-6.30763099e-02f,
-1.60937101e-01f,+7.39352405e-02f,-2.09718645e-01f,-2.01594532e-01f,-1.63768664e-01f,
-1.55653015e-01f,+2.40216758e-02f,-2.32492760e-01f,-1.96841985e-01f,-9.90037993e-02f,
+5.09008765e-04f,+8.07296336e-02f,+2.91660591e-03f,+1.98390424e-01f,+1.55845299e-01f,
-1.83744922e-01f,-6.38463050e-02f,+2.20540226e-01f,+1.43524826e-01f,+7.22790649e-03f,
+1.62555978e-01f,-5.95933497e-02f,-8.21363181e-02f,-4.55902703e-02f,+7.52046704e-03f,
-1.78652346e-01f,+1.38772473e-01f,+1.21413469e-02f,+2.12493837e-02f,-7.32409880e-02f,
+5.54706752e-02f,+1.85913891e-01f,-7.79230222e-02f,-2.11031586e-02f,-1.04622565e-01f,
-1.13703117e-01f,-5.10775521e-02f,+1.79520428e-01f,-1.35990947e-01f,+1.07420757e-01f,
+1.55647948e-01f,+1.21816248e-02f,+1.41185001e-01f,+1.82742685e-01f,+1.76229794e-02f,
+2.04059511e-01f,+7.16803074e-02f,+2.58540034e-01f,+1.51271224e-01f,+2.35006511e-02f,
+4.11314964e-02f,-4.55415361e-02f,-7.04806149e-02f,-1.71645284e-01f,+6.65757656e-02f,
-4.59266938e-02f,+1.58253789e-01f,-1.72429755e-01f,-1.53257281e-01f,+1.81504652e-01f,
-1.92654714e-01f,-1.95473447e-01f,+3.32818627e-02f,+3.21723446e-02f,+1.43363357e-01f,
+1.75170973e-01f,+1.41510069e-02f,+1.52807802e-01f,-7.85747096e-02f,+1.20482847e-01f,
-2.75144309e-01f,-2.26387337e-01f,-2.00814456e-01f,-1.92140773e-01f,-6.68960363e-02f,
+8.05783272e-02f,+1.20123848e-01f,+4.99792993e-02f,-9.77492779e-02f,-2.19236761e-01f,
-3.65423150e-02f,+3.03043574e-01f,+3.35177898e-01f,-1.65673599e-01f,-2.05559254e-01f,
-2.88166016e-01f,+2.88730085e-01f,+1.16334505e-01f,+2.06645429e-02f,-1.35949820e-01f,
+1.33784175e-01f,-2.14115039e-01f,+1.08089715e-01f,-3.04537445e-01f,+4.30367589e-02f,
-2.18453541e-01f,+1.94345340e-01f,-1.38775110e-01f,-2.33978629e-01f,-1.56271204e-01f,
+2.41464719e-01f,+1.43714041e-01f,-1.04356855e-01f,+3.36815901e-02f,+5.09510487e-02f,
+2.14171261e-01f,-1.09696195e-01f,+6.00797571e-02f,-1.91123560e-01f,+1.01968646e-01f,
-1.10812515e-01f,+2.82333314e-01f,+7.57930577e-02f,-1.61823034e-02f,-2.10224077e-01f,
-3.17462534e-01f,-1.70654982e-01f,-2.09547192e-01f,-2.41930395e-01f,+5.56925312e-02f,
+1.11798532e-01f,+1.75823018e-01f,-9.66963693e-02f,+2.35982463e-01f,-1.27406761e-01f,
+8.92660618e-02f,+1.19925022e-01f,+8.83862749e-02f,-1.45996213e-01f,+2.04665810e-01f,
+2.19502300e-01f,+2.00567901e-01f,-3.45486291e-02f,+1.49848774e-01f,-2.56348461e-01f,
-2.64786072e-02f,-1.32902399e-01f,-3.32694679e-01f,+2.43469775e-02f,+1.81123614e-01f,
-7.25429282e-02f,-1.64812341e-01f,+2.52724111e-01f,-1.14796355e-01f,+2.97311336e-01f,
+2.83771753e-03f,+2.64528878e-02f,-2.99450248e-01f,+1.02133393e-01f,-2.90880147e-02f,
+1.76184773e-01f,-2.11338043e-01f,-6.46426231e-02f,+1.30072832e-02f,+2.89201010e-02f,
-1.30546346e-01f,+6.16215765e-02f,-1.19030610e-01f,-1.32034630e-01f,+1.13333732e-01f,
+3.48210216e-01f,-7.38855898e-02f,-1.47255421e-01f,-1.11390501e-02f,+2.97085375e-01f,
-8.46752524e-03f,+2.86357105e-03f,+1.61600649e-01f,-2.18785703e-01f,-1.43080547e-01f,
+2.04348043e-01f,-5.85831739e-02f,-9.76367295e-02f,-6.56639040e-02f,+1.05086803e-01f,
+2.93423265e-01f,-2.66188681e-02f,-4.48776782e-03f,+1.05736315e-01f,-9.90065262e-02f,
-2.80844003e-01f,-4.08203155e-02f,+1.73831180e-01f,-2.38636732e-01f,+1.72881514e-01f,
-5.39470762e-02f,-2.20597401e-01f,-4.77641821e-02f,-1.46380007e-01f,+1.35701954e-01f,
+6.10189140e-02f,-1.47818848e-01f,-7.90797174e-03f,-1.86703399e-01f,-8.95883441e-02f,
+8.75281394e-02f,-3.15186977e-02f,-1.81536317e-01f,+1.53492391e-01f,+2.15302706e-02f,
-6.17226064e-02f,+1.09897852e-02f,+1.96166664e-01f,-1.84235334e-01f,-1.44972280e-01f,
+1.96205288e-01f,+2.59473622e-02f,+2.15247840e-01f,-1.46413609e-01f,+8.42551589e-02f,
-2.08019733e-01f,+1.06842369e-01f,+1.19928390e-01f,-1.19537264e-02f,-5.01457304e-02f,
-4.53085899e-02f,+2.13554323e-01f,+2.29718179e-01f,-1.54607818e-01f,-3.69449109e-02f,
-1.81200758e-01f,-3.57955694e-02f,-1.11922137e-01f,+1.41334116e-01f,-2.03888431e-01f,
-1.05483145e-01f,+1.72252357e-01f,-1.55437112e-01f,-3.90271395e-02f,-5.97585291e-02f,
-1.11637115e-01f,-1.76060989e-01f,-5.67642301e-02f,+2.22236454e-01f,+2.57691741e-02f,
+5.67589402e-02f,+2.25995034e-01f,+5.30053079e-02f,+4.73931432e-02f,-1.57097906e-01f,
+2.27020502e-01f,-1.67827114e-01f,+1.19501710e-01f,+2.53818333e-02f,-2.10947186e-01f,
-2.34023631e-02f,+1.99079156e-01f,-1.13125905e-01f,-2.99697071e-02f,-1.79727256e-01f,
+3.60811353e-02f,-9.55237895e-02f,+7.39493668e-02f,+3.10019553e-02f,+1.62965268e-01f,
-6.02048486e-02f,-5.34853041e-02f,+1.40440702e-01f,+2.24514902e-02f,-2.22367629e-01f,
+1.06533110e-01f,+2.12311476e-01f,+1.10902965e-01f,+4.59084213e-02f,-5.97842932e-02f,
+2.18566239e-01f,-3.32508385e-02f,+5.64739108e-02f,-3.02778035e-02f,-2.47019231e-02f,
+7.19749928e-02f,-2.54131854e-02f,-1.31290719e-01f,+1.81989431e-01f,+2.05189973e-01f,
+1.02566779e-02f,-1.06465347e-01f,+7.13816583e-02f,-7.61767924e-02f,+5.29933572e-02f,
+1.79430366e-01f,+1.47374690e-01f,-1.73708364e-01f,-1.80514053e-01f,-1.75811738e-01f,
+9.44198072e-02f,+6.69600368e-02f,+1.42204314e-02f,+8.85590613e-02f,+2.17092216e-01f,
-1.03818208e-01f,-1.88053787e-01f,-1.70696527e-01f,-1.13742024e-01f,-1.53089166e-02f,
+1.02040321e-01f,-1.44721031e-01f,+5.36761880e-02f,-6.84517473e-02f,+2.86637545e-02f,
-5.50622195e-02f,-4.67608422e-02f,+1.60252005e-02f,-2.86697596e-02f,+1.38939172e-01f,
-1.55722797e-01f,+1.80226564e-02f,+5.19911051e-02f,+1.36238545e-01f,+1.08909637e-01f,
+1.56815201e-01f,-7.86953568e-02f,+1.64712355e-01f,-5.83830662e-02f,+1.71881482e-01f,
-3.95629078e-01f,+2.22582653e-01f,-1.04165196e-01f,+1.08628482e-01f,-4.61802661e-01f,
-2.21803784e-03f,-1.43774211e+00f,-1.57889456e-01f,+1.72667444e-01f,-2.20949531e-01f,
+1.25258386e-01f,+4.40452456e-01f,+3.20533097e-01f,-6.82069063e-02f,+3.20236534e-01f,
+7.97942579e-02f,+2.45477855e-02f,-3.73009220e-02f,+1.81557953e-01f,-4.55949813e-01f,
-8.88515413e-02f,-3.81015629e-01f,-5.28223574e-01f,-6.93052351e-01f,+4.55091387e-01f,
+3.18435878e-01f,+3.76343489e-01f,-3.87429029e-01f,+1.13333255e-01f,-3.45472693e-02f,
-1.25763625e-01f,+5.13992488e-01f,-1.85546488e-01f,-2.03067809e-01f,+5.18745065e-01f,
-2.28382200e-02f,-7.97362775e-02f,-6.57246292e-01f,+2.27517277e-01f,+5.07786751e-01f,
-1.88070297e-01f,-1.23524284e+00f,-3.57100219e-02f,-3.83958519e-02f,+2.74885949e-02f,
-1.65935859e-01f,+1.50116235e-01f,-1.88345224e-01f,+5.35825849e-01f,+3.64469558e-01f,
+1.55389547e-01f,-1.18717946e-01f,-1.58950901e+00f,+4.56411242e-02f,-1.13528080e-01f,
+5.53518832e-02f,+3.82323414e-01f,+4.38130856e-01f,-1.42277852e-01f,+1.69597194e-01f,
+2.84324676e-01f,+1.91925332e-01f,-9.13151633e-03f,-2.88562831e-02f,+1.14206441e-01f,
-8.59425515e-02f,-4.05935794e-02f,+2.15103686e-01f,-1.76187128e-01f,+4.28249538e-02f,
+1.99469298e-01f,-1.09273195e-02f,-1.74399763e-01f,+9.45798755e-02f,-1.99230686e-01f,
+1.87258556e-01f,+1.87552765e-01f,+1.05470330e-01f,-1.37127817e-01f,+1.58038288e-01f,
+1.56421691e-01f,+1.40347362e-01f,-1.68317974e-01f,+1.72951475e-01f,-1.51992351e-01f,
+2.05557093e-01f,+9.25138369e-02f,+4.98437509e-02f,+1.29363850e-01f,+1.59637898e-01f,
+1.26264900e-01f,+1.89505786e-01f,+2.68066432e-02f,+2.28315324e-01f,+2.00132132e-01f,
+1.68074057e-01f,-1.24113314e-01f,+7.74934888e-04f,+2.10292593e-01f,+6.84801042e-02f,
-2.42447853e-03f,-5.54733165e-02f,-2.02978790e-01f,-8.57817158e-02f,+6.53053820e-03f,
-8.98737535e-02f,+1.74542904e-01f,-1.61895901e-02f,+4.89578545e-02f,-9.28678438e-02f,
-2.59813964e-02f,+1.02739431e-01f,+2.16733828e-01f,-6.34428263e-02f,+2.09063590e-02f,
-1.55592173e-01f,-7.37676769e-02f,+8.04916322e-02f,-2.07557902e-01f,+5.27571142e-02f,
+2.35961750e-01f,+1.51437342e-01f,+1.57641172e-02f,+1.59388363e-01f,+2.33748704e-01f,
-1.54031783e-01f,-8.49569514e-02f,+1.90563112e-01f,+2.04429373e-01f,-2.65016463e-02f,
-9.70720053e-02f,-5.12703061e-02f,+2.57580042e-01f,-3.96084934e-02f,+2.42413938e-01f,
-1.69604063e-01f,-1.87523514e-02f,+2.65683323e-01f,-1.26108184e-01f,-7.88149536e-02f,
-1.74079873e-02f,+5.80420494e-02f,-1.53635338e-01f,-2.31312603e-01f,+9.76898372e-02f,
+1.69177409e-02f,+1.22397184e-01f,-4.66164500e-02f,-2.05051690e-01f,+1.89679891e-01f,
-7.58301094e-03f,+2.02426136e-01f,-2.62446672e-01f,+8.69675204e-02f,+1.47361130e-01f,
+2.52914131e-01f,+3.03235613e-02f,+1.49405152e-02f,-1.44540250e-01f,+1.29462346e-01f,
+1.26266569e-01f,-2.13376358e-01f,-2.78197736e-01f,+1.78046376e-02f,+1.23838186e-02f,
+3.40255976e-01f,-1.00136504e-01f,+1.29815340e-01f,-2.86079943e-03f,+3.35360289e-01f,
+1.84803456e-01f,-2.91264504e-02f,-2.27880284e-01f,+3.52094769e-02f,-8.09898078e-02f,
+2.58573383e-01f,-9.29807946e-02f,-1.17417492e-01f,-8.60744417e-02f,-8.34929794e-02f,
+2.52757035e-02f,+1.22785181e-01f,+8.92638564e-02f,+1.25618339e-01f,+6.20864294e-02f,
+6.82765767e-02f,+1.31913394e-01f,+1.71030700e-01f,-2.38089651e-01f,-1.74158424e-01f,
-1.35588363e-01f,+9.12506580e-02f,-1.34318218e-01f,+1.95781976e-01f,+2.17863858e-01f,
+2.11622119e-02f,-3.23865004e-02f,+1.68115556e-01f,-1.16455317e-01f,-1.13852002e-01f,
+1.10906005e-01f,+1.70938045e-01f,+2.15086013e-01f,-1.55973718e-01f,-1.40933599e-02f,
-4.48566377e-02f,+1.35749921e-01f,-1.55841991e-01f,-1.18115619e-01f,+5.06190099e-02f,
+1.21718913e-01f,+4.70413044e-02f,+1.69454634e-01f,-9.02287960e-02f,+1.46858096e-01f,
-4.02171016e-02f,+5.22766672e-02f,-9.71971899e-02f,-7.55514428e-02f,+4.48388271e-02f,
+1.24909393e-01f,-1.14983372e-01f,-1.29556209e-01f,-8.39041620e-02f,-7.29770511e-02f,
-1.85310140e-01f,+2.33441591e-01f,-2.04771534e-01f,-1.91620335e-01f,-9.43773836e-02f,
+1.54901713e-01f,+1.73490286e-01f,-1.27044976e-01f,+6.26387894e-02f,-1.23399518e-01f,
-7.80943036e-02f,+1.29165664e-01f,+1.68315366e-01f,-2.30969355e-01f,+1.48510896e-02f,
-4.22664471e-02f,+2.35400796e-01f,+1.97889924e-01f,+1.50178164e-01f,+1.19314298e-01f,
-2.23416224e-01f,-1.47134304e-01f,+1.00907415e-01f,+7.93808848e-02f,+1.92597926e-01f,
-6.75102174e-02f,-1.69565260e-01f,-1.27362693e-02f,+8.72553587e-02f,-1.03320673e-01f,
+1.84715420e-01f,+1.19365573e-01f,+8.50165784e-02f,-4.08296436e-02f,+4.91414070e-02f,
+2.63334811e-02f,-2.20392406e-01f,+8.12407732e-02f,-1.14238620e-01f,+2.29644954e-01f,
+1.70143694e-01f,-1.36095464e-01f,-1.13745995e-01f,-1.79873273e-01f,-1.76153809e-01f,
+1.68021083e-01f,-1.47655666e-01f,+2.25803286e-01f,+2.64915228e-02f,+1.10647917e-01f,
-1.73799306e-01f,-1.77778021e-01f,+2.18736231e-02f,-1.36353388e-01f,+3.81673872e-03f,
+1.07569337e-01f,-1.41000584e-01f,+1.41883969e-01f,+1.45332366e-01f,-1.82776630e-01f,
+2.01181859e-01f,-2.47410983e-02f,+2.00722188e-01f,-8.00739378e-02f,+5.33232391e-02f,
-1.81722671e-01f,-9.96272117e-02f,-2.35541612e-02f,-6.09447956e-02f,-6.70816153e-02f,
-2.07732439e-01f,+1.83097064e-01f,+1.19466662e-01f,-1.24083906e-01f,+1.19736254e-01f,
-1.18565917e-01f,+1.65090144e-01f,-1.56416178e-01f,+4.82587516e-03f,-1.58327490e-01f,
-1.81745857e-01f,-1.92388475e-01f,+5.55738807e-03f,+1.78276449e-02f,-1.72879681e-01f,
-4.13417518e-02f,+2.29724109e-01f,+1.68829173e-01f,-7.68167526e-02f,-2.39333808e-02f,
+2.19164521e-01f,-1.97373629e-01f,-1.15842983e-01f,-7.18123838e-02f,-2.12031946e-01f,
+7.99997449e-02f,-1.82335451e-01f,-1.06036305e-01f,-1.30148381e-02f,+2.43167266e-01f,
-1.31936744e-01f,+5.14717586e-02f,+6.53478801e-02f,+1.68324709e-01f,+4.07726243e-02f,
-1.99668080e-01f,-1.11178709e-02f,-1.38263077e-01f,+6.03023469e-02f,+9.58725214e-02f,
+2.04312950e-01f,-1.88981801e-01f,-2.13423043e-01f,+9.76060629e-02f,+1.14345834e-01f,
+3.27994525e-02f,+8.82121176e-02f,+1.43237337e-01f,-1.54500445e-02f,+1.22604594e-01f,
-2.64359899e-02f,+3.23064364e-02f,-1.07962765e-01f,+7.84063414e-02f,+3.05598974e-03f,
-1.54478103e-02f,+1.48979783e-01f,+1.39569521e-01f,+1.26045555e-01f,-2.61450350e-01f,
-2.28485018e-01f,-8.94547999e-02f,-2.37331502e-02f,-1.53916985e-01f,-2.20235556e-01f,
+2.30775774e-03f,+2.92836614e-02f,-1.97885171e-01f,+2.30781674e-01f,-1.85370445e-01f,
+1.04747586e-01f,+3.26557457e-03f,+1.55871883e-01f,-1.35499671e-01f,+1.63883120e-01f,
-4.24406677e-02f,+2.30818093e-02f,+4.28103030e-01f,-2.07840055e-01f,-1.13606550e-01f,
-1.77884072e-01f,+3.85110751e-02f,-4.37166207e-02f,-6.04640394e-02f,+1.15767039e-01f,
+9.02949423e-02f,+1.79982364e-01f,-1.92469597e-01f,-1.73553362e-01f,-4.88945097e-02f,
-1.90156490e-01f,-2.67848074e-02f,-5.80891967e-03f,-1.08616889e-01f,-6.94403052e-03f,
-2.29041874e-01f,+2.18815267e-01f,-1.51976734e-01f,-2.00851485e-01f,-2.29889706e-01f,
-4.20889854e-02f,-3.63093168e-02f,-1.61895245e-01f,+2.06503242e-01f,-1.55284747e-01f,
+8.26819539e-02f,-1.09732576e-01f,+8.18048120e-02f,-1.21455491e-02f,+2.10428834e-02f,
-1.18587770e-01f,+2.11947560e-02f,+5.13193607e-02f,+3.81741226e-02f,+1.61970019e-01f,
+7.34833479e-02f,+7.86268711e-02f,+6.23141229e-02f,-1.31343305e-01f,-9.84203070e-02f,
-1.10902742e-01f,+1.31288290e-01f,+1.87115937e-01f,+2.12704062e-01f,-1.89328462e-01f,
+1.93201721e-01f,-1.20504200e-03f,+4.53640521e-02f,-6.23237789e-02f,-1.68955222e-01f,
-3.41457576e-02f,+1.42444730e-01f,-7.80400485e-02f,-1.18905567e-01f,-1.66044533e-02f,
+2.15171367e-01f,-1.83374807e-01f,+1.03564650e-01f,-1.00400999e-01f,-1.44130856e-01f,
-2.25228593e-01f,+2.84314752e-02f,+1.44792318e-01f,-4.87092584e-02f,+8.82510841e-03f,
+2.20542729e-01f,+2.10877508e-01f,-1.71210781e-01f,-5.42729348e-02f,-2.02333540e-01f,
-5.42096794e-03f,+3.42147052e-03f,-1.11546285e-01f,+1.43690765e-01f,+6.21204674e-02f,
-4.56735194e-02f,+4.75122035e-03f,-6.24051094e-02f,-1.82559922e-01f,-1.55519009e-01f,
-5.65688312e-02f,-1.80831313e-01f,+1.98291421e-01f,+1.66426569e-01f,-2.22341031e-01f,
-2.20265538e-01f,-1.12877190e-01f,+2.14980841e-02f,+1.16807282e-01f,+7.03811347e-02f,
-2.19085440e-01f,+1.17504090e-01f,-1.88448131e-01f,+1.74468637e-01f,-2.37341225e-02f,
-2.00547978e-01f,-1.63475484e-01f,-2.24030077e-01f,+8.48823786e-02f,-1.83190659e-01f,
+3.97302210e-03f,+1.51011974e-01f,+2.30848461e-01f,-9.09525901e-02f,-7.08785951e-02f,
-1.52657211e-01f,+1.25451446e-01f,-5.26315123e-02f,-4.60430235e-02f,-8.46618712e-02f,
-1.72818094e-01f,+1.27415299e-01f,+1.46693945e-01f,+1.44886911e-01f,+5.00465035e-02f,
+1.23152971e-01f,+1.32718086e-01f,+3.45597863e-02f,+1.38156563e-01f,-1.95243105e-01f,
+2.20924377e-01f,-1.18265666e-01f,-2.11082846e-02f,-7.99772590e-02f,-1.44778818e-01f,
-1.30402431e-01f,+1.65306777e-02f,+7.32616782e-02f,+8.99412930e-02f,-7.91358203e-02f,
+1.78300947e-01f,-1.21281207e-01f,+6.32938445e-02f,-5.35295606e-02f,-2.01311171e-01f,
-2.34741375e-01f,+2.16882110e-01f,-3.13626140e-01f,-4.00192626e-02f,+2.76357234e-02f,
+1.75104886e-01f,-6.06898777e-02f,+1.11700922e-01f,-2.67864287e-01f,+2.01513022e-01f,
+1.16884142e-01f,-3.22908670e-01f,-2.61556301e-02f,+7.00675696e-02f,+1.91789389e-01f,
-1.01427674e-01f,+1.09492205e-01f,+8.34743381e-02f,-1.50459468e-01f,-2.48163149e-01f,
-2.24194080e-01f,+7.54192844e-03f,-7.40212202e-02f,-8.35434161e-03f,-2.12568104e-01f,
-4.53561753e-01f,-5.10310456e-02f,-3.83273512e-02f,+2.75217384e-01f,-3.79050314e-01f,
+1.83400363e-01f,+1.34829819e-01f,-2.34284103e-02f,-5.77141754e-02f,-1.44193977e-01f,
+3.54204178e-02f,-5.79120964e-02f,-9.21569765e-03f,-8.68203640e-02f,-6.40527308e-02f,
+5.83355725e-02f,-4.25904058e-02f,+8.16112757e-02f,-2.22729430e-01f,-2.25662559e-01f,
-1.63110554e-01f,+1.97619155e-01f,-1.83499962e-01f,+1.82692081e-01f,+8.82743821e-02f,
+2.08448589e-01f,-1.50185034e-01f,-3.26499045e-02f,+9.69711840e-02f,-5.07963181e-01f,
+1.09360158e-01f,+1.85406208e-01f,-1.10222846e-02f,+2.51677316e-02f,+5.44125177e-02f,
+8.98908675e-02f,-1.70664266e-01f,+1.78537950e-01f,+1.66065007e-01f,-5.08899838e-02f,
+2.52488852e-02f,-1.20255128e-01f,-2.01675922e-01f,+1.23898655e-01f,+6.81683421e-04f,
-7.50119239e-02f,+3.75121534e-02f,-4.54657525e-02f,+1.15445405e-02f,+1.40202254e-01f,
-8.11809152e-02f,+2.28652000e-01f,-1.23065218e-01f,-1.99387535e-01f,+2.52220035e-03f,
+1.82080030e-01f,-3.87716442e-02f,-1.97402805e-01f,+2.14672834e-01f,-9.71943587e-02f,
-4.34204489e-02f,-1.91629887e-01f,+5.45164943e-03f,+6.13543391e-03f,+1.61390454e-02f,
-1.20905295e-01f,+1.14095926e-01f,+1.17716640e-01f,+1.21998131e-01f,-7.55558759e-02f,
-2.09631294e-01f,+1.51704252e-03f,-7.71937072e-02f,-1.64847165e-01f,-1.14641733e-01f,
-8.45837295e-02f,-8.80270451e-02f,-2.45831162e-02f,+1.66492015e-02f,-4.85988259e-02f,
+3.75043750e-02f,+7.61835873e-02f,-1.19484492e-01f,+2.18957633e-01f,-1.82528019e-01f,
-1.80303365e-01f,-4.75185066e-02f,+1.15045667e-01f,+8.67347717e-02f,+1.42510444e-01f,
-1.12216622e-02f,+1.46992266e-01f,-1.07783563e-01f,+6.90315068e-02f,+1.22220039e-01f,
-2.70256251e-02f,+2.06321090e-01f,+1.98162258e-01f,-1.77844182e-01f,-5.51889688e-02f,
+9.76273715e-02f,+3.43940258e-02f,-9.35634002e-02f,+2.05745876e-01f,+1.77527398e-01f,
-1.19727269e-01f,+1.97564125e-01f,-1.61229968e-01f,+1.16354823e-02f,+1.95576444e-01f,
-7.65417218e-02f,+2.50089765e-01f,-1.34043247e-02f,-4.66371328e-02f,+8.78170319e-03f,
+1.11997887e-01f,-1.41194001e-01f,+2.25727051e-01f,-2.12214261e-01f,+1.81460828e-01f,
-1.12243578e-01f,+1.03068441e-01f,-1.50245368e-01f,-1.06479257e-01f,+1.79164603e-01f,
-1.65199459e-01f,-2.41801828e-01f,+3.02046295e-02f,+1.60418987e-01f,+1.59261167e-01f,
-5.56243323e-02f,-1.06066227e-01f,+1.45009518e-01f,+1.81299061e-01f,+1.42154753e-01f,
-1.00970373e-01f,-1.71298355e-01f,+9.60471034e-02f,-1.27569884e-01f,+2.25012004e-01f,
+1.89049631e-01f,-7.99582899e-03f,-1.42302856e-01f,-9.88439471e-02f,-1.17715560e-01f,
-2.30744869e-01f,+2.21029386e-01f,-1.93019778e-01f,-1.84083909e-01f,-4.95679379e-02f,
+2.05515668e-01f,-1.74497426e-01f,-1.74767941e-01f,+1.02479614e-01f,+2.17423141e-01f,
-3.52515280e-03f,-1.66592225e-01f,+2.66057432e-01f,-1.09607369e-01f,-2.15743050e-01f,
+8.87139142e-02f,+1.80604488e-01f,+1.04321970e-03f,-2.18839601e-01f,-1.03068933e-01f,
-9.70899314e-02f,+5.91808856e-02f,-7.38299415e-02f,+3.63422446e-02f,-1.63420424e-01f,
+9.32684243e-02f,+1.29867196e-01f,+2.41136253e-02f,-1.28059965e-02f,+7.76211619e-02f,
+1.26024544e-01f,-1.54029056e-01f,-3.72718722e-02f,+1.26147285e-01f,+9.28095579e-02f,
+4.76568192e-02f,+6.17598630e-02f,-9.97612476e-02f,-1.57580629e-01f,-1.46076441e-01f,
+6.50605261e-02f,-2.76279822e-02f,+9.31093693e-02f,+1.79469809e-01f,+2.16067970e-01f,
+1.58714607e-01f,-3.84200253e-02f,+4.00981158e-02f,+1.29906103e-01f,+1.19969703e-01f,
-9.55303460e-02f,+4.90268804e-02f,+4.59970906e-02f,-2.11817205e-01f,-6.97092712e-02f,
-1.51042789e-01f,+1.53288335e-01f,+3.83187532e-02f,-2.49314420e-02f,+8.83382857e-02f,
-1.72748953e-01f,+1.66817665e-01f,-9.97443646e-02f,-1.39397442e-01f,-9.79446173e-02f,
-8.21005255e-02f,-2.49383897e-02f,-1.10897057e-01f,+1.94644965e-02f,-2.06710652e-01f,
-8.77918005e-02f,-1.13820307e-01f,+9.49077830e-02f,+1.42066218e-02f,-1.57611042e-01f,
-3.30219418e-02f,+1.58882350e-01f,+2.81931460e-02f,+1.23662472e-01f,-2.14282468e-01f,
+1.38335302e-01f,-1.01913989e-01f,-1.18526846e-01f,-2.51682639e-01f,-9.10472721e-02f,
-1.23355575e-01f,-1.44638732e-01f,-6.43881911e-04f,+2.64471233e-01f,-7.16662779e-02f,
-7.97359347e-02f,+1.73246533e-01f,-7.01448619e-02f,-1.03211313e-01f,+3.85633498e-01f,
-2.12892890e-01f,-8.38953704e-02f,+2.31849462e-01f,+1.40356747e-02f,-1.45040408e-01f,
-2.22030059e-01f,-7.55633265e-02f,-3.07184011e-01f,+4.36870754e-02f,-5.91100752e-02f,
+4.49407287e-02f,+1.94893420e-01f,+2.09165752e-01f,+2.07163453e-01f,-1.11989431e-01f,
+3.04813445e-01f,+2.83123791e-01f,-7.20314384e-02f,-2.45711684e-01f,-1.90391362e-01f,
-4.48311158e-02f,-2.40462273e-01f,-3.24064940e-02f,-7.18642771e-02f,+4.74565029e-02f,
-1.41855985e-01f,-7.22408295e-03f,-1.38782054e-01f,-1.84777558e-01f,+5.37327528e-02f,
+2.39317656e-01f,-1.86875194e-01f,-2.98057914e-01f,-4.35857773e-02f,+2.30439782e-01f,
+1.33632720e-02f,+1.06247872e-01f,-1.33069694e-01f,+1.97495408e-02f,+2.29445368e-01f,
+1.65163949e-01f,-7.15450943e-02f,-9.03597623e-02f,-1.79620922e-01f,+2.84250081e-02f,
+1.10125281e-01f,-6.32931739e-02f,-1.27672583e-01f,+6.46104515e-02f,+2.03965176e-02f,
-1.58663243e-01f,-8.82038623e-02f,+4.25594747e-02f,-2.31220156e-01f,-9.40201618e-03f,
+5.31696044e-02f,-1.82367250e-01f,+1.64320037e-01f,-3.18916589e-02f,+2.43127644e-02f,
-5.37442714e-02f,+3.30698133e-01f,-4.37147915e-02f,+4.71188635e-01f,-1.07091680e-01f,
+2.15716124e-01f,+2.61773527e-01f,-4.86572608e-02f,-1.07313491e-01f,-1.46766305e-01f,
-2.94239521e-02f,-3.54336113e-01f,-6.69876933e-02f,-3.66404653e-03f,-7.58706331e-02f,
-9.83504355e-02f,+2.24889278e-01f,+5.30874431e-02f,+2.06503049e-01f,+2.93969095e-01f,
-5.13026603e-02f,+7.52863586e-02f,-3.20201397e-01f,-2.19577879e-01f,+1.12414768e-03f,
-3.01800579e-01f,+5.67669272e-02f,+3.57100964e-02f,-2.55753785e-01f,-1.42803311e-01f,
-1.09148473e-02f,+1.82112288e-02f,-2.14604571e-01f,-6.81193322e-02f,+3.59729439e-01f,
+1.92590296e-01f,-2.99947590e-01f,-1.67034239e-01f,+4.30609912e-01f,-1.69031769e-01f,
-2.14062065e-01f,-5.69223687e-02f,+2.28918716e-02f,+1.12565845e-01f,+1.41482234e-01f,
-1.74813002e-01f,-2.56594449e-01f,+1.96802467e-01f,-6.19622171e-02f,+1.80626273e-01f,
-2.94782519e-02f,+1.43513292e-01f,-1.93626136e-02f,-3.21879953e-01f,+1.08738966e-01f,
-1.81629360e-01f,+1.63097411e-01f,-7.56246522e-02f,-9.74822491e-02f,-3.72127742e-02f,
+1.60881490e-01f,+3.59389782e-02f,+1.77741557e-01f,-2.23846808e-01f,+2.52479017e-02f,
-1.73101515e-01f,+2.77405977e-02f,-2.47287899e-02f,+4.62152362e-02f,-2.53812224e-02f,
+7.81689584e-02f,-2.13725060e-01f,+2.05804288e-01f,+2.27638662e-01f,-1.12913832e-01f,
-2.14616984e-01f,+1.52241886e-01f,+2.07915753e-01f,-6.81395829e-02f,-2.22175702e-01f,
-1.83821350e-01f,-1.21480227e-02f,+4.35738564e-02f,-2.16352001e-01f,+2.60502100e-02f,
+2.92670131e-02f,+1.73207968e-01f,-1.57543182e-01f,+1.02504730e-01f,+1.55628145e-01f,
+1.32134676e-01f,-1.86458170e-01f,+1.21472418e-01f,-2.12410480e-01f,+1.17488950e-01f,
-5.84974885e-03f,-1.00692973e-01f,+1.38785094e-02f,+1.45229101e-01f,-7.98598230e-02f,
-3.29038054e-02f,-3.92047763e-02f,+1.78352088e-01f,-1.65848911e-01f,-2.29427546e-01f,
+6.43754900e-02f,+3.99557054e-02f,-6.71815425e-02f,+2.27586091e-01f,-1.70453221e-01f,
-1.76887959e-02f,+2.30043948e-01f,-4.43132520e-02f,-4.82249111e-02f,+9.65425372e-02f,
-1.31481200e-01f,+2.13928729e-01f,+2.19763577e-01f,+1.66075170e-01f,+9.49591994e-02f,
-1.51178181e-01f,+5.73155582e-02f,+8.62909257e-02f,-1.48982614e-01f,-1.23044364e-01f,
+1.22298777e-01f,-1.45606503e-01f,-1.74267977e-01f,-1.06104061e-01f,+1.06981635e-01f,
+2.18216300e-01f,-1.44705087e-01f,+2.10049808e-01f,-1.45548403e-01f,-5.10313064e-02f,
-3.38451713e-02f,-1.63681030e-01f,-7.83893466e-03f,+7.83564150e-02f,-2.15883270e-01f,
-7.39154965e-02f,+2.19251722e-01f,+1.01803809e-01f,-1.49908036e-01f,+9.37454104e-02f,
-1.06818795e-01f,-2.24349916e-01f,-2.26686150e-01f,+4.14207578e-02f,-1.78454131e-01f,
-1.10352948e-01f,+1.06632620e-01f,-1.19169399e-01f,+1.13388360e-01f,+1.35537893e-01f,
-1.86749846e-02f,+1.01602167e-01f,+2.04107344e-01f,+1.25798881e-01f,+2.14081973e-01f,
-1.19014718e-01f,+1.39339060e-01f,-2.31381297e-01f,+1.27597094e-01f,-1.14217982e-01f,
+1.38668984e-01f,+1.10375732e-02f,-1.72851652e-01f,-1.98188901e-01f,+1.51552051e-01f,
-1.28057748e-01f,-2.31221914e-02f,+1.50210589e-01f,+1.12704188e-01f,-1.06979162e-01f,
+6.15047514e-02f,+4.80510890e-02f,+7.73897171e-02f,+1.91561848e-01f,-8.63553286e-02f,
+1.24415606e-01f,-1.91731811e-01f,+2.20800698e-01f,-1.98957324e-01f,+2.07143188e-01f,
-2.15346456e-01f,+2.16352403e-01f,-6.12993985e-02f,-2.34336510e-01f,-2.18262017e-01f,
+2.51786232e-01f,+1.90394372e-01f,+1.47495747e-01f,-5.19719124e-01f,+5.55490851e-02f,
-1.69625950e+00f,+1.79735154e-01f,-8.01892132e-02f,-2.71773279e-01f,+3.37640978e-02f,
+1.78661421e-01f,+5.28448403e-01f,+1.68996334e-01f,+4.00474638e-01f,+6.26057684e-02f,
-1.21944398e-02f,-2.31380403e-01f,+1.32662117e-01f,-3.30273777e-01f,+1.14336014e-01f,
-4.40646410e-01f,-3.57475281e-01f,-7.49224365e-01f,+3.57148677e-01f,+3.53023231e-01f,
+2.26975128e-01f,-7.35627770e-01f,+3.40102226e-01f,-4.03663814e-02f,+1.72857285e-01f,
+5.10834634e-01f,-2.26806507e-01f,-4.07154709e-02f,+4.72856790e-01f,-1.85084820e-01f,
-1.17570743e-01f,-7.88601875e-01f,+1.77469492e-01f,+3.46696943e-01f,-2.20008641e-02f,
-1.40836680e+00f,-1.95503905e-01f,+1.63507432e-01f,+2.26617694e-01f,-1.30488545e-01f,
+1.73988044e-01f,-1.33884355e-01f,+2.52472132e-01f,+1.83396950e-01f,+1.58576578e-01f,
+5.50132096e-02f,-1.65367067e+00f,+1.22691840e-01f,+2.21921265e-01f,-2.10501090e-01f,
+4.83399957e-01f,+2.64431596e-01f,-5.65247238e-03f,+3.12459599e-02f,+3.65550727e-01f,
-6.51622713e-02f,-2.37881809e-01f,+1.93955004e-01f,-5.02664112e-02f,-9.00936201e-02f,
-6.58283979e-02f,-1.33824453e-01f,-5.87170124e-02f,+7.78302550e-04f,+1.33844241e-01f,
+1.50611132e-01f,-2.17907771e-01f,-1.06173746e-01f,-3.27125899e-02f,-2.07703095e-02f,
-1.89380005e-01f,+8.05615485e-02f,+2.23894298e-01f,+7.19192922e-02f,+1.12038583e-01f,
-1.71026260e-01f,+2.04054117e-02f,-2.50737339e-01f,+1.89675182e-01f,+1.36533365e-01f,
-1.75411850e-01f,+1.49541304e-01f,-4.02069762e-02f,-1.88543294e-02f,+1.45003110e-01f,
-9.64899361e-02f,+3.44955847e-02f,+2.55154371e-02f,-1.05651170e-01f,+1.57604665e-02f,
-1.87966496e-01f,-7.79041946e-02f,+1.28990561e-02f,+1.15161836e-01f,-2.27221698e-02f,
-2.09010497e-01f,-7.46615231e-02f,+4.01840433e-02f,-2.15198725e-01f,+5.13229445e-02f,
+1.00104332e-01f,-8.01647753e-02f,-1.37110069e-01f,+1.80048883e-01f,-1.83784097e-01f,
-2.36868709e-01f,-2.16614202e-01f,+6.27952665e-02f,-1.63188577e-01f,+2.03826368e-01f,
+1.57635733e-01f,+1.55294359e-01f,+8.39358270e-02f,-7.89028406e-02f,+3.14317867e-02f,
-1.44361153e-01f,+1.94396585e-01f,-1.60908028e-01f,+9.79634747e-02f,+5.74478731e-02f,
-1.55214965e-02f,+1.51655525e-01f,+2.39967585e-01f,-1.06682315e-01f,-9.52623934e-02f,
+1.60872430e-01f,+1.29433513e-01f,+2.06724912e-01f,+1.28602181e-02f,-5.36694527e-02f,
-4.45238352e-02f,-5.01948297e-02f,+7.30502754e-02f,-2.60116141e-02f,+4.03630640e-03f,
+5.54457307e-02f,+5.78587800e-02f,+1.54846936e-01f,-2.10151568e-01f,+1.16857529e-01f,
+6.05987906e-02f,-3.51020321e-02f,-1.33132279e-01f,+2.68075883e-01f,+1.19688489e-01f,
+4.12532426e-02f,-2.99232185e-01f,-9.79004353e-02f,-2.54713118e-01f,+1.11961544e-01f,
-2.14881718e-01f,-1.18485458e-01f,+1.66527927e-02f,-1.02499388e-02f,-7.31433183e-02f,
+1.44664705e-01f,-1.07518002e-01f,-1.26070052e-01f,-1.99884728e-01f,+2.85185814e-01f,
+1.05492204e-01f,-2.76482344e-01f,-1.43794671e-01f,+5.25232144e-02f,+1.90316349e-01f,
-7.70442188e-02f,-4.89183255e-02f,-1.36699975e-01f,-2.01038450e-01f,+2.77479172e-01f,
-2.00945631e-01f,-9.04437341e-03f,+7.16553032e-02f,-2.10863918e-01f,+1.28630511e-02f,
-2.30762154e-01f,-3.72180194e-02f,-1.46627784e-01f,+8.01395550e-02f,-2.43555367e-01f,
-1.41935706e-01f,-2.02715904e-01f,-2.90736347e-01f,-2.25342810e-01f,+4.94637340e-03f,
-1.64712086e-01f,+9.73891094e-02f,+2.51601756e-01f,+2.37416923e-02f,-5.21413684e-02f,
+8.43684897e-02f,+9.48519409e-02f,+5.52888736e-02f,-5.84909171e-02f,-1.79286897e-02f,
+3.00975312e-02f,+1.57059297e-01f,+2.10133940e-01f,+9.25088897e-02f,+6.55054748e-02f,
+2.38913223e-01f,+7.64399171e-02f,+2.03619689e-01f,-2.08641514e-02f,-1.74753651e-01f,
-1.69135422e-01f,+5.30760586e-02f,+1.26784354e-01f,+8.61397162e-02f,+3.81611399e-02f,
+1.84934020e-01f,-1.26692414e-01f,+2.32004166e-01f,+1.47406951e-01f,+1.52509706e-02f,
-2.10135564e-01f,+1.16282105e-01f,+2.31533989e-01f,-7.25115240e-02f,-2.50799209e-02f,
+1.70427412e-01f,-1.75901785e-01f,-5.35941720e-02f,+1.63882926e-01f,-5.25847673e-02f,
+6.89546242e-02f,-7.05186874e-02f,-1.52442545e-01f,+4.55807447e-02f,-1.41967058e-01f,
+2.02002004e-01f,-4.29323651e-02f,+1.35802001e-01f,+1.31029308e-01f,+2.13038728e-01f,
-3.22345719e-02f,+3.57583761e-02f,+1.72398716e-01f,-1.29903123e-01f,-7.63055831e-02f,
+4.80223894e-02f,-1.09209329e-01f,+1.10018663e-01f,-1.36885047e-01f,-2.12506443e-01f,
-2.02269018e-01f,+2.57731438e-01f,+2.54878402e-02f,+2.01349080e-01f,+1.58749819e-02f,
+2.26960093e-01f,+1.97326094e-01f,-3.59882116e-02f,+3.48818302e-03f,+2.10212857e-01f,
-1.48990661e-01f,-4.60028648e-03f,-1.43622011e-01f,-1.15998022e-01f,+2.20963657e-01f,
+6.14492595e-03f,-7.80461729e-03f,+4.74885404e-02f,-2.05837891e-01f,+2.30169594e-02f,
-9.07854885e-02f,-1.97143555e-02f,+2.19254524e-01f,+1.38850749e-01f,-8.98947716e-02f,
+2.21897066e-02f,-2.27044463e-01f,-1.78764090e-01f,+3.97440791e-02f,+9.92996991e-02f,
-9.26097929e-02f,-5.33986092e-02f,-1.11284770e-01f,-9.81278867e-02f,-1.86819449e-01f,
-7.42549896e-02f,-7.07736462e-02f,-5.78576922e-02f,+2.21203715e-01f,+3.89856994e-02f,
-1.50572211e-01f,+2.45732963e-02f,+9.27767158e-02f,+2.77314782e-02f,-1.91276103e-01f,
-1.49725318e-01f,+2.24048018e-01f,+1.77438259e-02f,-2.15879858e-01f,-1.25224099e-01f,
+1.31441265e-01f,+9.00606513e-02f,-2.13571489e-01f,+7.48213828e-02f,-9.33046639e-02f,
+1.88940912e-01f,+4.94694710e-02f,-9.89912897e-02f,-1.13650143e-01f,-4.11319435e-02f,
+1.96574003e-01f,+1.89819545e-01f,-1.46601841e-01f,-1.49198651e-01f,+1.75224751e-01f,
-1.24185383e-02f,+2.11599410e-01f,+1.65969685e-01f,+9.43005905e-02f,+2.57136673e-01f,
+1.26637354e-01f,-1.15590163e-01f,-2.26695254e-01f,-7.29724020e-02f,-4.68017310e-02f,
-3.53405140e-02f,+1.16261184e-01f,-1.67007208e-01f,+1.94285452e-01f,-1.19754180e-01f,
+5.95817454e-02f,-8.41759611e-03f,+1.12417400e-01f,+1.32346779e-01f,-1.45055562e-01f,
-1.55876100e-01f,+1.18749164e-01f,-1.86701253e-01f,+2.54839391e-01f,-1.68531746e-01f,
-1.70039445e-01f,+1.77395329e-01f,+6.94654509e-02f,-2.65477933e-02f,+1.20092556e-01f,
-2.29782730e-01f,+1.76887199e-01f,-2.44011134e-02f,-2.10672602e-01f,-3.21446359e-02f,
+1.16531104e-01f,-1.28952771e-01f,-7.02868104e-02f,+6.39191642e-03f,-5.88202477e-02f,
-1.47295117e-01f,-1.72566790e-02f,-6.08504862e-02f,+1.33644000e-01f,+1.82347834e-01f,
+2.97896981e-01f,+1.50069594e-02f,-3.76486778e-03f,-5.53627610e-02f,-8.22798461e-02f,
-1.39392763e-02f,+1.78431168e-01f,-1.25204593e-01f,+7.90108442e-02f,-2.16222376e-01f,
-2.20704854e-01f,+2.50831544e-01f,-1.99207142e-01f,+4.33135629e-02f,-1.13905475e-01f,
+1.29643872e-01f,-3.60446163e-02f,-1.94755346e-01f,-1.70726832e-02f,+1.08943433e-01f,
-2.05416068e-01f,-2.46234536e-02f,+2.03540295e-01f,+1.79020852e-01f,+4.99418378e-02f,
+1.55157447e-01f,-2.05522299e-01f,-1.08579420e-01f,+7.93779790e-02f,-1.74293369e-01f,
+1.06063336e-01f,-1.64631903e-01f,+1.67331010e-01f,-2.45455950e-02f,-2.92913467e-02f,
-1.00811452e-01f,-1.94819272e-02f,-1.95626616e-02f,+7.93352425e-02f,+5.67126870e-02f,
-5.50833344e-03f,+1.24500483e-01f,+1.61853760e-01f,-1.03985250e-01f,+2.17961520e-01f,
-1.24708518e-01f,-2.19251215e-01f,-1.93780154e-01f,-6.03623390e-02f,+1.69512510e-01f,
-1.02331415e-01f,+1.57941371e-01f,-6.79368377e-02f,+5.17416894e-02f,-6.87876493e-02f,
+2.26044863e-01f,-1.48606598e-01f,+2.13587493e-01f,-6.99993074e-02f,-1.97941065e-01f,
-5.98752946e-02f,-8.10340196e-02f,-1.82324558e-01f,-1.35308504e-03f,+6.12947643e-02f,
-1.95170164e-01f,-2.19472989e-01f,-1.81325406e-01f,+1.94449395e-01f,-1.08503997e-02f,
+1.23528093e-01f,-4.30848151e-02f,+6.88555241e-02f,+2.07035601e-01f,-2.14135617e-01f,
+5.15821576e-02f,-1.46617845e-01f,-5.14375716e-02f,+1.80336803e-01f,+1.33784413e-02f,
-6.71650469e-02f,-2.13840619e-01f,-4.96414602e-02f,+3.94956470e-02f,-2.22874209e-01f,
-8.50858390e-02f,-2.29878396e-01f,+1.18533015e-01f,+3.77257466e-02f,-5.02451062e-02f,
-7.67742097e-03f,-1.50398672e-01f,+1.42576128e-01f,-1.77050874e-01f,+1.31887406e-01f,
-3.55041921e-02f,+1.74471378e-01f,-1.66484505e-01f,-1.52837873e-01f,+1.83962733e-01f,
+1.43043190e-01f,+1.00635290e-02f,+8.55000913e-02f,+3.26681733e-02f,-7.88894892e-02f,
+6.93403184e-02f,+9.27397013e-02f,+1.96069032e-01f,-1.16061375e-01f,+4.96935546e-02f,
-1.89208448e-01f,-2.11062580e-01f,-2.02830851e-01f,-1.49336115e-01f,-8.65603387e-02f,
+2.09261626e-01f,-1.47690505e-01f,+1.89437866e-02f,-5.07103056e-02f,-1.61386400e-01f,
+2.10611850e-01f,-1.16168149e-01f,-1.63308159e-01f,-3.61862034e-02f,-2.18070626e-01f,
+5.58063090e-02f,+1.34801090e-01f,+1.05750948e-01f,-1.16547205e-01f,-1.26234889e-01f,
+1.26120597e-02f,+4.05905843e-02f,-1.18956223e-01f,+1.97043955e-01f,+7.35791028e-03f,
+6.23139441e-02f,+2.00887799e-01f,-1.96245402e-01f,+8.68334770e-02f,+9.54805911e-02f,
-1.88771218e-01f,-2.17953175e-02f,-1.04541108e-01f,-9.62491184e-02f,-2.16105491e-01f,
+1.79505020e-01f,+5.62636554e-03f,+1.64078921e-02f,+1.03316091e-01f,+6.12097830e-02f,
-1.04956828e-01f,-7.02110231e-02f,+3.01706493e-01f,+8.07789564e-02f,-1.73460990e-01f,
-6.34652793e-01f,-1.44477233e-01f,-1.46823025e+00f,-9.32602882e-02f,+1.21384293e-01f,
-1.34253472e-01f,+1.17691472e-01f,+2.00592518e-01f,+3.33562851e-01f,-9.11954492e-02f,
+2.56682664e-01f,-9.65149999e-02f,-1.73643306e-01f,-2.05223739e-01f,+1.15698755e-01f,
-3.22113484e-01f,+4.35288846e-02f,-6.91655353e-02f,-4.08403695e-01f,-5.72243750e-01f,
+2.62953192e-01f,+2.99969494e-01f,+4.00158137e-01f,-5.82785726e-01f,+3.65428835e-01f,
+1.56222582e-01f,-1.71168670e-01f,+2.92935789e-01f,+1.24396563e-01f,-2.20771953e-01f,
+2.03532018e-02f,-1.41177058e-01f,-1.01046741e-01f,-6.34908140e-01f,-2.08055973e-01f,
+4.27887797e-01f,-2.24535719e-01f,-1.45314741e+00f,-2.15263069e-01f,-1.18196465e-01f,
-1.59025744e-01f,+9.23552439e-02f,+3.30626070e-02f,-2.19912991e-01f,+4.08715338e-01f,
+1.46467954e-01f,-1.45983905e-01f,-2.24798396e-01f,-1.66943288e+00f,-1.51219398e-01f,
-1.44196242e-01f,-1.25600845e-02f,-1.55631080e-01f,+3.71260107e-01f,-2.27029234e-01f,
-1.42015845e-01f,+3.16441894e-01f,+1.28095329e-01f,-7.03754872e-02f,-2.20897496e-01f,
-2.13740185e-01f,+1.40348434e-01f,+7.30006695e-02f,-1.18411124e-01f,-8.27707350e-02f,
+1.32218838e-01f,+1.32796735e-01f,+1.42225713e-01f,+2.52240598e-02f,+7.25428164e-02f,
+5.48489988e-02f,-4.34838533e-02f,-1.75846159e-01f,-2.11520270e-01f,-1.72212869e-02f,
-2.07048178e-01f,+1.26850456e-01f,+1.41307890e-01f,-7.56238550e-02f,+6.86866045e-02f,
-1.49792582e-02f,+8.59097838e-02f,-1.31190717e-01f,-8.86990726e-02f,-8.48320127e-03f,
+2.20007062e-01f,-8.48515332e-02f,-2.20297277e-02f,-2.04714581e-01f,-1.01175547e-01f,
+6.89957440e-02f,+5.21888435e-02f,-2.27448404e-01f,-1.91536129e-01f,-5.70416898e-02f,
+1.98170960e-01f,+1.80969745e-01f,+1.72594339e-01f,-1.50444463e-01f,-7.51511008e-02f,
-2.03910351e-01f,+1.24392718e-01f,-6.19565845e-02f,-2.31286272e-01f,+5.51635921e-02f,
+9.11805928e-02f,+1.81807041e-01f,-1.70901701e-01f,+8.16050470e-02f,+9.32079256e-02f,
-1.95384264e-01f,+4.64154482e-02f,-1.05704755e-01f,+2.96815932e-02f,+8.25686157e-02f,
+5.41343093e-02f,+4.03354168e-02f,-2.00676009e-01f,-1.71395540e-01f,-3.24957222e-02f,
-1.49646625e-01f,-1.56903028e-01f,-3.56709622e-02f,-1.41955942e-01f,-1.59394279e-01f,
+2.01110154e-01f,+1.24839306e-01f,-1.35647267e-01f,-1.67479545e-01f,+4.10798490e-02f,
-4.38818365e-01f,-4.76416796e-02f,+8.82136822e-03f,-3.72120529e-01f,+5.21232262e-02f,
+2.71551818e-01f,+2.58947939e-01f,+2.22664237e-01f,+1.67553406e-02f,+2.06668794e-01f,
-1.03851408e-02f,-7.43636815e-03f,-1.75972819e-01f,+3.40167284e-02f,-8.07827115e-02f,
-2.65022337e-01f,-2.81967193e-01f,-2.03054875e-01f,+2.36119524e-01f,+1.07385986e-01f,
+2.09417209e-01f,-3.15303922e-01f,-6.47934526e-02f,+9.45722759e-02f,-1.34686291e-01f,
+1.56083956e-01f,-3.66439968e-02f,-4.28022742e-02f,+3.28440875e-01f,+1.12601787e-01f,
-1.78122580e-01f,-2.27434069e-01f,+7.82889724e-02f,+3.80247921e-01f,+6.26120567e-02f,
-4.77573186e-01f,-1.24353305e-01f,-1.63128212e-01f,+1.13812894e-01f,-2.00535819e-01f,
+1.96270108e-01f,-3.13988835e-01f,+2.85560399e-01f,+1.09094962e-01f,-1.31511942e-01f,
-2.14645356e-01f,-4.97104466e-01f,-1.42989382e-01f,-1.50377691e-01f,-1.24912113e-02f,
+7.85471424e-02f,+3.79855841e-01f,-2.29700089e-01f,+1.22071393e-01f,+2.59335071e-01f,
-1.14524744e-01f,+1.95062116e-01f,-3.18393810e-03f,+1.37408487e-02f,+1.32547105e-02f,
-1.84956193e-01f,-1.20648034e-01f,-4.08494622e-01f,-1.64061576e-01f,-3.35170031e-01f,
+2.00872719e-01f,-2.91427821e-02f,-1.86173040e-02f,+1.39828622e-01f,-7.86871836e-02f,
+2.67147034e-01f,-1.59882396e-01f,+1.36099771e-01f,-1.10773392e-01f,-1.43701792e-01f,
-1.98742986e-01f,-1.04785740e-01f,-2.16562524e-01f,+1.97096318e-01f,-3.18295985e-01f,
-2.05343768e-01f,-1.87065437e-01f,+8.51446763e-02f,+2.17532262e-01f,+1.09637782e-01f,
-2.62591720e-01f,+3.31429124e-01f,-1.99053347e-01f,-1.32244721e-01f,+9.82234180e-02f,
-2.27095500e-01f,-1.96807712e-01f,+3.42990726e-01f,+1.01659268e-01f,+4.54112291e-02f,
-2.21509203e-01f,+1.44867212e-01f,+1.26366198e-01f,+9.90846753e-03f,-3.96080464e-01f,
-1.62991583e-01f,-1.66638300e-01f,+1.70478821e-02f,+2.13312805e-01f,+3.77966464e-03f,
-1.36161089e-01f,+8.43848512e-02f,+1.68950427e-02f,-1.09204203e-02f,-1.79725587e-02f,
-5.44938207e-01f,+1.86150640e-01f,-5.76571524e-02f,-2.15712428e-01f,+2.29772404e-01f,
+2.42692992e-01f,-1.48691624e-01f,+7.97080025e-02f,+5.68151250e-02f,-1.20896101e-01f,
-2.26967633e-01f,+1.65296689e-01f,-6.61367923e-02f,+2.48849854e-01f,-1.84820995e-01f,
+3.63451242e-02f,-2.39781216e-01f,-1.01920679e-01f,-2.25755215e-01f,+1.17491931e-01f,
