#include <math.h> 
 #include <string.h> 
#include "./include/k2c_include.h" 
#include "./include/k2c_tensor_include.h" 

 


void keras2c_model(k2c_tensor* conv2d_22_input_1_input, k2c_tensor* dense_45_1_output) { 

size_t conv2d_22_stride[2] = {1,1}; 
size_t conv2d_22_dilation[2] = {1,1}; 
float conv2d_22_output_array[48] = {0}; 
k2c_tensor conv2d_22_output = {&conv2d_22_output_array[0],3,48,{ 3, 1,16, 1, 1}}; 
float conv2d_22_kernel_array[48] = {
-1.36426002e-01f,+1.30700633e-01f,-1.23521224e-01f,+9.46244150e-02f,+1.42047763e-01f,
-2.99111843e-01f,-3.90121713e-02f,+1.77663654e-01f,+3.24985474e-01f,+1.47561789e-01f,
+1.82406113e-01f,-2.94156700e-01f,-1.45377129e-01f,+1.20722055e-01f,-7.48122558e-02f,
-8.86853859e-02f,-1.86546519e-01f,+2.31652245e-01f,-1.25568509e-02f,-2.13756084e-01f,
-2.27860689e-01f,-2.46992648e-01f,+2.12837458e-01f,-8.03163648e-02f,-4.30612043e-02f,
+2.88080662e-01f,+3.29832017e-01f,+2.11957961e-01f,+2.93518960e-01f,+1.18890382e-01f,
+1.25213891e-01f,-8.69587213e-02f,+1.61575258e-01f,-2.48313606e-01f,-2.03396231e-01f,
+8.69658589e-02f,-1.97038904e-01f,-2.92158604e-01f,+2.18450412e-01f,-2.54226148e-01f,
-8.94590244e-02f,+2.16571093e-01f,+1.07434951e-01f,+3.20621967e-01f,+1.14581488e-01f,
+2.43508890e-01f,+1.65085882e-01f,+3.18345696e-01f,}; 
k2c_tensor conv2d_22_kernel = {&conv2d_22_kernel_array[0],4,48,{ 1, 3, 1,16, 1}}; 
float conv2d_22_bias_array[16] = {
+2.52840277e-02f,+1.60635673e-02f,+0.00000000e+00f,+4.98355320e-03f,+0.00000000e+00f,
+0.00000000e+00f,+1.72367617e-02f,+0.00000000e+00f,+2.97509637e-02f,+1.81955483e-03f,
-1.38174649e-03f,-5.95626794e-03f,+1.22287474e-03f,-3.78226815e-03f,+3.14280018e-03f,
+3.80334631e-03f,}; 
k2c_tensor conv2d_22_bias = {&conv2d_22_bias_array[0],1,16,{16, 1, 1, 1, 1}}; 

 
size_t max_pooling2d_22_stride[2] = {1,2}; 
size_t max_pooling2d_22_pool_size[2] = {1,2}; 
float max_pooling2d_22_output_array[48] = {0}; 
k2c_tensor max_pooling2d_22_output = {&max_pooling2d_22_output_array[0],3,48,{ 3, 1,16, 1, 1}}; 
float max_pooling2d_22_padded_input_array[96] = {0}; 
k2c_tensor max_pooling2d_22_padded_input = {&max_pooling2d_22_padded_input_array[0],3,96,{ 3, 2,16, 1, 1}}; 
size_t max_pooling2d_22_pad[4] = {0,0,0,1}; 
float max_pooling2d_22_fill = -HUGE_VALF; 


float flatten_22_1_output_array[48] = {0}; 
k2c_tensor flatten_22_1_output = {&flatten_22_1_output_array[0],1,48,{48, 1, 1, 1, 1}}; 
float dense_44_output_array[64] = {0}; 
k2c_tensor dense_44_output = {&dense_44_output_array[0],1,64,{64, 1, 1, 1, 1}}; 
float dense_44_kernel_array[3072] = {
+1.99163660e-01f,+1.33788869e-01f,+1.83199763e-01f,+1.35359913e-01f,-7.22375363e-02f,
+1.49696320e-01f,+1.76730722e-01f,-1.51122928e-01f,-1.96269512e-01f,+2.12565839e-01f,
+1.81823969e-04f,+2.32395194e-02f,+1.95376202e-01f,-7.18478411e-02f,-5.84554896e-02f,
-1.22996628e-01f,-1.07817590e-01f,-1.86795726e-01f,-2.13653311e-01f,+1.23584010e-02f,
-2.14791089e-01f,-2.06230909e-01f,+5.13864756e-02f,-1.09829262e-01f,+1.62356317e-01f,
-6.71941042e-02f,+3.43153533e-03f,-1.08466828e-02f,+4.77554882e-03f,+2.22624332e-01f,
+1.87796324e-01f,+2.12147892e-01f,-5.51780351e-02f,+1.64854631e-01f,+1.82737261e-01f,
+1.65587720e-02f,+5.93717918e-02f,+3.75252366e-02f,+1.84353873e-01f,+2.79188287e-02f,
+7.64015093e-02f,-8.63448977e-02f,+1.67940497e-01f,-1.02302156e-01f,+5.53762615e-02f,
+1.19191200e-01f,+1.68084860e-01f,-7.17687830e-02f,+1.05176449e-01f,+1.59057975e-01f,
+7.51140015e-03f,-7.07925335e-02f,-1.61328197e-01f,+9.72616673e-02f,-1.33235961e-01f,
-1.88502014e-01f,-1.18311137e-01f,+2.02675015e-01f,+2.27428839e-01f,-2.31184959e-02f,
-1.25946343e-01f,-2.20721675e-04f,-4.88587283e-02f,-3.21975071e-03f,-5.91918565e-02f,
+2.18812734e-01f,-2.06193238e-01f,-1.49756059e-01f,+8.79224837e-02f,-2.32078046e-01f,
-9.98012573e-02f,+1.59691334e-01f,+6.35934770e-02f,-8.78892541e-02f,+8.51635337e-02f,
+1.67644590e-01f,+9.82479155e-02f,+2.23542720e-01f,-2.14844003e-01f,-3.25010717e-02f,
-1.77278876e-01f,+2.55729556e-02f,-2.14419737e-01f,-2.17121333e-01f,+1.84818625e-01f,
+2.18342274e-01f,-1.76520035e-01f,-3.60878706e-02f,-1.77238330e-01f,+1.00606173e-01f,
+9.98429060e-02f,+6.84665341e-04f,-9.85336155e-02f,-1.44029915e-01f,-1.99276790e-01f,
-9.71729979e-02f,+1.84228830e-02f,-5.16098291e-02f,+7.91034475e-02f,-1.33741170e-01f,
-1.66999832e-01f,-4.03499007e-02f,-1.04467548e-01f,-2.10642934e-01f,-1.46917284e-01f,
+1.40370160e-01f,+1.40698224e-01f,-2.05322996e-01f,-9.07704830e-02f,-3.61672789e-02f,
-1.00107089e-01f,-8.61451477e-02f,-6.27861470e-02f,+4.90628965e-02f,-1.83282018e-01f,
-2.11432442e-01f,+2.77052261e-02f,+1.89200640e-02f,-2.58844867e-02f,-1.39067948e-01f,
+1.18105754e-01f,+4.48265970e-02f,-1.75594121e-01f,+1.68111145e-01f,-1.23063654e-01f,
+2.01933488e-01f,-1.22667432e-01f,-2.00071067e-01f,+8.63520205e-02f,+1.66723132e-01f,
+1.13352090e-01f,+1.52651578e-01f,+1.00131869e-01f,-3.82146239e-02f,+1.03009939e-02f,
-9.00219679e-02f,+1.16486728e-01f,+9.00323391e-02f,+1.66175961e-01f,+8.55386257e-02f,
+1.82629228e-02f,-4.28959876e-02f,-1.24133237e-01f,-2.50315368e-02f,+1.83411956e-01f,
+1.42795205e-01f,-2.15403512e-01f,+6.24206662e-02f,-1.08171664e-01f,+1.11181408e-01f,
+1.58468485e-02f,-1.82036400e-01f,-8.52665603e-02f,-1.08213551e-01f,-9.92912650e-02f,
-1.62134692e-01f,+9.48942006e-02f,-2.18672946e-01f,+1.81309342e-01f,+2.31441826e-01f,
-1.57520771e-01f,+2.99157500e-02f,-6.29408658e-03f,+1.61181241e-02f,+1.96647853e-01f,
+1.72893107e-01f,+1.09782398e-01f,+1.74919486e-01f,+7.05848038e-02f,-6.72377795e-02f,
-1.08017541e-01f,-1.09172799e-01f,-2.20101312e-01f,+2.22128958e-01f,-1.61630318e-01f,
+1.49966955e-01f,+9.35676694e-02f,+1.71443433e-01f,-1.50966942e-01f,-5.31373769e-02f,
+1.19782656e-01f,+8.52572322e-02f,-3.82706523e-03f,+7.85499513e-02f,-1.95739642e-01f,
+1.44732624e-01f,+2.07678586e-01f,+1.49844676e-01f,-2.16099203e-01f,+1.63850933e-01f,
-1.05254084e-01f,+4.90887463e-03f,+6.47066608e-02f,-2.86859106e-02f,+1.13739401e-01f,
-1.21477768e-01f,+7.48771727e-02f,+4.19352129e-02f,-1.80513248e-01f,-1.14203274e-01f,
-2.03485161e-01f,+9.24391747e-02f,-7.05824345e-02f,-2.07105209e-03f,-9.05784741e-02f,
-2.29351029e-01f,+1.94698885e-01f,-2.02278689e-01f,+1.90795392e-01f,-2.03108609e-01f,
+2.05956936e-01f,-1.29458189e-01f,+9.70641673e-02f,+1.39118001e-01f,-1.84578463e-01f,
+8.13228488e-02f,+2.16427058e-01f,-3.52529138e-02f,-2.17266321e-01f,+7.05875084e-02f,
-2.25162119e-01f,+2.20946044e-01f,-2.24792078e-01f,-1.00394174e-01f,-2.08702669e-01f,
-2.15932146e-01f,-2.09808141e-01f,+9.50058773e-02f,-1.95493996e-01f,+1.62985370e-01f,
+1.59110487e-01f,-1.68626547e-01f,+1.25984550e-01f,+1.32998526e-01f,+4.58113812e-02f,
-2.19865888e-01f,-5.56927472e-02f,+1.81754291e-01f,+2.99513340e-02f,-2.01578408e-01f,
-5.50888181e-02f,-2.96574831e-02f,-1.36867642e-01f,+1.47264719e-01f,+1.56641155e-02f,
-9.66770947e-03f,-2.36384213e-01f,+1.29157435e-02f,-3.83691266e-02f,+1.02911599e-01f,
+7.96769783e-02f,-1.59803599e-01f,-2.19971702e-01f,+1.73261482e-02f,+2.13572800e-01f,
-1.70314968e-01f,+1.00095063e-01f,-3.77811641e-02f,+5.26853204e-02f,+5.58392704e-03f,
-1.70919299e-01f,-1.14133604e-01f,-2.00516745e-01f,-1.10995173e-01f,+1.03723615e-01f,
+4.58070040e-02f,+8.82252753e-02f,-3.40582281e-02f,+8.63026083e-03f,-6.85509145e-02f,
+7.68633187e-02f,+1.54205084e-01f,-1.58575326e-01f,+2.60166824e-03f,+1.59582973e-01f,
-1.34443328e-01f,-1.51273757e-01f,-4.39572632e-02f,-1.97564065e-02f,+3.54164541e-02f,
+4.29175496e-02f,+1.95453405e-01f,-1.64810419e-01f,+2.15497315e-01f,+9.40497518e-02f,
-8.27684253e-02f,-1.45288527e-01f,+7.62208402e-02f,+1.90387964e-02f,+2.00847358e-01f,
-7.71668404e-02f,-1.83281377e-01f,-1.40838891e-01f,+5.41167557e-02f,-1.18605703e-01f,
-1.28395259e-01f,+3.29543352e-02f,+2.27848709e-01f,-1.56809509e-01f,+1.39004648e-01f,
-1.92694858e-01f,-9.16216224e-02f,+6.95368350e-02f,-4.48395312e-02f,-2.87847072e-02f,
-7.35705495e-02f,+1.07434750e-01f,+1.09421581e-01f,-1.51155174e-01f,-1.06286705e-02f,
+1.74501747e-01f,+9.52634811e-02f,-1.81037366e-01f,-1.28695399e-01f,+4.15239036e-02f,
+1.06472194e-01f,+2.30453014e-01f,+1.46654695e-01f,+9.19853449e-02f,-1.57999486e-01f,
+7.10925460e-02f,+5.98888695e-02f,-1.24487847e-01f,-1.75902992e-02f,+1.66615903e-01f,
+1.58523947e-01f,+8.24182332e-02f,+1.56954527e-01f,+1.85554385e-01f,-5.10789901e-02f,
+1.73581332e-01f,-1.99097931e-01f,+1.05868816e-01f,-1.33935213e-01f,-7.57538080e-02f,
-5.73211908e-02f,+1.49065286e-01f,-4.35522795e-02f,+8.53390694e-02f,-1.92228511e-01f,
+1.65151328e-01f,+1.54858798e-01f,+1.59967095e-01f,-1.26681373e-01f,-2.39657164e-02f,
-9.83224064e-02f,+1.51152343e-01f,+7.08380342e-02f,+1.76321805e-01f,+1.80686057e-01f,
+2.26991087e-01f,-9.94658023e-02f,-1.02673218e-01f,-2.15339780e-01f,-9.40153599e-02f,
-1.68171227e-01f,-1.74886644e-01f,+5.42675257e-02f,+6.77356422e-02f,-1.31893039e-01f,
+1.30792797e-01f,-1.53288156e-01f,-1.40286624e-01f,-1.17707707e-01f,+1.87059999e-01f,
-3.90389562e-02f,+1.85460359e-01f,+2.58302391e-02f,-1.54009640e-01f,+1.33538276e-01f,
+6.35142922e-02f,+1.48057789e-01f,+2.26368636e-01f,-2.89171934e-02f,+2.04887360e-01f,
+3.63238454e-02f,-1.05751559e-01f,-1.98240936e-01f,+1.76779658e-01f,+2.10406184e-01f,
-9.78661478e-02f,-8.41659307e-02f,+1.90115809e-01f,+1.62704229e-01f,+5.15327267e-02f,
-3.12179234e-02f,+1.72053948e-01f,-1.77057162e-01f,+5.09073734e-02f,+1.76647425e-01f,
-1.63863227e-01f,-1.62691906e-01f,+2.19644457e-01f,-1.11992992e-01f,-7.31893331e-02f,
-5.11363856e-02f,-2.26344377e-01f,+2.41192132e-02f,+6.14674240e-02f,+5.73009849e-02f,
+4.90458012e-02f,-1.77971557e-01f,-4.28788327e-02f,+1.77357212e-01f,+2.08701670e-01f,
+1.61203220e-01f,-3.70172746e-02f,+4.45657670e-02f,-2.16420740e-02f,-8.42429101e-02f,
-1.43614948e-01f,-1.56048566e-01f,+1.11927271e-01f,-3.41452062e-02f,+1.84320778e-01f,
-1.37662351e-01f,-1.36836424e-01f,+2.17740431e-01f,-1.77073628e-01f,-1.90012623e-02f,
+1.98304251e-01f,-4.02635224e-02f,+1.24371246e-01f,+1.80952772e-01f,-7.59315342e-02f,
-1.06416345e-01f,-1.42139569e-01f,+7.09867105e-02f,-9.39041749e-02f,+9.92228985e-02f,
-9.39402580e-02f,+1.70444518e-01f,-1.36445984e-01f,+2.07505524e-01f,+8.50950107e-02f,
+2.16845557e-01f,-7.72509128e-02f,-1.96332917e-01f,+1.77343294e-01f,+4.66375649e-02f,
-2.10463300e-01f,+2.93412041e-02f,+2.13462427e-01f,-1.77859634e-01f,-2.25409910e-01f,
-1.32039770e-01f,+1.33212760e-01f,+1.18333057e-01f,+1.35613114e-01f,-1.82613492e-01f,
-1.64588034e-01f,+1.36495829e-01f,+2.07868069e-01f,-9.53236371e-02f,-2.00952962e-01f,
+1.26589596e-01f,+8.43313634e-02f,-3.06354910e-02f,-6.16981089e-02f,-1.08024552e-01f,
+8.26578438e-02f,-3.55293006e-02f,+1.03508592e-01f,-8.34289044e-02f,+1.55173510e-01f,
-1.24817781e-01f,-1.84344262e-01f,-1.88283741e-01f,+7.86727369e-02f,+1.64284945e-01f,
+1.10858530e-02f,-1.32753238e-01f,-4.10348177e-02f,-1.12654865e-02f,+1.33919746e-01f,
-1.93070218e-01f,-4.04819846e-04f,-1.61427528e-01f,-1.76724136e-01f,-1.85260311e-01f,
+1.89443856e-01f,+1.07383549e-01f,-9.22486782e-02f,+4.65874076e-02f,+9.16853547e-02f,
-4.39567715e-02f,-8.20083916e-02f,-1.32739112e-01f,-7.25200176e-02f,-2.27864981e-01f,
+3.36402059e-02f,+1.95624143e-01f,+9.93559361e-02f,-1.23182431e-01f,+1.33887678e-02f,
-1.95247188e-01f,+1.40637428e-01f,-1.68588698e-01f,-2.33013779e-02f,+2.26801097e-01f,
-1.88073486e-01f,+4.23220098e-02f,-1.26281679e-02f,-2.12523729e-01f,+1.61370069e-01f,
-1.32538021e-01f,-1.16664745e-01f,-1.00688890e-01f,+1.25568211e-02f,+1.23574674e-01f,
-2.12717310e-01f,-1.71216965e-01f,-1.50350615e-01f,-1.47222325e-01f,+1.39864549e-01f,
-1.72738969e-01f,+1.51246220e-01f,-3.50829437e-02f,-1.10728368e-01f,+9.57316235e-02f,
+2.14182794e-01f,-6.80139810e-02f,-1.89793766e-01f,-1.12781882e-01f,-6.69091493e-02f,
-2.13946909e-01f,-7.49076232e-02f,+3.38997543e-02f,-1.43241838e-01f,+1.36657000e-01f,
+7.11954907e-02f,+4.04788777e-02f,-1.16998255e-02f,-1.91569790e-01f,+1.99729949e-01f,
-1.87615365e-01f,+2.30738193e-01f,+1.61740586e-01f,-1.18537538e-01f,+9.97048542e-02f,
-1.23865806e-01f,-2.03847215e-01f,-1.91212445e-02f,+6.43588305e-02f,+1.31011158e-01f,
+2.23496929e-01f,+1.45601481e-01f,-8.91515687e-02f,+7.91402757e-02f,+1.99566931e-02f,
-2.45400406e-02f,-7.14296103e-02f,-8.24346114e-03f,-5.84044456e-02f,-6.14114515e-02f,
+1.26969293e-01f,+3.06073204e-02f,+6.81016743e-02f,+1.06174260e-01f,-1.91404253e-01f,
+1.67965442e-02f,+8.97736400e-02f,-1.38885766e-01f,+2.18798965e-01f,-8.81939083e-02f,
-1.06061459e-01f,+3.25111263e-02f,-9.40671563e-03f,+7.81337172e-03f,+5.11410087e-02f,
-1.74771070e-01f,+1.12879336e-01f,-1.32483751e-01f,-2.16101646e-01f,+2.07071587e-01f,
-1.19334675e-01f,+8.99678096e-02f,+2.22015977e-01f,+1.05759807e-01f,-2.24057615e-01f,
-8.45417827e-02f,-1.29130825e-01f,-1.59986481e-01f,-1.34219855e-01f,-1.19207695e-01f,
-7.36194998e-02f,-1.93846807e-01f,+1.54684156e-01f,+8.14318731e-02f,+1.98018793e-02f,
-8.29509124e-02f,+5.98013997e-02f,+3.04598566e-02f,+8.72747973e-02f,+1.37635395e-01f,
+1.11416281e-04f,-4.67844158e-02f,-2.14399725e-01f,+3.25263031e-02f,-2.07431257e-01f,
-1.70750171e-01f,+1.75958186e-01f,+1.09851547e-01f,+7.79052675e-02f,-5.77691533e-02f,
+1.65227145e-01f,+1.97506994e-01f,+1.81445956e-01f,-1.80379421e-01f,+1.81100368e-01f,
+5.51442616e-02f,+3.28113548e-02f,+1.92914754e-02f,+1.40964180e-01f,+2.15407118e-01f,
+2.99279485e-02f,+6.76294342e-02f,+8.56067836e-02f,-2.03698218e-01f,-3.33236754e-02f,
+9.51092318e-02f,+2.00617135e-01f,-1.86755881e-01f,-1.26164943e-01f,-9.04052705e-02f,
-1.50629774e-01f,+1.72176123e-01f,-9.83674005e-02f,+2.41621017e-01f,+1.11329257e-02f,
+5.34210354e-02f,-1.49193197e-01f,+7.96092302e-02f,-1.87149763e-01f,+2.36722559e-01f,
-1.54534146e-01f,+1.70664683e-01f,-2.28723675e-01f,+1.06063075e-01f,+1.45194292e-01f,
+1.69635683e-01f,+2.17696801e-01f,-2.79619731e-02f,-8.97596925e-02f,-2.13794097e-01f,
-4.02189195e-02f,-1.55127645e-01f,+1.56683683e-01f,-1.53601050e-01f,-2.29027137e-01f,
-2.02467695e-01f,+5.42000160e-02f,-1.04542319e-02f,-2.41366634e-03f,-1.52693048e-01f,
+5.24711013e-02f,+2.02364758e-01f,-7.52414167e-02f,-1.57283917e-01f,+1.14283822e-01f,
-2.17813686e-01f,+7.29593113e-02f,-1.83838189e-01f,+3.58658731e-02f,-4.77331728e-02f,
-1.45032123e-01f,+3.15985717e-02f,+4.41903435e-02f,-2.12573871e-01f,+8.08880031e-02f,
+6.29981682e-02f,+3.58280577e-02f,-8.60692635e-02f,-1.46528810e-01f,+1.83663055e-01f,
-1.39969051e-01f,-4.25075516e-02f,-4.88200001e-02f,+2.26895809e-02f,-1.98267922e-01f,
+1.18599318e-01f,+1.34582609e-01f,+1.78299576e-01f,+4.57077585e-02f,-5.50209358e-02f,
+2.08608508e-02f,-4.58236188e-02f,-2.52901278e-02f,-5.45136929e-02f,+1.62863418e-01f,
-6.65723011e-02f,-1.63069844e-01f,+1.72138765e-01f,-1.87922731e-01f,+1.67299360e-01f,
-1.93506330e-01f,+1.59873545e-01f,+2.30070487e-01f,-1.49448037e-01f,-1.52337134e-01f,
+1.01892613e-01f,+2.74433382e-02f,-1.57572255e-01f,-1.55518353e-01f,+6.98282495e-02f,
+1.52225718e-01f,-2.16418594e-01f,+1.80952936e-01f,-1.31219640e-01f,+3.51316221e-02f,
-2.30150670e-01f,-1.86396137e-01f,-8.07096511e-02f,+1.51403338e-01f,-2.07316577e-02f,
+5.54288588e-02f,+6.21820800e-02f,+2.30026573e-01f,-3.18981633e-02f,+5.26008904e-02f,
+6.69472590e-02f,+1.19856067e-01f,-9.70364138e-02f,+1.31109118e-01f,-3.20718586e-02f,
+4.26828004e-02f,+1.94851562e-01f,-4.56126481e-02f,-1.22331284e-01f,+1.40535802e-01f,
+7.67317489e-02f,+1.09692380e-01f,+6.52906224e-02f,-1.63655370e-01f,+1.09707430e-01f,
+6.34796917e-02f,+2.34216064e-01f,+5.82404844e-02f,-9.77020785e-02f,-8.08192044e-02f,
-5.15606394e-03f,+2.15953022e-01f,+1.92453831e-01f,+4.09158953e-02f,-1.72116935e-01f,
+8.20312798e-02f,-6.06341362e-02f,+9.33474600e-02f,-1.84849858e-01f,+2.09231883e-01f,
-1.97712481e-02f,-4.60246243e-02f,-8.11292678e-02f,-1.83497265e-01f,-1.79156378e-01f,
-1.21720657e-01f,-1.16517320e-02f,+1.64090276e-01f,-7.89782479e-02f,-1.43124029e-01f,
-1.44533768e-01f,+5.79775348e-02f,-6.20912760e-02f,+5.51134944e-02f,-7.78753660e-04f,
+1.44080386e-01f,+1.68843821e-01f,-6.44277558e-02f,+1.07364297e-01f,-1.71732232e-01f,
+7.13206977e-02f,-9.55313593e-02f,+1.73784584e-01f,-1.08194593e-02f,+1.54095590e-01f,
-1.96699217e-01f,-6.61461949e-02f,-6.65659755e-02f,+1.79810584e-01f,+3.18487734e-02f,
-6.28283471e-02f,-1.43515274e-01f,+9.06548798e-02f,-2.99362093e-02f,+1.25154361e-01f,
-1.16501682e-01f,-2.03075960e-01f,-1.08858168e-01f,+8.75368714e-04f,+9.45496187e-02f,
+1.02592416e-01f,-5.38522005e-03f,-1.02195770e-01f,+1.63964957e-01f,+2.37058867e-02f,
+1.43853351e-01f,+8.37783702e-03f,+1.38634384e-01f,-2.22502887e-01f,+2.20738143e-01f,
+1.76288486e-02f,-1.44360036e-01f,+4.19688113e-02f,+2.13529184e-01f,+2.86442805e-02f,
-6.40353933e-02f,-6.00290336e-02f,+8.85476731e-03f,-1.14116095e-01f,-2.29267955e-01f,
+1.09928377e-01f,+8.05195421e-02f,+1.47061706e-01f,+1.62409335e-01f,+2.17460394e-01f,
-1.27406597e-01f,+7.36705363e-02f,+1.21517844e-01f,+8.32156092e-03f,+1.51498869e-01f,
-4.34834510e-03f,-2.26313323e-02f,-1.20835163e-01f,+3.80732934e-03f,-2.10919067e-01f,
-5.55168800e-02f,-1.60878956e-01f,-1.62037626e-01f,-3.00944559e-02f,+1.20246664e-01f,
-1.87689401e-02f,-1.67326838e-01f,+1.50567800e-01f,+1.31911233e-01f,+9.54621062e-02f,
-3.44267935e-02f,+3.33106518e-02f,-2.29261536e-02f,+1.97320312e-01f,+1.58141881e-01f,
-1.47041589e-01f,-5.20977229e-02f,-9.78226960e-03f,+1.33053854e-01f,-1.79007605e-01f,
+2.86920350e-02f,+1.23881027e-01f,+1.17973924e-01f,-2.94492468e-02f,+1.41798332e-01f,
+5.47382906e-02f,-3.21204960e-02f,-2.06615180e-02f,+1.36241719e-01f,+1.61531419e-01f,
+1.74657553e-02f,-1.60762221e-01f,-2.30853274e-01f,-1.26402169e-01f,-6.75578341e-02f,
+2.08000809e-01f,-1.67411745e-01f,+1.63984641e-01f,+1.03860110e-01f,-5.58747947e-02f,
+3.61123495e-02f,+6.30661026e-02f,-1.94359556e-01f,-1.55603394e-01f,+7.86726475e-02f,
-2.22921856e-02f,+2.30405748e-01f,-6.89466149e-02f,-1.26852840e-02f,-1.12598978e-01f,
+6.36431202e-02f,+2.19606578e-01f,-3.19788158e-02f,-2.19888195e-01f,+1.32535502e-01f,
-7.58528113e-02f,+1.28387034e-01f,+2.12151691e-01f,+1.55127555e-01f,-1.10773496e-01f,
-1.86342835e-01f,+1.97304025e-01f,+1.95399225e-02f,-1.63614661e-01f,+8.58917460e-02f,
-1.89895779e-01f,-2.71550417e-02f,+8.39467347e-02f,+1.94686860e-01f,-1.25276744e-01f,
-1.03227623e-01f,+1.32445067e-01f,+3.23545933e-02f,+1.54704362e-01f,-2.11352453e-01f,
-6.72119856e-03f,-1.05924368e-01f,+9.46570113e-02f,+1.08755328e-01f,+1.47007167e-01f,
-1.11079380e-01f,+1.85305506e-01f,-1.84612468e-01f,-1.75240040e-01f,+1.38628706e-01f,
-2.21593022e-01f,+2.00037539e-01f,-7.11572617e-02f,+2.13067979e-01f,+2.01036096e-01f,
+7.40058720e-02f,+1.07228100e-01f,+3.89157124e-02f,+2.04615533e-01f,+1.11232460e-01f,
+8.50265622e-02f,+1.21740676e-01f,+2.17245184e-02f,+1.95883617e-01f,-1.64354220e-01f,
-4.71536964e-02f,+7.51086995e-02f,+2.23193783e-02f,-1.23696782e-01f,+5.12550771e-02f,
+1.07163057e-01f,-1.59849524e-02f,+1.97502553e-01f,-1.18718982e-01f,+6.77165538e-02f,
-1.64562047e-01f,+6.27381727e-02f,-2.05870897e-01f,+5.81694171e-02f,+1.42436594e-01f,
+1.65782899e-01f,-2.09869906e-01f,-6.38010800e-02f,+1.29533619e-01f,+1.10028982e-01f,
+4.94983867e-02f,+4.85557951e-02f,-5.73951229e-02f,+1.30821794e-01f,-2.14453429e-01f,
+1.29450738e-01f,-9.40021686e-03f,-2.01793671e-01f,-8.85742232e-02f,-3.99978571e-02f,
-1.65722638e-01f,+2.15800464e-01f,-1.33579060e-01f,-1.23110716e-04f,+4.84051071e-02f,
-1.64882734e-01f,+1.91000789e-01f,-1.22463562e-01f,+1.79119021e-01f,-2.10693240e-01f,
-1.28631100e-01f,-1.49172306e-01f,+1.73637539e-01f,+4.45221066e-02f,-2.15131178e-01f,
-1.31095976e-01f,-2.19249323e-01f,-1.27876133e-01f,+6.16963618e-02f,+8.37153196e-02f,
+1.25690728e-01f,+1.67750731e-01f,-7.76809007e-02f,-1.15694590e-01f,-5.62855601e-02f,
+4.37470675e-02f,-4.56142873e-02f,-1.89767972e-01f,+1.52541578e-01f,-1.56765312e-01f,
+8.12706277e-02f,-1.15387470e-01f,-9.47019309e-02f,+8.28348380e-03f,-1.33339286e-01f,
+1.61861509e-01f,-7.30309412e-02f,-6.86719641e-02f,+2.64268760e-02f,-1.48514450e-01f,
-1.16640627e-01f,-1.99657023e-01f,-2.28682801e-01f,+7.09405914e-02f,+3.95482779e-02f,
+1.65526420e-01f,-2.16608718e-01f,-7.11829681e-03f,+1.58222407e-01f,-8.42319876e-02f,
+6.11902475e-02f,+1.89997226e-01f,-6.11850843e-02f,+7.29863346e-02f,+1.26280814e-01f,
-7.25057945e-02f,+1.50552928e-01f,+2.22366843e-02f,-2.00724348e-01f,-3.88761656e-03f,
-2.78376397e-02f,+2.01277658e-01f,-2.32012141e-02f,-1.11785688e-01f,-1.30655557e-01f,
+1.07624382e-01f,+8.02483410e-02f,-1.68160889e-02f,-1.93437099e-01f,-1.21277951e-01f,
+1.15785740e-01f,+1.81232095e-01f,+1.74210370e-01f,-1.23593807e-02f,-1.21254459e-01f,
+1.21723332e-01f,-2.17966110e-01f,+2.07520485e-01f,+1.60374403e-01f,+8.74659419e-03f,
-2.15381533e-01f,+6.26633759e-04f,+5.43104187e-02f,+4.80952077e-02f,-1.93384483e-01f,
-1.17569283e-01f,+1.24197088e-01f,+1.05124995e-01f,-4.53083068e-02f,+1.08614445e-01f,
+2.11935118e-01f,-2.18834102e-01f,+1.82207733e-01f,+2.08608299e-01f,+5.82233593e-02f,
-3.61711681e-02f,-1.70851231e-01f,+1.32867113e-01f,-6.32694513e-02f,+1.14522062e-01f,
+1.33184984e-01f,+3.97475548e-02f,-1.17856413e-01f,+1.20785534e-02f,-2.54505016e-02f,
+6.98341429e-03f,-1.22278385e-01f,-4.55131605e-02f,-2.05001041e-01f,-1.59740165e-01f,
+2.83330977e-02f,+2.14435369e-01f,-7.21682161e-02f,-2.00177088e-01f,-1.46109015e-02f,
-1.16715513e-01f,+2.20968783e-01f,+2.21804053e-01f,-4.74237390e-02f,+1.97140992e-01f,
+1.12405084e-01f,+6.81155100e-02f,+1.49717599e-01f,-2.10366175e-01f,-4.33005840e-02f,
-1.54906427e-02f,+1.82075769e-01f,-7.73902163e-02f,+2.19383270e-01f,+1.43039376e-01f,
+2.22471163e-01f,+3.97701487e-02f,+2.03533441e-01f,-1.42304078e-01f,+1.46953180e-01f,
-4.43910025e-02f,+1.89781845e-01f,+1.03475511e-01f,-1.31476983e-01f,+1.95109695e-01f,
+1.67362168e-01f,+4.07042801e-02f,-1.18680201e-01f,-2.17796147e-01f,-2.24676535e-01f,
-1.37814298e-01f,-1.95000187e-01f,+4.01573181e-02f,+1.38066977e-01f,+2.30811626e-01f,
-2.47384217e-02f,+1.27514258e-01f,-3.64048854e-02f,-1.70809150e-01f,+6.87772185e-02f,
+2.11030617e-01f,+1.09556645e-01f,+2.21712381e-01f,-1.56016186e-01f,-3.73195969e-02f,
+8.37547332e-02f,+1.20352149e-01f,-1.56563178e-01f,+9.30869803e-02f,-5.11106402e-02f,
+1.11704633e-01f,-5.41782342e-02f,+1.25494316e-01f,-7.24271312e-02f,+2.00920925e-01f,
-8.61476362e-03f,+3.57954651e-02f,-6.60245642e-02f,+1.09312356e-01f,+1.64770335e-02f,
+1.05630279e-01f,+9.94435400e-02f,+6.20728135e-02f,-6.18713200e-02f,+2.91655362e-02f,
+2.12773010e-01f,-7.50762671e-02f,-1.96461141e-01f,+2.27860481e-01f,-2.29163617e-01f,
-1.27319157e-01f,+4.37700748e-02f,-1.82167575e-01f,+1.59675851e-01f,-1.66205391e-01f,
-1.08314671e-01f,+1.78750768e-01f,-1.56152889e-01f,+1.10856250e-01f,-5.57066575e-02f,
+1.61128752e-02f,-8.23359638e-02f,-1.80289954e-01f,-8.88248384e-02f,-1.92731336e-01f,
-4.49452102e-02f,+7.42793083e-02f,+4.92189825e-02f,+2.20327109e-01f,-4.83088940e-02f,
+1.73341334e-02f,-1.04624659e-01f,+2.28893369e-01f,+1.13545358e-03f,+2.25759804e-01f,
-8.05348307e-02f,+2.04740286e-01f,+1.36357695e-01f,-2.13350922e-01f,-1.88239977e-01f,
+1.77058816e-01f,+1.23187184e-01f,+6.62145615e-02f,-2.00486228e-01f,-7.13786632e-02f,
-2.29427963e-02f,+1.13108188e-01f,-1.90346375e-01f,-5.17512858e-03f,-1.39802545e-01f,
-1.75586909e-01f,+8.11712444e-02f,+1.38591945e-01f,-4.95673567e-02f,+2.13685721e-01f,
+1.16886526e-01f,-7.70488530e-02f,-8.66832286e-02f,-1.61068827e-01f,-1.79252893e-01f,
-1.95897743e-01f,-1.57926142e-01f,-1.39689595e-01f,-5.75712323e-02f,+1.24188662e-02f,
-1.87011361e-02f,-8.76426399e-02f,+1.82926834e-01f,+1.49645418e-01f,-1.21592104e-01f,
+1.27315760e-01f,-1.31790906e-01f,-3.55666131e-02f,-1.15479521e-01f,-2.32418925e-02f,
+3.64042819e-02f,+1.53889269e-01f,+1.29430711e-01f,-9.79190767e-02f,+1.59016907e-01f,
-1.02146879e-01f,+4.91398573e-02f,+1.55358762e-01f,+3.87529433e-02f,+4.51865792e-02f,
+2.08979130e-01f,+1.28759056e-01f,-1.36959881e-01f,-1.83559224e-01f,+1.13597929e-01f,
-1.70251369e-01f,-6.65185750e-02f,-5.81887215e-02f,-1.62655115e-01f,-2.41020322e-02f,
+1.75829768e-01f,+1.61373228e-01f,-2.02140249e-02f,-5.67174191e-03f,+1.78329237e-02f,
+3.44549902e-02f,-1.55483246e-01f,+1.48241714e-01f,-4.98033427e-02f,-1.10322818e-01f,
-1.52605042e-01f,-1.62914261e-01f,+1.74042642e-01f,-6.27495572e-02f,+1.35918200e-01f,
-2.14585856e-01f,+1.31572917e-01f,+5.54105220e-03f,+8.93858001e-02f,-2.26165578e-01f,
+6.52069747e-02f,+1.31637082e-01f,-7.42544904e-02f,+3.89892831e-02f,-1.08544827e-01f,
-3.11447829e-02f,-1.03754541e-02f,-6.10240996e-02f,+1.30868450e-01f,+1.97516814e-01f,
+1.52469799e-01f,-2.21360385e-01f,+1.52297318e-02f,+2.12604180e-01f,-9.02729779e-02f,
+1.85149848e-01f,+2.30674863e-01f,+1.59363955e-01f,+1.83270231e-01f,-1.41539216e-01f,
-2.06149176e-01f,+6.59720749e-02f,-9.84865427e-02f,-2.07281172e-01f,+1.85890108e-01f,
+2.15083733e-01f,+1.22115850e-01f,+1.23904593e-01f,+1.98988602e-01f,+4.24386412e-02f,
+9.62874591e-02f,-8.79855603e-02f,+2.23763764e-01f,+1.84915200e-01f,-3.96325961e-02f,
+1.28214866e-01f,+1.54731035e-01f,+9.94527340e-02f,-6.43574893e-02f,+9.37110782e-02f,
-1.13909170e-01f,-1.97139814e-01f,-1.04600549e-01f,-1.13390505e-01f,-8.88203084e-02f,
-3.66592854e-02f,+8.48561823e-02f,-5.15999645e-02f,+1.06111169e-03f,-1.30262077e-02f,
+1.21541768e-01f,-6.41312897e-02f,+4.25069332e-02f,+2.27577478e-01f,-1.60571784e-01f,
+1.80486590e-02f,-1.83991373e-01f,-1.65648758e-01f,+1.17740989e-01f,+6.67164028e-02f,
-7.24638999e-02f,-3.27864736e-02f,-1.24895371e-01f,+1.00361586e-01f,+6.27597272e-02f,
-8.67220759e-03f,-6.05499148e-02f,-2.28869200e-01f,+6.83334470e-02f,+6.49998188e-02f,
+1.15354538e-01f,+1.64235801e-01f,+2.26821601e-02f,-5.20810038e-02f,-1.49840921e-01f,
+8.15895498e-02f,-1.17210731e-01f,+7.82383382e-02f,+1.98569328e-01f,-6.79860562e-02f,
+1.11503631e-01f,-1.28733858e-01f,+4.00696695e-03f,-3.79448384e-02f,+2.80290842e-05f,
+6.36977851e-02f,+2.61947513e-02f,+1.08449191e-01f,+5.45111597e-02f,-1.51060477e-01f,
-1.70843259e-01f,-9.36664939e-02f,-1.19218238e-01f,+1.11684203e-02f,+4.62593436e-02f,
+6.13506138e-02f,-1.56897902e-02f,+4.13511693e-02f,-8.78693163e-03f,+1.03229254e-01f,
-1.71251506e-01f,-7.46977180e-02f,+6.20314181e-02f,+1.85983360e-01f,+2.14993268e-01f,
+1.90130234e-01f,+2.48937309e-03f,-1.77179605e-01f,+9.94282365e-02f,-5.85082471e-02f,
-9.74963754e-02f,+1.93351984e-01f,-1.06412470e-02f,+6.30483329e-02f,+9.27546918e-02f,
+1.95560575e-01f,-6.53402507e-03f,+1.36236191e-01f,-1.45450383e-01f,-2.25385651e-01f,
+3.76078784e-02f,+1.28310561e-01f,+1.31161243e-01f,+2.54002213e-02f,+6.41166866e-02f,
-1.01151437e-01f,+1.00031555e-01f,-1.69069171e-02f,+2.19714135e-01f,+7.15216398e-02f,
+1.83447033e-01f,+8.43054354e-02f,-6.11911863e-02f,+9.34464335e-02f,+1.21767819e-01f,
-3.77226621e-02f,-1.83371454e-02f,+8.16231370e-02f,+2.13052154e-01f,+1.84896469e-01f,
-2.19166115e-01f,-1.38281152e-01f,-1.66124940e-01f,+1.47681177e-01f,-8.95773619e-02f,
-1.05206668e-02f,+1.18816406e-01f,+1.95937634e-01f,+8.49488080e-02f,-1.19475611e-01f,
+6.56162798e-02f,+2.80999243e-02f,+8.79411697e-02f,+9.22543108e-02f,-7.89109468e-02f,
-3.56843174e-02f,+2.09243536e-01f,+8.69874060e-02f,-1.45668641e-01f,-9.14009511e-02f,
+1.28495306e-01f,-6.71620071e-02f,+2.13164300e-01f,-6.92419782e-02f,+1.02343440e-01f,
+1.20054543e-01f,-1.80268496e-01f,-1.80426151e-01f,+6.59467354e-02f,-5.47051355e-02f,
-2.00462222e-01f,-1.39122427e-01f,-3.71254236e-02f,-2.06180573e-01f,-1.77289441e-01f,
-1.84247524e-01f,-1.47657037e-01f,+1.13621302e-01f,-1.90180391e-01f,+6.18032627e-02f,
-1.99806198e-01f,-2.16988489e-01f,-9.70862620e-03f,-2.23445579e-01f,-2.04862699e-01f,
-1.28349485e-02f,+1.27653480e-01f,-2.26212889e-02f,+2.10496858e-01f,-2.23319679e-01f,
+1.27758160e-01f,-1.19332552e-01f,+1.07662171e-01f,-6.01027012e-02f,+1.57984391e-01f,
+6.37632236e-02f,-1.47567227e-01f,+9.25902650e-02f,-4.35062014e-02f,-2.65491512e-02f,
-1.09633274e-01f,+5.15141040e-02f,-2.17222467e-01f,-1.27613679e-01f,-1.26628235e-01f,
+1.23887420e-01f,+1.39210925e-01f,-6.94961697e-02f,-1.53313383e-01f,+3.17402184e-03f,
-2.20111623e-01f,+2.43621469e-02f,-2.65625957e-02f,-9.69382003e-02f,+3.75615917e-02f,
+2.15973198e-01f,+4.40719426e-02f,-2.33202428e-02f,+1.59280300e-01f,+2.29191370e-02f,
-2.07187772e-01f,-3.84612530e-02f,-2.50492990e-03f,-2.14264721e-01f,+6.15336373e-02f,
+1.47949323e-01f,-2.25749034e-02f,-6.09318912e-02f,+2.09086478e-01f,-1.23734482e-01f,
-2.28276417e-01f,-1.78972632e-01f,-1.61176115e-01f,-1.09721214e-01f,+9.87032354e-02f,
+1.25437498e-01f,-1.65094227e-01f,+1.15175307e-01f,-3.61704826e-02f,+1.74902380e-01f,
+1.12309307e-02f,+2.19444066e-01f,-9.77086574e-02f,+2.07535505e-01f,-5.83606809e-02f,
+1.54309779e-01f,-3.18152010e-02f,-1.93978146e-01f,-9.99883860e-02f,-2.20896065e-01f,
+1.61556870e-01f,-7.16294348e-03f,+1.54112667e-01f,+1.76224500e-01f,+6.02070689e-02f,
-1.52510464e-01f,-4.33297157e-02f,+1.96954012e-01f,-1.20442092e-01f,+2.14760631e-01f,
-3.75329554e-02f,+1.07089579e-02f,+1.61768436e-01f,+2.30956495e-01f,-1.85316429e-01f,
+1.29890054e-01f,-2.05378532e-02f,+9.33471024e-02f,-4.75659072e-02f,+1.70648187e-01f,
+8.28485489e-02f,+1.54993773e-01f,-7.66242146e-02f,-1.16197616e-02f,+4.08866405e-02f,
-6.14650100e-02f,-1.92489028e-01f,+1.67126060e-02f,+2.41126716e-02f,-1.38618320e-01f,
+3.03495228e-02f,-3.14602107e-02f,+2.29505897e-01f,+1.58317775e-01f,+2.15582967e-01f,
-6.96505606e-03f,+1.95421904e-01f,-1.38939157e-01f,-1.82409137e-02f,+1.03232175e-01f,
+1.23881549e-01f,+1.66741610e-01f,+7.44180903e-02f,-3.75572145e-02f,-1.07722752e-01f,
-3.65103483e-02f,-1.89596228e-03f,-8.72191116e-02f,+9.38633755e-02f,+8.43563676e-02f,
-2.27653623e-01f,+1.01089835e-01f,+2.19472408e-01f,+8.42125863e-02f,+1.41519189e-01f,
-1.42167330e-01f,-8.01588148e-02f,+2.33004689e-01f,-2.09610313e-01f,-8.73441622e-02f,
+1.60573255e-02f,-8.23799819e-02f,-1.21874936e-01f,+2.41125468e-02f,+2.59452462e-02f,
+1.29068702e-01f,+6.35813847e-02f,-7.71100000e-02f,+1.71260908e-01f,+1.08853579e-01f,
-9.50124115e-02f,+1.95130616e-01f,-1.36486933e-01f,-9.82921720e-02f,+3.59382965e-02f,
+1.57538846e-01f,+5.85734844e-02f,+1.68259054e-01f,-1.35929152e-01f,+1.29422983e-02f,
+6.50978312e-02f,-3.36236060e-02f,-6.90207481e-02f,-1.65700123e-01f,+5.60263619e-02f,
+1.94341406e-01f,-1.30674317e-01f,-6.25575781e-02f,-5.67104258e-02f,-2.06270918e-01f,
+2.43456829e-02f,+2.36389730e-02f,-1.26277119e-01f,+2.07439587e-01f,+9.87087488e-02f,
+1.35691673e-01f,+9.55387950e-02f,-1.99297965e-01f,+1.96265727e-01f,-1.35246754e-01f,
+1.69757366e-01f,-7.09581971e-02f,-3.00392439e-03f,+3.14432778e-03f,+1.25478551e-01f,
+8.25164542e-02f,-1.51698127e-01f,-1.90267220e-01f,-9.98977274e-02f,-1.70436665e-01f,
+1.75730169e-01f,+1.80012554e-01f,+2.10409239e-01f,-1.55468941e-01f,-1.05597377e-02f,
-2.02624023e-01f,+4.67579104e-02f,+8.31700563e-02f,-6.14445060e-02f,+8.37706476e-02f,
+9.97371376e-02f,-1.19865328e-01f,+4.53237854e-02f,+1.98938414e-01f,+9.94040221e-02f,
-2.07322150e-01f,-1.30323723e-01f,-2.03888029e-01f,-1.22276545e-01f,-1.24309935e-01f,
+3.28989164e-03f,+1.26674667e-01f,-1.01842411e-01f,-3.40622442e-04f,-5.57924509e-02f,
+1.19392872e-01f,+5.38891070e-02f,-2.13866562e-01f,-3.59276906e-02f,+1.24045985e-03f,
+5.63603686e-03f,+2.33050913e-01f,+1.13640755e-01f,-5.50964884e-02f,+1.55091584e-01f,
+1.15982302e-01f,-8.84586871e-02f,-1.56402305e-01f,+9.62226540e-02f,+1.07329059e-02f,
-1.67299509e-01f,-1.71618193e-01f,+1.29577860e-01f,+2.95578241e-02f,+4.13740799e-02f,
-1.88038558e-01f,-1.28925191e-02f,-1.47779316e-01f,-1.96743265e-01f,-1.82566166e-01f,
+9.02834162e-02f,-1.90580621e-01f,-5.40973581e-02f,+4.64118570e-02f,+1.79221511e-01f,
+2.11561367e-01f,-2.17685699e-01f,+1.66594192e-01f,+1.74326718e-01f,-2.13127527e-02f,
-1.81899548e-01f,-1.41772879e-02f,-4.52249348e-02f,-5.10941595e-02f,+9.60141569e-02f,
-6.31264597e-03f,-4.39239964e-02f,-2.02192485e-01f,+1.41651958e-01f,+3.19773853e-02f,
+2.05349088e-01f,-1.31163597e-01f,-1.73589051e-01f,+1.48266613e-01f,-3.56087685e-02f,
-1.95142955e-01f,-6.50338754e-02f,+1.95718810e-01f,+1.95371225e-01f,-2.19718561e-01f,
+9.04166773e-02f,-1.00783892e-02f,-8.16571414e-02f,-1.46235257e-01f,-8.94027501e-02f,
+4.67301980e-02f,-1.70694008e-01f,-4.92076240e-02f,+1.90996766e-01f,-9.69298854e-02f,
+1.63175806e-01f,+4.85059097e-02f,+1.78516641e-01f,-1.40938818e-01f,+1.57672703e-01f,
-9.39913318e-02f,-1.60752803e-01f,+1.47045881e-01f,-2.42201407e-02f,+8.70723799e-02f,
+9.45143402e-02f,+1.44442990e-01f,+2.13160768e-01f,+8.36438686e-03f,+3.81108820e-02f,
+1.80791736e-01f,+2.26436421e-01f,+4.72290814e-03f,+1.22558765e-01f,-4.48210575e-02f,
-2.16023281e-01f,+9.04733874e-03f,+4.89736497e-02f,+9.70751047e-03f,+9.95113552e-02f,
-4.58198972e-02f,+1.32229179e-01f,+7.56747797e-02f,-7.00137168e-02f,-6.90497160e-02f,
-1.79890081e-01f,+2.26058766e-01f,-1.04365140e-01f,-1.14240736e-01f,-2.11016387e-01f,
+1.89500943e-01f,-1.71692744e-01f,+2.24160552e-02f,+5.70551455e-02f,-7.18037859e-02f,
+8.43738392e-02f,-4.39242125e-02f,+1.96332037e-01f,+1.86680228e-01f,-6.34876937e-02f,
-1.71866626e-01f,+1.50995687e-01f,-1.25385821e-01f,-1.10519439e-01f,-1.00743540e-01f,
-4.30821143e-02f,+1.40006602e-01f,-9.12688226e-02f,-2.05311999e-01f,+1.97446141e-02f,
+8.73669907e-02f,+9.26961601e-02f,-1.67402595e-01f,+2.16865450e-01f,+1.35369822e-01f,
-7.25007281e-02f,+1.93090960e-01f,-9.42507237e-02f,+1.15201525e-01f,-1.18493006e-01f,
+1.84320733e-02f,-1.40924037e-01f,-1.39453605e-01f,-2.33154148e-01f,+1.23962313e-01f,
+8.92364010e-02f,+1.28455311e-01f,-1.23965926e-01f,+1.78464800e-01f,-1.86850742e-01f,
-9.28612202e-02f,-1.96121737e-01f,-2.73110699e-02f,-1.38127968e-01f,+1.33426040e-01f,
+3.53251733e-02f,-2.07745284e-02f,+9.65949222e-02f,-1.24285489e-01f,+6.51013777e-02f,
-4.91755977e-02f,-1.31439105e-01f,+1.58903256e-01f,+2.16666132e-01f,+1.86331734e-01f,
+1.51440695e-01f,+1.68375045e-01f,-3.18033397e-02f,-2.03877196e-01f,+1.93907648e-01f,
+1.84300635e-02f,-8.60297680e-02f,+1.86869293e-01f,-1.23172075e-01f,-1.65128440e-01f,
+1.44753754e-02f,-1.93782955e-01f,-2.03439236e-01f,-1.67489901e-01f,+5.10893688e-02f,
+1.60469532e-01f,-2.10928917e-02f,-1.42133713e-01f,-1.81546226e-01f,+1.74224719e-01f,
+1.67315587e-01f,-7.03127608e-02f,-6.28566742e-02f,+1.48763001e-01f,-1.82319134e-01f,
-4.41311821e-02f,-5.32502048e-02f,-1.48144811e-01f,-1.75849780e-01f,-6.88013807e-02f,
-1.38661414e-01f,+4.34182286e-02f,-4.14494202e-02f,-1.24508530e-01f,+5.17054461e-02f,
+1.63835838e-01f,+1.58494860e-02f,-1.24715604e-02f,+1.59159079e-01f,-2.09391475e-01f,
+1.80695057e-01f,+1.29791468e-01f,-8.94252658e-02f,-1.88607529e-01f,+1.20867394e-01f,
+1.68739762e-02f,+1.98696569e-01f,-2.06958726e-01f,+6.85240030e-02f,-1.92319024e-02f,
+6.27553985e-02f,+2.05700874e-01f,-1.35422558e-01f,-5.72842807e-02f,-2.01836154e-01f,
-1.06599830e-01f,-2.25059852e-01f,-1.18178166e-01f,-1.53590083e-01f,+1.07826993e-01f,
-1.31166875e-01f,+1.25362381e-01f,+1.83313668e-01f,+3.44188847e-02f,-5.06683774e-02f,
+1.87230438e-01f,-1.85371935e-01f,-2.16254175e-01f,-2.17598394e-01f,-3.14047001e-02f,
+1.46579012e-01f,+1.12741165e-01f,+1.16373919e-01f,+1.78801551e-01f,+9.01241601e-02f,
-1.82570130e-01f,+1.54410690e-01f,+7.04401284e-02f,-1.17221907e-01f,-1.06306583e-01f,
-6.74908459e-02f,+7.08943605e-03f,+1.73700631e-01f,+1.75226957e-01f,+1.38863936e-01f,
-1.88516863e-02f,-1.16337240e-02f,+1.06308982e-01f,-1.82388961e-01f,+8.28739926e-02f,
-1.93766892e-01f,-1.12142712e-02f,+9.23835263e-02f,+9.56577584e-02f,-1.69255465e-01f,
-1.82618305e-01f,+4.89192307e-02f,+2.76653357e-02f,+4.63741310e-02f,-1.82366729e-01f,
-1.77832752e-01f,+5.00563346e-02f,-8.07525683e-03f,+1.02917582e-01f,-1.83691114e-01f,
-1.01167103e-02f,-1.86685726e-01f,+8.62890854e-02f,-1.51569083e-01f,-8.38173628e-02f,
-4.09067422e-02f,-2.20913589e-01f,-3.65634859e-02f,+1.12364320e-02f,+1.39122397e-01f,
-1.60356432e-01f,+4.73052859e-02f,-2.25145653e-01f,+1.27332717e-01f,-9.42897946e-02f,
-1.26455560e-01f,+1.28293633e-02f,+2.06961080e-01f,+4.50282842e-02f,-8.73349458e-02f,
-5.81354946e-02f,+1.35020152e-01f,-1.00141488e-01f,+1.72906995e-01f,-3.45642492e-03f,
-1.05936468e-01f,-1.01623654e-01f,+1.56415865e-01f,+1.03957281e-01f,-1.73717603e-01f,
+2.25640610e-01f,+2.18651548e-01f,-1.91453665e-01f,+2.30201334e-01f,-1.67067289e-01f,
-1.76886082e-01f,+1.57453910e-01f,-1.25210598e-01f,+2.88834870e-02f,-2.23394915e-01f,
-1.64215431e-01f,-1.29290789e-01f,-1.72264814e-01f,-1.23880424e-01f,-1.09476075e-01f,
-1.91377193e-01f,+1.89381406e-01f,-1.70651689e-01f,-1.27585471e-01f,-1.90141499e-01f,
-1.47722557e-01f,+1.68661177e-01f,+8.72393474e-02f,-1.09021544e-01f,-1.21399023e-01f,
-2.23655850e-01f,+1.31537423e-01f,+7.76779428e-02f,-1.29308611e-01f,+3.47780287e-02f,
-1.56090051e-01f,+4.24975418e-02f,+1.68581605e-01f,+4.04503308e-02f,-5.50994426e-02f,
+1.34228066e-01f,+9.42759216e-02f,+1.53377101e-01f,+1.50287241e-01f,+3.88392210e-02f,
+2.04324022e-01f,+1.66060150e-01f,+2.08061725e-01f,-3.69804390e-02f,-1.45724744e-01f,
-7.53522962e-02f,-1.39672428e-01f,-1.00603975e-01f,-2.16045976e-02f,-1.27104372e-01f,
+6.98380321e-02f,+4.22676131e-02f,+1.06454425e-01f,-5.79786450e-02f,+1.57642484e-01f,
-1.77939579e-01f,-1.23950556e-01f,-1.35368638e-04f,-1.40228614e-01f,+3.94726992e-02f,
+8.48982409e-02f,+1.22396454e-01f,+1.56468585e-01f,+5.90319075e-02f,+9.24245790e-02f,
+8.33332315e-02f,+1.08545668e-01f,-2.03470424e-01f,+1.11282468e-02f,+1.02543838e-01f,
+1.18451267e-01f,-1.59633994e-01f,-1.50391370e-01f,+2.02990383e-01f,-1.32477984e-01f,
-1.27523214e-01f,+6.29850253e-02f,+2.21027181e-01f,+6.29074126e-02f,-2.09573075e-01f,
-1.16117291e-01f,-9.24539864e-02f,-2.11960331e-01f,-1.30436450e-01f,+1.19448960e-01f,
+1.54668942e-01f,-1.17611110e-01f,-1.76615357e-01f,-5.84057719e-02f,+1.80605263e-01f,
+1.73583161e-02f,-1.23148091e-01f,+2.09430173e-01f,-6.40966445e-02f,+2.19745874e-01f,
+3.47094610e-02f,-7.17379078e-02f,+4.29438166e-02f,+1.30779877e-01f,+1.80186361e-01f,
-1.12027548e-01f,+1.49124846e-01f,-1.92141682e-01f,+1.47807449e-01f,+2.12802425e-01f,
+9.01968777e-03f,-9.60543752e-02f,+1.90366715e-01f,-2.25436598e-01f,-7.47306645e-02f,
-1.81368172e-01f,-1.93665892e-01f,+2.21609294e-01f,-7.91561231e-02f,-2.29033306e-01f,
+8.22513700e-02f,+2.05484465e-01f,+2.01650709e-01f,-4.74689454e-02f,-1.73113838e-01f,
+1.01698622e-01f,+1.73199624e-02f,+8.89794007e-02f,-1.18115179e-01f,+2.26075158e-01f,
+1.92496721e-02f,-2.24359017e-02f,+1.96900785e-01f,+6.76478669e-02f,-1.03243157e-01f,
+1.09300427e-01f,+9.21181142e-02f,+4.61783409e-02f,+1.11300521e-01f,+2.78728604e-02f,
-3.62319127e-02f,-1.45862341e-01f,-8.71606171e-02f,+1.28048718e-01f,+1.37394503e-01f,
-4.86822724e-02f,+1.06531687e-01f,-1.49417564e-01f,-8.90038908e-03f,+4.23285961e-02f,
+2.00593188e-01f,+1.22643195e-01f,-7.88597576e-03f,-1.20686740e-02f,-6.49265349e-02f,
-1.44759044e-01f,-1.45657063e-02f,+1.16011977e-01f,-1.24680877e-01f,+1.17223069e-01f,
-1.68575749e-01f,-2.13200197e-01f,-4.00499701e-02f,+1.54460669e-01f,+5.55463228e-03f,
+5.22219017e-02f,-4.44793375e-03f,+2.53186733e-01f,+4.56808731e-02f,+8.27243999e-02f,
-7.89554641e-02f,+5.63714392e-02f,+3.87513340e-02f,-1.52411908e-01f,-8.63306075e-02f,
+4.29351330e-02f,+2.15354338e-01f,-9.12688673e-02f,-2.00149417e-03f,-1.29738420e-01f,
-1.26724482e-01f,-9.91327167e-02f,-1.77014187e-01f,+1.51422080e-02f,-9.41165015e-02f,
+1.86708406e-01f,-9.51766968e-02f,-1.95244164e-03f,-1.67162687e-01f,-5.09319501e-03f,
+2.15559542e-01f,-2.49337941e-01f,+4.28259671e-02f,-9.81575847e-02f,+2.38187909e-01f,
-1.81186553e-02f,-7.40171522e-02f,-1.22617990e-01f,+9.28554684e-02f,-2.29378015e-01f,
-2.61759758e-02f,-1.00768894e-01f,-1.43689275e-01f,+2.68587712e-02f,-3.67575735e-02f,
-3.64891589e-02f,-2.48408765e-02f,-7.48080313e-02f,+1.51999384e-01f,-2.97690183e-02f,
+2.38419235e-01f,-8.90508518e-02f,-1.83731318e-02f,-1.81643024e-01f,+1.68364868e-01f,
-1.74583912e-01f,-2.43108403e-02f,-1.62963122e-02f,+1.56163275e-01f,+3.89033742e-02f,
+5.47339320e-02f,-6.57735467e-02f,+1.14997841e-01f,+2.27635100e-01f,+2.51445442e-01f,
+2.54171669e-01f,+8.47283006e-03f,-9.14707556e-02f,+4.13250849e-02f,+2.23780170e-01f,
+2.02129692e-01f,-1.68216124e-01f,-1.43623650e-01f,-1.10395160e-02f,-1.69009909e-01f,
+8.64438489e-02f,+1.06357008e-01f,+2.01914340e-01f,-1.87001288e-01f,-4.27110046e-02f,
+7.57429451e-02f,-1.13780268e-01f,-2.26850107e-01f,-1.42477721e-01f,-1.96938828e-01f,
+2.20849991e-01f,+1.89329430e-01f,-2.13418379e-01f,+1.88497066e-01f,+1.35320604e-01f,
-4.26067114e-02f,+6.09568506e-02f,+7.11678267e-02f,+1.46431670e-01f,-1.08370684e-01f,
+4.63699456e-03f,+1.61457419e-01f,+2.66109388e-02f,-7.25439042e-02f,+1.52897254e-01f,
-1.83891892e-01f,+1.50288463e-01f,-4.20509577e-02f,+1.76771313e-01f,+2.10836619e-01f,
+2.28705108e-02f,-2.13902533e-01f,+1.05477691e-01f,+7.76001215e-02f,-1.75644800e-01f,
+1.56699747e-01f,+2.17709959e-01f,+1.69862598e-01f,+2.31016815e-01f,-8.80306959e-02f,
+2.28777975e-01f,+2.17111319e-01f,-8.45212042e-02f,+1.27352774e-02f,-2.16530740e-01f,
+1.64655030e-01f,+8.45758319e-02f,+1.76575840e-01f,+7.58559108e-02f,+2.15795964e-01f,
-4.72075492e-02f,+1.63045973e-01f,-3.79310399e-02f,-2.24565297e-01f,+1.39263242e-01f,
+2.01844662e-01f,+1.70844018e-01f,+9.33809280e-02f,-1.06159240e-01f,+1.99418485e-01f,
-8.83918703e-02f,+1.79940373e-01f,-1.27828479e-01f,+2.09540963e-01f,-1.87832281e-01f,
-1.00982293e-01f,-6.32399768e-02f,+9.74978209e-02f,+4.93963361e-02f,+2.53202915e-02f,
+3.30122411e-02f,-1.11692190e-01f,-1.42131671e-01f,-8.74991715e-02f,-2.22263113e-01f,
-1.67607754e-01f,-3.28995436e-02f,+1.22620314e-02f,+9.32142138e-02f,-9.50199366e-03f,
+1.69607222e-01f,+1.62530512e-01f,+1.36684865e-01f,-1.89546213e-01f,-8.78442228e-02f,
+4.66521382e-02f,-1.73081711e-01f,-1.92265972e-01f,-1.19791865e-01f,-8.16256404e-02f,
-1.37018964e-01f,-1.07998952e-01f,+6.13653772e-02f,+1.47197664e-01f,-1.09537616e-01f,
-2.41116434e-02f,+5.14944494e-02f,-1.05465129e-01f,-3.22450697e-02f,-1.41888589e-01f,
+8.60345960e-02f,-1.05558567e-01f,-1.50109768e-01f,-7.28719383e-02f,-1.91172659e-01f,
-5.49255311e-03f,-1.21319219e-02f,+5.93929067e-02f,-1.92239061e-01f,+1.84495732e-01f,
+9.22647417e-02f,-2.13800430e-01f,-5.60199581e-02f,-1.96338654e-01f,+3.01112533e-02f,
+1.27485812e-01f,-1.56166732e-01f,-1.79573521e-01f,-1.00081049e-01f,-9.83140767e-02f,
+9.84835625e-02f,+5.38571291e-02f,+2.66924109e-02f,+7.69707337e-02f,+1.94980368e-01f,
-4.56506647e-02f,+1.33657619e-01f,-1.58276279e-02f,-5.34360670e-02f,-2.33354047e-01f,
+8.99291337e-02f,-6.17983192e-02f,+6.42339140e-02f,+9.30980593e-02f,-3.24044202e-04f,
-1.87537774e-01f,-1.60688996e-01f,-2.19152227e-01f,-1.45185068e-01f,-3.93714868e-02f,
-1.07849076e-01f,-1.23487748e-01f,-5.00438139e-02f,+9.94872153e-02f,-2.91174259e-02f,
+1.03496909e-01f,-4.64916863e-02f,-1.78270985e-03f,+3.76864336e-03f,+8.58495235e-02f,
+1.83310822e-01f,-1.74956903e-01f,-2.27386109e-03f,+5.76844104e-02f,+2.38378048e-02f,
+1.21627301e-01f,+9.46162045e-02f,+1.92859173e-02f,-1.36562318e-01f,-1.39308989e-01f,
-3.88682783e-02f,-5.96099198e-02f,+1.56869650e-01f,+9.69092846e-02f,+1.57074779e-01f,
+1.34389460e-01f,-2.04716399e-01f,-2.04278365e-01f,-9.16716158e-02f,-8.82830471e-02f,
+1.35144740e-02f,+1.98287845e-01f,+9.96384621e-02f,-8.36498588e-02f,+2.73880064e-02f,
+1.11311764e-01f,-1.27345681e-01f,+1.88560158e-01f,-1.86678350e-01f,+2.79806852e-02f,
-1.63742840e-01f,+1.72594190e-02f,-6.79359585e-02f,-1.85366750e-01f,-5.46734482e-02f,
-9.98412222e-02f,+1.91011280e-01f,+1.96584344e-01f,+6.80559874e-02f,+1.63087249e-02f,
+1.31269634e-01f,-1.72436893e-01f,+1.79848075e-03f,+9.62612033e-02f,-5.85310906e-02f,
+1.56002283e-01f,-1.83584720e-01f,+2.63598561e-03f,-2.59187073e-02f,+2.81394422e-02f,
+9.81887579e-02f,+6.72582090e-02f,-1.84902251e-02f,-1.85241938e-01f,-1.57879189e-01f,
-1.35822088e-01f,-1.13243774e-01f,-2.21550524e-01f,-1.67746156e-01f,-1.74636006e-01f,
+1.45721674e-01f,+2.21501082e-01f,-1.51178688e-01f,+6.53469861e-02f,+2.26486623e-01f,
-1.63678765e-01f,+4.28308249e-02f,-1.02458060e-01f,+1.62629366e-01f,-1.09829865e-01f,
-2.93134153e-02f,+1.19110674e-01f,-1.41173199e-01f,-1.33581430e-01f,+1.11951232e-01f,
-1.13758191e-01f,+2.07279831e-01f,+3.56826484e-02f,+7.28594959e-02f,-2.36838460e-02f,
-1.60309449e-01f,-2.06171036e-01f,-2.02395231e-01f,-1.78023472e-01f,-2.16974914e-01f,
-5.68692386e-02f,+1.88990027e-01f,+1.76778644e-01f,-5.63685596e-03f,-1.15900680e-01f,
-1.22449599e-01f,+1.40049279e-01f,+1.70263112e-01f,+7.02746809e-02f,+8.69876146e-02f,
-1.83153078e-01f,+7.36371577e-02f,+1.63265556e-01f,-3.92009169e-02f,+1.94370836e-01f,
-7.46410489e-02f,+1.70050114e-01f,+1.60040498e-01f,+2.26384580e-01f,+4.30743992e-02f,
+1.52655989e-02f,+2.14028120e-01f,+3.35763693e-02f,+1.97781622e-03f,+1.46855861e-01f,
+1.54794753e-03f,-7.11001456e-03f,+7.72010386e-02f,-1.84849024e-01f,-1.21893793e-01f,
+2.79725194e-02f,+7.54409134e-02f,-1.75779998e-01f,+7.32594132e-02f,-2.29776025e-01f,
+2.05515832e-01f,+5.99188209e-02f,+1.92637414e-01f,+2.05404818e-01f,-1.21798933e-01f,
-5.82250357e-02f,-1.70308977e-01f,-5.59437722e-02f,+1.80862814e-01f,+1.64804608e-01f,
-6.42669350e-02f,+1.32764041e-01f,+2.34799773e-01f,-1.36764839e-01f,+1.61263004e-01f,
+1.56435102e-01f,+3.49565148e-02f,-1.87943399e-01f,-1.52957603e-01f,-2.00935781e-01f,
+1.64784580e-01f,+1.64958835e-03f,-9.77487266e-02f,-1.07744396e-01f,+4.38268445e-02f,
-4.25233170e-02f,+1.23605102e-01f,-1.05916932e-01f,-1.09939791e-01f,+2.03072831e-01f,
-1.11255683e-01f,+1.36809647e-01f,+1.92295223e-01f,-2.00434010e-02f,-1.12274349e-01f,
-3.79290581e-02f,-7.69114494e-02f,+1.34866953e-01f,-7.71807740e-03f,-1.12549029e-01f,
+1.42266974e-01f,-1.73622727e-01f,-7.33671114e-02f,+1.28919750e-01f,+2.41860732e-01f,
+1.18482485e-01f,+1.89252481e-01f,-1.12253865e-02f,-9.88263562e-02f,+1.38932452e-01f,
+2.19185114e-01f,+7.89860412e-02f,+9.01349857e-02f,-2.10528299e-01f,-1.47219926e-01f,
+1.46847740e-01f,-9.96304974e-02f,-1.19664393e-01f,-1.36343837e-01f,+1.26262382e-01f,
-8.90730470e-02f,+1.63650364e-01f,+9.31487232e-02f,+8.41548145e-02f,+9.07478780e-02f,
-2.15758994e-01f,-2.11852238e-01f,+1.51278824e-01f,-2.29593977e-01f,+1.16593257e-01f,
-1.34816915e-01f,+8.53655636e-02f,+9.90628526e-02f,-2.17302199e-02f,-1.62021697e-01f,
+3.07731889e-02f,-1.61285818e-01f,+1.00839585e-02f,+2.01160073e-01f,-2.22431749e-01f,
-1.75287664e-01f,-7.38670379e-02f,+2.17948288e-01f,-1.26786560e-01f,-8.99817497e-02f,
+1.64369673e-01f,+1.07431382e-01f,-6.23198599e-02f,+6.52423501e-02f,-7.31617212e-04f,
-1.03867650e-01f,-1.70330390e-01f,-2.05994055e-01f,-3.37561518e-02f,-1.95819229e-01f,
+1.00661069e-01f,-2.29319826e-01f,-1.80994213e-01f,+2.02928364e-01f,+2.20981359e-01f,
+1.47169948e-01f,-1.14114881e-02f,+4.66448069e-02f,-1.66705519e-01f,-1.26932845e-01f,
+1.04682326e-01f,+5.27940094e-02f,-9.47299302e-02f,-7.71709234e-02f,-2.16428816e-01f,
+2.14340419e-01f,+2.71742940e-02f,+1.47221148e-01f,-9.87103432e-02f,+2.12140918e-01f,
+1.55992419e-01f,-3.09005976e-02f,-1.44372672e-01f,-1.28729045e-02f,+1.81656331e-02f,
-1.49347752e-01f,+1.52276099e-01f,-6.46944344e-02f,+5.71871996e-02f,-4.56256121e-02f,
-7.57339597e-03f,-2.27659911e-01f,+4.14374769e-02f,-1.30888432e-01f,-1.27842426e-01f,
-4.13237512e-02f,+1.68672413e-01f,+7.12650418e-02f,-1.08914435e-01f,+2.31159419e-01f,
-5.48727661e-02f,+1.21716261e-01f,-1.25240594e-01f,+2.13436902e-01f,-6.08027577e-02f,
-1.69046283e-01f,+2.08301675e-02f,+9.37858596e-02f,-1.56307846e-01f,-1.73975840e-01f,
-2.02900872e-01f,+3.44919562e-02f,-2.20730945e-01f,+7.69442916e-02f,-1.60632104e-01f,
-5.52952290e-03f,-9.38320309e-02f,+2.96408813e-02f,+1.10762127e-01f,+1.15781657e-01f,
+1.24306738e-01f,-1.94434062e-01f,+2.43056327e-01f,+2.22078599e-02f,+1.34939134e-01f,
-1.69457063e-01f,-1.82906255e-01f,-9.98833776e-02f,-2.80343741e-02f,+2.28096575e-01f,
-6.55356562e-03f,+1.34896562e-01f,+2.49657169e-01f,-6.34145439e-02f,-3.51406485e-02f,
-1.60021111e-01f,-6.20751679e-02f,+1.12071522e-01f,+3.39000449e-02f,-1.29688665e-01f,
+8.56656507e-02f,+6.86144605e-02f,-2.47712225e-01f,-2.48611495e-01f,+1.45708650e-01f,
+1.08641103e-01f,-1.54865146e-01f,+1.56645149e-01f,-4.68382565e-03f,+5.45053184e-02f,
-4.11093235e-02f,+4.26364541e-02f,-1.27630845e-01f,-1.49701700e-01f,-1.47613063e-01f,
+1.23231962e-01f,-1.88378301e-02f,-1.93820298e-01f,-2.16383129e-01f,-2.25964747e-02f,
+2.19541207e-01f,-1.59730762e-01f,-1.48570940e-01f,+1.80345535e-01f,+4.81435657e-02f,
-1.05971180e-01f,-2.16322150e-02f,-1.55182064e-01f,+1.30788693e-02f,+1.29551485e-01f,
-1.55822039e-02f,-1.69431359e-01f,-1.97393820e-01f,+1.36952579e-01f,+1.86499447e-01f,
-8.61722454e-02f,+1.02238387e-01f,+1.07685059e-01f,-1.67694181e-01f,+3.91496718e-03f,
-2.07303971e-01f,+1.84750244e-01f,+4.53744791e-02f,+1.89996153e-01f,+1.80780262e-01f,
-1.67944685e-01f,+1.62205053e-03f,-1.84781492e-01f,+1.94461167e-01f,-5.26066720e-02f,
-2.63158269e-02f,+8.43893830e-03f,-4.32920307e-02f,+1.48282200e-02f,+1.29796624e-01f,
-2.29947343e-01f,+2.27418654e-02f,+2.46927351e-01f,-3.39734107e-02f,+1.14322543e-01f,
-1.98875934e-01f,-4.85184640e-02f,+1.44164890e-01f,-1.27302185e-01f,+1.74360573e-01f,
-2.23710701e-01f,+1.11402273e-01f,-6.70483857e-02f,+1.51883468e-01f,+1.34268105e-01f,
-1.02532610e-01f,-6.32369071e-02f,-1.07329451e-01f,-9.58556905e-02f,+1.23260915e-01f,
+6.46843910e-02f,-1.53480768e-01f,+1.55067205e-01f,+8.11435357e-02f,+1.06456168e-01f,
+5.47016077e-02f,-3.62242348e-02f,-1.37221366e-01f,-1.51709139e-01f,-1.56367093e-01f,
+2.00402364e-01f,-1.18641399e-01f,+1.50203437e-01f,+6.27085567e-03f,-2.32625101e-02f,
+1.50660872e-01f,-1.47492841e-01f,+1.14941694e-01f,-1.95045234e-03f,+2.82976944e-02f,
+1.10361293e-01f,-9.18544382e-02f,-1.12548739e-01f,-2.29617372e-01f,+1.71121374e-01f,
-1.45361006e-01f,-1.28113925e-01f,-1.46330565e-01f,-1.28353268e-01f,-9.09577217e-03f,
+1.43752068e-01f,-6.39642254e-02f,+1.60315633e-01f,-1.83140442e-01f,+6.40148902e-03f,
+3.29318047e-02f,-1.10873498e-01f,-7.33016385e-03f,+1.37579560e-01f,-1.25116512e-01f,
+1.47557734e-02f,-1.10216700e-01f,+7.07906485e-03f,+1.79918036e-01f,-1.54450327e-01f,
+2.34504223e-01f,+1.86094195e-01f,+2.29236156e-01f,+1.58425853e-01f,+7.71789579e-03f,
+1.25789806e-01f,+5.83924204e-02f,-1.48645937e-01f,+1.33377060e-01f,+2.62522958e-02f,
+1.82669014e-01f,+1.54569447e-01f,+2.50753582e-01f,+2.77145440e-03f,-1.64735705e-01f,
+1.18845209e-01f,-1.82818174e-02f,-1.58563226e-01f,-1.22343756e-01f,+7.24655092e-02f,
-4.79681231e-02f,-2.80674845e-02f,-6.13962188e-02f,+4.51216176e-02f,+2.16774523e-01f,
-1.27674535e-01f,+1.12835854e-01f,-1.45061120e-01f,-1.38058886e-01f,+1.00576803e-01f,
+1.32137805e-01f,+1.79445177e-01f,-8.75633508e-02f,+1.00185290e-01f,+1.18936434e-01f,
-1.87737301e-01f,+1.66437149e-01f,+8.44142437e-02f,+9.00869370e-02f,+2.37726569e-01f,
-2.05526888e-01f,+1.74202919e-01f,+2.50040982e-02f,+1.26322180e-01f,-1.60025239e-01f,
-1.85990483e-02f,+1.17326081e-02f,-1.73284069e-01f,+3.19988392e-02f,-8.91607702e-02f,
+8.46243575e-02f,-3.48717952e-03f,-1.41170979e-01f,+4.67579346e-03f,+7.29142800e-02f,
+1.59175009e-01f,-1.07418336e-01f,-1.73734143e-01f,+1.25753075e-01f,-7.18674883e-02f,
-1.45161718e-01f,-2.46004462e-02f,-7.98490867e-02f,+7.57538304e-02f,-2.91856918e-02f,
+7.92746395e-02f,+1.13312751e-01f,-8.73353109e-02f,-2.21337721e-01f,+7.49374479e-02f,
-1.50676057e-01f,+1.99091718e-01f,+5.27518205e-02f,+2.06013769e-01f,-2.05222145e-01f,
-1.44055650e-01f,-1.32935598e-01f,-1.60815626e-01f,+5.47304153e-02f,-2.04056114e-01f,
+2.29496300e-01f,+1.18774131e-01f,-1.36256486e-01f,+9.07863677e-02f,-1.58121794e-01f,
-7.54359365e-03f,+4.06133942e-02f,+1.18985794e-01f,+1.59918338e-01f,-1.39525950e-01f,
-1.07974224e-01f,-7.43762776e-02f,-7.21649304e-02f,-2.39982642e-02f,+9.85479355e-02f,
+5.83905876e-02f,-1.68940663e-01f,+7.63678551e-02f,-1.52114719e-01f,-1.49582520e-01f,
-8.92798789e-03f,-1.76709574e-02f,-9.38499998e-03f,+5.29496372e-02f,-2.15120703e-01f,
+1.76748574e-01f,+4.66497540e-02f,+7.59271607e-02f,-1.35211542e-01f,+1.51427895e-01f,
+2.11969852e-01f,+1.64970666e-01f,-1.48553113e-02f,-1.83159798e-01f,-2.99578663e-02f,
+1.04161948e-01f,+1.89776778e-01f,-9.88408849e-02f,+2.01403685e-02f,-3.76066715e-02f,
+1.23185933e-01f,-1.00803077e-02f,+1.61225632e-01f,-9.42020416e-02f,-1.47878826e-01f,
-8.16479325e-02f,+1.47004604e-01f,+7.82209411e-02f,+1.59154236e-01f,+1.28895894e-01f,
-1.00727528e-02f,-7.94846341e-02f,-2.83070169e-02f,+6.43983707e-02f,+5.02189361e-02f,
-1.04655281e-01f,-1.78601429e-01f,-9.53396782e-02f,-2.39146367e-01f,-2.11297244e-01f,
+8.03456157e-02f,+1.69817954e-01f,+3.50949168e-03f,-4.56389524e-02f,+1.59711391e-01f,
-1.86693534e-01f,-2.28011936e-01f,-2.31166363e-01f,-1.65722389e-02f,-1.81832045e-01f,
+1.13022685e-01f,+4.89232223e-03f,-2.59755421e-02f,-4.56006750e-02f,+6.53750598e-02f,
+2.00270861e-01f,-1.28580332e-01f,+1.35826632e-01f,-1.54612900e-03f,-9.44144055e-02f,
+5.07937968e-02f,+1.93295017e-01f,+1.12650217e-02f,+1.69459790e-01f,+1.18661068e-01f,
+3.37205641e-02f,-2.20358580e-01f,+2.18286067e-01f,+1.18138462e-01f,+1.64210677e-01f,
+1.45836174e-01f,+2.25130133e-02f,+1.03770979e-01f,-1.32893786e-01f,+7.57160783e-02f,
+1.23083115e-01f,+1.12306820e-02f,-3.94224785e-02f,+3.71322967e-02f,-3.75420526e-02f,
-2.09799320e-01f,+2.03234985e-01f,+8.10496807e-02f,-1.78588644e-01f,+2.20050901e-01f,
+7.85429478e-02f,-2.19765324e-02f,+2.23271266e-01f,-4.15646881e-02f,+1.79076582e-01f,
+9.83953029e-02f,+2.29349528e-02f,-1.31908089e-01f,+2.05226749e-01f,-1.04679957e-01f,
-1.66999266e-01f,+9.89105478e-02f,+2.26518974e-01f,+1.08677603e-01f,+1.92205414e-01f,
-3.81660201e-02f,+1.26084968e-01f,-1.48385406e-01f,+1.98494866e-01f,-1.32044017e-01f,
+1.57651290e-01f,-8.64945054e-02f,+6.44021109e-02f,+1.10639453e-01f,-2.17150196e-01f,
-1.26410306e-01f,+1.54804319e-01f,+1.29324421e-02f,-2.16809914e-01f,+1.56313539e-01f,
-3.51334997e-02f,-1.99426189e-01f,-1.76815540e-01f,+1.55979186e-01f,-1.24561578e-01f,
-1.76746279e-01f,-7.57268071e-02f,+1.22467041e-01f,-9.57959369e-02f,+2.73850858e-02f,
+4.03847098e-02f,+5.53461164e-02f,+1.29880190e-01f,+1.36259021e-02f,-1.51233524e-01f,
-1.39890881e-02f,-1.47276625e-01f,-1.84371740e-01f,+5.07606268e-02f,+7.72220045e-02f,
-2.03537330e-01f,-3.44913043e-02f,+2.05047160e-01f,-2.28187576e-01f,-2.27834299e-01f,
+2.06407279e-01f,+1.82339072e-01f,+1.90927356e-01f,+2.12281018e-01f,-1.85262173e-01f,
-2.12496012e-01f,+1.10442385e-01f,-9.98174325e-02f,+2.08905697e-01f,-2.04232395e-01f,
-1.17893405e-01f,+2.02061445e-01f,-4.60925847e-02f,+1.07841015e-01f,+1.26650900e-01f,
+1.26507342e-01f,+1.99853331e-01f,+1.46843821e-01f,-1.90352052e-01f,-3.35649699e-02f,
+1.80297554e-01f,-1.48162037e-01f,+1.84692994e-01f,-1.70428064e-02f,+5.60982600e-02f,
+8.14762190e-02f,-9.64260921e-02f,-1.23932272e-01f,-1.82798699e-01f,+5.15066553e-03f,
-5.98931760e-02f,+1.10763155e-01f,+1.79768860e-01f,+2.05200732e-01f,-1.63308114e-01f,
-3.23719382e-02f,+1.73516765e-01f,+2.14174688e-01f,-2.17898831e-01f,+1.91316739e-01f,
+1.93949416e-01f,+1.03405468e-01f,-4.07201052e-02f,-1.87307343e-01f,-1.26985207e-01f,
+1.52092069e-01f,+1.93763331e-01f,+5.73297963e-02f,+8.09154809e-02f,-1.88235775e-01f,
-3.59962396e-02f,-1.31606311e-01f,+1.33258417e-01f,-2.31891170e-01f,+9.26671848e-02f,
-3.92154679e-02f,+2.11415797e-01f,-1.82123184e-02f,+2.30361924e-01f,+7.82495439e-02f,
+2.02237368e-01f,-2.13847011e-01f,+3.09615135e-02f,-1.42233700e-01f,-2.08152041e-01f,
-2.13525772e-01f,-1.72529653e-01f,-3.58309895e-02f,-1.90437809e-01f,+2.03255937e-01f,
-7.33464733e-02f,+3.68294492e-02f,+8.73857886e-02f,-6.62797391e-02f,+1.71363667e-01f,
+5.72929308e-02f,-1.96149379e-01f,+5.13987243e-03f,-2.06678249e-02f,+5.83806483e-04f,
+1.21652707e-01f,-1.91132948e-02f,+1.60898030e-01f,+1.20674588e-01f,-1.10910751e-01f,
+9.76515487e-02f,-6.06658570e-02f,+9.53712873e-03f,-5.15082404e-02f,-5.37875332e-02f,
-2.33863547e-01f,+5.31265028e-02f,-8.51480961e-02f,+2.01141283e-01f,+1.82505935e-01f,
+1.38370678e-01f,-1.44353077e-01f,+1.71518758e-01f,-9.05692279e-02f,-1.46263540e-02f,
-2.29856178e-01f,-1.62573949e-01f,-7.99103305e-02f,+3.05620767e-02f,+7.47176781e-02f,
-1.05102636e-01f,+2.31167525e-01f,-5.72423376e-02f,-1.78202242e-01f,-1.30314425e-01f,
+5.35872057e-02f,-1.81957990e-01f,-7.84343928e-02f,+2.36027494e-01f,+1.64304122e-01f,
-1.54738333e-02f,+1.60988733e-01f,}; 
k2c_tensor dense_44_kernel = {&dense_44_kernel_array[0],2,3072,{48,64, 1, 1, 1}}; 
float dense_44_bias_array[64] = {
-7.50446561e-05f,+1.21907513e-04f,-1.32337918e-05f,+0.00000000e+00f,+0.00000000e+00f,
+1.37867333e-04f,-2.06790748e-03f,-2.53819372e-03f,+0.00000000e+00f,+0.00000000e+00f,
+0.00000000e+00f,-8.21839273e-03f,-1.91662041e-03f,-1.91129438e-05f,+8.61053632e-05f,
+0.00000000e+00f,+9.57188662e-03f,+1.47754299e-02f,-6.63113734e-03f,-5.03307929e-05f,
+0.00000000e+00f,-4.30451334e-03f,+3.04452289e-04f,+0.00000000e+00f,+0.00000000e+00f,
-3.56881064e-05f,-1.11510744e-02f,+1.93356145e-02f,-1.27621388e-06f,+0.00000000e+00f,
+8.03056810e-06f,+6.00858039e-06f,+9.21104476e-03f,-2.73764635e-05f,+1.26894964e-02f,
-9.51242819e-03f,+8.36771447e-03f,-1.59239173e-02f,-2.10152539e-05f,+1.84317725e-03f,
-2.77747095e-05f,+0.00000000e+00f,-9.66146961e-03f,-1.29601449e-05f,-1.30151329e-03f,
+0.00000000e+00f,+0.00000000e+00f,-3.14001017e-03f,+0.00000000e+00f,-7.26658691e-05f,
-6.96687493e-03f,+1.55994348e-06f,+1.71396825e-02f,+0.00000000e+00f,-1.04745869e-02f,
-5.63819136e-04f,-5.33358520e-03f,-1.02358663e-05f,+2.71457676e-02f,+0.00000000e+00f,
-1.58601360e-05f,-1.32751069e-03f,+5.23810450e-04f,-1.20413251e-05f,}; 
k2c_tensor dense_44_bias = {&dense_44_bias_array[0],1,64,{64, 1, 1, 1, 1}}; 
float dense_44_fwork[3120] = {0}; 

 
float dense_45_kernel_array[64] = {
-1.69860013e-02f,+2.68909186e-01f,+2.10356042e-01f,+2.01830626e-01f,-2.45840520e-01f,
+2.28930175e-01f,+5.98539896e-02f,+2.57402956e-01f,-1.29591331e-01f,+2.41236389e-01f,
-2.03199178e-01f,-1.49128318e-01f,+1.40397996e-01f,-2.27620244e-01f,-2.72379547e-01f,
-1.82044387e-01f,+2.39313319e-01f,-2.53657028e-02f,-1.49782240e-01f,-3.77820134e-02f,
-1.88274011e-01f,-8.87397006e-02f,-1.96675658e-02f,+1.04989409e-01f,+5.99901676e-02f,
+8.85036513e-02f,-9.02344752e-03f,-7.83911049e-02f,-2.82594860e-01f,+9.54376161e-02f,
-2.95076281e-01f,-1.69975415e-01f,-3.23670357e-02f,+1.63338080e-01f,+1.31744102e-01f,
+3.40884514e-02f,+1.55100539e-01f,+6.24681041e-02f,+1.25095546e-01f,-2.68076956e-01f,
+1.29987672e-01f,+1.27891243e-01f,+3.18421833e-02f,+5.87093979e-02f,+1.24914110e-01f,
+1.94960296e-01f,-1.58330247e-01f,+8.92819688e-02f,+2.05499709e-01f,+4.00152914e-02f,
+1.35193747e-02f,-2.02882648e-01f,+2.00977102e-01f,+9.39079523e-02f,-1.56895280e-01f,
-7.49018714e-02f,+1.71441942e-01f,+1.11627273e-01f,-2.95924574e-01f,+3.43962312e-02f,
+1.37253687e-01f,+1.81210741e-01f,+4.61593047e-02f,-1.20732166e-01f,}; 
k2c_tensor dense_45_kernel = {&dense_45_kernel_array[0],2,64,{64, 1, 1, 1, 1}}; 
float dense_45_bias_array[1] = {
-9.22711297e-06f,}; 
k2c_tensor dense_45_bias = {&dense_45_bias_array[0],1,1,{1,1,1,1,1}}; 
float dense_45_fwork[128] = {0}; 

 
k2c_conv2d(&conv2d_22_output,conv2d_22_input_1_input,&conv2d_22_kernel, 
	&conv2d_22_bias,conv2d_22_stride,conv2d_22_dilation,k2c_relu); 
k2c_pad2d(&max_pooling2d_22_padded_input,&conv2d_22_output,max_pooling2d_22_fill, 
	max_pooling2d_22_pad); 
k2c_maxpool2d(&max_pooling2d_22_output,&max_pooling2d_22_padded_input,max_pooling2d_22_pool_size, 
	max_pooling2d_22_stride); 
k2c_flatten(&flatten_22_1_output,&max_pooling2d_22_output); 
k2c_dense(&dense_44_output,&flatten_22_1_output,&dense_44_kernel, 
	&dense_44_bias,k2c_relu,dense_44_fwork); 
k2c_dense(dense_45_1_output,&dense_44_output,&dense_45_kernel, 
	&dense_45_bias,k2c_sigmoid,dense_45_fwork); 

 } 

void keras2c_model_initialize() { 

} 

void keras2c_model_terminate() { 

} 

