#include <math.h> 
#include <string.h> 
#include <iostream>
#include "../Model/include/k2c_include.h" 
#include "../Model/include/k2c_tensor_include.h" 
#include "./keras2c_model_MLP_SND_RTT.h"


 

 using namespace std;


void MLP_SND_RTTModel:: keras2c_model(const k2c_tensor* dense_8_input_input, k2c_tensor* dense_11_output) { 

float dense_8_output_array[20] = {0}; 
k2c_tensor dense_8_output = {&dense_8_output_array[0],1,20,{20, 1, 1, 1, 1}}; 
float dense_8_kernel_array[40] = {
+9.43582430e-02f,+2.50071704e-01f,-1.62910335e-02f,-1.73468217e-02f,-1.15924433e-03f,
+3.60305086e-02f,+3.66558880e-03f,+2.43508250e-01f,-1.50023429e-02f,-1.25762736e-02f,
-7.25768209e-02f,-4.79671471e-02f,+4.89674509e-04f,-1.60865895e-02f,-2.97675487e-02f,
+1.57446861e-01f,-1.08601384e-01f,-3.48509774e-02f,-1.07421086e-03f,+1.75623938e-01f,
+3.39033037e-01f,-1.91229954e-01f,-1.86155550e-02f,-3.86627689e-02f,-2.68813789e-01f,
-3.54348496e-02f,-2.40627062e-02f,+7.07492605e-02f,-2.26534605e-01f,+2.13352125e-03f,
+2.43065372e-01f,-3.54608186e-02f,-6.72873110e-03f,-1.16081946e-02f,-3.97189148e-02f,
-9.40657407e-02f,+2.31062144e-01f,+4.36189206e-04f,-2.51615018e-01f,-8.39258656e-02f,
}; 
k2c_tensor dense_8_kernel = {&dense_8_kernel_array[0],2,40,{ 2,20, 1, 1, 1}}; 
float dense_8_bias_array[20] = {
+1.24217555e-01f,+6.63137957e-02f,+0.00000000e+00f,+0.00000000e+00f,+2.49287233e-01f,
-5.64688956e-03f,+0.00000000e+00f,+2.31356218e-01f,+2.10939959e-01f,-3.55829811e-03f,
+2.74509415e-02f,+0.00000000e+00f,+0.00000000e+00f,+0.00000000e+00f,+0.00000000e+00f,
+1.08470984e-01f,+5.58081595e-03f,-1.70936808e-03f,+2.33103916e-01f,+1.04926310e-01f,
}; 
k2c_tensor dense_8_bias = {&dense_8_bias_array[0],1,20,{20, 1, 1, 1, 1}}; 
float dense_8_fwork[42] = {0}; 

 
float dense_9_output_array[20] = {0}; 
k2c_tensor dense_9_output = {&dense_9_output_array[0],1,20,{20, 1, 1, 1, 1}}; 
float dense_9_kernel_array[400] = {
+6.00852072e-04f,+2.31557280e-01f,-4.73838449e-02f,-4.99905944e-02f,+8.85269791e-03f,
+3.67248058e-03f,-3.51758003e-02f,-3.46479006e-03f,+1.30743593e-01f,-2.95969620e-02f,
+1.51672632e-01f,+9.49989352e-03f,+1.12401666e-02f,-3.59833948e-02f,+1.41131505e-01f,
+1.69315383e-01f,-9.43012163e-03f,+9.41463560e-03f,+2.20813900e-01f,+2.01212093e-01f,
+3.64820845e-02f,-2.32276708e-01f,+2.27940194e-02f,+1.69399045e-02f,-2.56509244e-01f,
-4.71308939e-02f,-3.60273495e-02f,-2.77228445e-01f,+5.38271904e-01f,-4.89019528e-02f,
+4.19976473e-01f,-3.39516968e-01f,-2.66202599e-01f,+2.34551094e-02f,+4.14040267e-01f,
+4.44523811e-01f,+4.52675335e-02f,-4.81710546e-02f,+4.00990397e-01f,+4.71441150e-01f,
+3.09638493e-02f,+3.27910222e-02f,+4.94077317e-02f,+1.81368701e-02f,+1.97082274e-02f,
-4.33393717e-02f,+1.67666748e-03f,+2.94494294e-02f,+4.48936932e-02f,+2.26970427e-02f,
+1.11346617e-02f,+3.76703590e-03f,-1.20209679e-02f,-1.69638768e-02f,-4.32456248e-02f,
-1.83431730e-02f,-8.23368877e-03f,+2.72278227e-02f,+2.20208652e-02f,-3.05415988e-02f,
-1.42735839e-02f,-2.67682672e-02f,+1.51703991e-02f,+2.25166418e-02f,-1.93754565e-02f,
+1.08946338e-02f,-5.46202064e-05f,-3.91966812e-02f,+1.45782940e-02f,+1.22380480e-02f,
-9.91320610e-03f,-4.88876216e-02f,+4.57588583e-03f,-1.08091459e-02f,+2.02342905e-02f,
+2.10064091e-02f,-4.21530604e-02f,-1.11509077e-02f,-2.43231785e-02f,-5.65754250e-03f,
-4.80041169e-02f,+7.73983192e+00f,-4.16681878e-02f,+2.92536505e-02f,+7.45606327e+00f,
-1.26877800e-02f,+3.29567902e-02f,+7.45858526e+00f,-6.83988905e+00f,+3.83503996e-02f,
-7.11669397e+00f,+7.37375021e+00f,+7.39192581e+00f,-9.22162458e-03f,-7.09563160e+00f,
-7.11084414e+00f,+2.41100788e-04f,+3.49648260e-02f,-7.07522821e+00f,-7.00731325e+00f,
+8.89362022e-03f,-3.04202829e-02f,-6.87913969e-03f,-1.81326866e-02f,-3.94958965e-02f,
-6.37995079e-03f,-1.80011392e-02f,-3.01203388e-03f,-2.96600815e-02f,+3.50732077e-03f,
+1.92255818e-03f,-5.57085313e-03f,+5.64710144e-03f,+8.74578953e-04f,-1.68486591e-02f,
-3.83959413e-02f,-4.29958478e-02f,-1.74681544e-02f,-1.02990381e-02f,+3.00386958e-02f,
-2.50943191e-02f,+2.73706950e-02f,-3.40523347e-02f,+4.79045771e-02f,-4.92796674e-02f,
+5.54203987e-03f,+2.85979249e-02f,-3.99505273e-02f,+2.58398168e-02f,+1.77050345e-02f,
-2.11722385e-02f,-9.48239490e-03f,+1.18024722e-02f,-3.69413272e-02f,-2.11243760e-02f,
+3.28195430e-02f,+2.92418934e-02f,-6.09439611e-03f,-3.19299102e-02f,+1.45035051e-02f,
-2.93596517e-02f,+3.43137622e-01f,-4.42734472e-02f,-1.13248453e-02f,+1.68216169e-01f,
+3.18379514e-02f,-2.16791164e-02f,+2.26291373e-01f,+5.08291349e-02f,-2.58591007e-02f,
+8.81226137e-02f,+1.40066579e-01f,+1.49818867e-01f,-3.18182483e-02f,+9.52953398e-02f,
+8.34330544e-02f,-2.01638825e-02f,-3.30332145e-02f,+3.46916988e-02f,+7.17740208e-02f,
+3.57431173e-03f,+6.68551111e+00f,-1.24501362e-02f,+1.02912672e-02f,+6.31898689e+00f,
-2.27037556e-02f,+1.56005062e-02f,+6.34223986e+00f,-5.67585278e+00f,-2.63185054e-02f,
-5.97262096e+00f,+6.35413837e+00f,+6.32379532e+00f,+8.42839479e-03f,-5.96321821e+00f,
-6.00840282e+00f,-6.56746328e-04f,-3.18081267e-02f,-5.97975445e+00f,-5.92628622e+00f,
+2.89926566e-02f,+4.39817049e-02f,+1.64767541e-02f,+2.59332992e-02f,+6.16844231e-03f,
-2.88806856e-04f,+4.09621634e-02f,+4.75576892e-02f,-9.12142918e-03f,+8.54326785e-03f,
+1.59326438e-02f,+3.34006548e-02f,+9.18505806e-03f,-9.81509686e-03f,-3.76442187e-02f,
-2.44556721e-02f,+1.97985023e-03f,+3.98982428e-02f,+3.25484686e-02f,+4.12389114e-02f,
-4.37996276e-02f,+1.03327066e-01f,-4.79634181e-02f,+6.54423237e-03f,-9.80870500e-02f,
-4.75637428e-02f,-1.05952248e-02f,-8.58520418e-02f,+6.84219822e-02f,-1.09746819e-02f,
+1.88208118e-01f,-1.05997920e-01f,-1.02340646e-01f,+2.19525024e-03f,+1.86195120e-01f,
+2.38209561e-01f,-1.41487122e-02f,-1.99113619e-02f,+2.72317201e-01f,+2.41676152e-01f,
+8.74699280e-03f,+2.65189260e-03f,+7.60221481e-03f,-5.74891642e-03f,+3.35816778e-02f,
-2.24071741e-03f,-9.46759060e-03f,-3.75417694e-02f,+3.14588659e-02f,+3.35147418e-02f,
-2.34632138e-02f,-3.63967195e-02f,+6.12797588e-03f,+4.21403721e-03f,+1.38489343e-02f,
+3.03101651e-02f,-1.67554617e-03f,+3.84459831e-02f,-2.40019690e-02f,+1.98937394e-02f,
-4.17683125e-02f,+1.80711411e-02f,-3.82956117e-03f,-1.81812048e-03f,+8.40071589e-03f,
-8.90424103e-03f,+3.49170677e-02f,-3.28644514e-02f,+4.37103249e-02f,-1.44832022e-02f,
+1.70351602e-02f,+6.99383020e-03f,-5.19392639e-03f,+1.83662511e-02f,+2.43061781e-03f,
-4.50637937e-02f,+9.25911590e-03f,+4.91682403e-02f,+1.30564012e-02f,-2.95917150e-02f,
-2.59500034e-02f,+3.12268771e-02f,-3.99819836e-02f,-4.83197570e-02f,-4.55899499e-02f,
+1.00809336e-02f,+3.60761173e-02f,+1.46480240e-02f,-4.16747555e-02f,+8.38792324e-03f,
+2.20522545e-02f,-4.47379462e-02f,-2.61288285e-02f,-1.36339888e-02f,-1.66815147e-02f,
+1.31222345e-02f,+4.91332076e-02f,+2.27987282e-02f,+3.79122533e-02f,-1.49166211e-02f,
-1.40539035e-02f,+4.10174020e-02f,-4.22009490e-02f,+1.02323666e-02f,-2.91112196e-02f,
-2.17426177e-02f,+5.80141693e-03f,-3.60767841e-02f,+4.75000255e-02f,-2.25814469e-02f,
+4.54796217e-02f,-8.42066854e-03f,-2.83234362e-02f,+1.73439421e-02f,-3.73246670e-02f,
+2.72960179e-02f,+3.77078392e-02f,+2.97343731e-03f,+5.35073131e-03f,-1.84028968e-02f,
-1.18158683e-02f,+4.05907363e-01f,-7.34584406e-03f,+2.45661177e-02f,+2.55238593e-01f,
-4.69826572e-02f,+3.17635275e-02f,+3.53528827e-01f,-4.86027040e-02f,+3.67582552e-02f,
-2.27312073e-01f,+3.32886279e-01f,+3.30004185e-01f,+2.22669132e-02f,-1.98965937e-01f,
-2.03773230e-01f,+2.13629343e-02f,-2.10680850e-02f,-1.67792037e-01f,-2.18907773e-01f,
-2.52937153e-03f,-1.72918160e-02f,+3.91110070e-02f,+3.66714261e-02f,-1.89665765e-01f,
-2.48273257e-02f,-2.88037788e-02f,-2.45371446e-01f,+1.21860117e-01f,-3.11308783e-02f,
+2.49004364e-01f,-1.63437426e-01f,-2.11244881e-01f,-9.10214335e-03f,+3.24402571e-01f,
+3.29919010e-01f,-4.44406644e-02f,-3.65429893e-02f,+3.19893211e-01f,+2.76464969e-01f,
-1.73630603e-02f,+4.08664867e-02f,-4.07215208e-03f,+1.22961774e-02f,+1.86720453e-02f,
-3.26415673e-02f,-5.43593243e-03f,-1.26195922e-02f,+3.39188017e-02f,-1.03487149e-02f,
+9.05992184e-03f,-9.81383864e-03f,+3.34578902e-02f,-3.48267704e-03f,+3.34732346e-02f,
-2.09281826e-03f,-1.62595026e-02f,-6.96877390e-03f,+3.06996424e-03f,-3.26090679e-02f,
+3.20559777e-02f,+7.24262333e+00f,+3.82326134e-02f,-2.97938585e-02f,+6.96674061e+00f,
+3.05883624e-02f,+2.08411366e-03f,+6.96794224e+00f,-6.34113121e+00f,-1.46397604e-02f,
-6.61065769e+00f,+6.96998596e+00f,+6.95724869e+00f,-1.57645233e-02f,-6.58506536e+00f,
-6.59086752e+00f,-4.35082912e-02f,+3.08474936e-02f,-6.59523773e+00f,-6.56570292e+00f,
-2.17551589e-02f,+3.55050802e-01f,-4.47671488e-03f,-3.17281485e-03f,+3.21886897e-01f,
-2.78798472e-02f,-1.57031044e-02f,+2.88015544e-01f,+2.01982260e-02f,+4.10792045e-02f,
-9.32603255e-02f,+3.19173098e-01f,+2.70768702e-01f,+7.10172579e-03f,-1.18327670e-01f,
-1.13068707e-01f,+1.19426101e-03f,+2.94732489e-02f,-1.40347704e-01f,-1.33130237e-01f,
}; 
k2c_tensor dense_9_kernel = {&dense_9_kernel_array[0],2,400,{20,20, 1, 1, 1}}; 
float dense_9_bias_array[20] = {
+0.00000000e+00f,+2.70263225e-01f,+0.00000000e+00f,+0.00000000e+00f,+1.19606540e-01f,
+0.00000000e+00f,+0.00000000e+00f,+1.50453359e-01f,+1.52153289e-02f,-1.51979818e-03f,
+5.23154177e-02f,+1.25330314e-01f,+1.05932698e-01f,+0.00000000e+00f,+6.12969697e-02f,
+5.22107780e-02f,+0.00000000e+00f,+0.00000000e+00f,+6.40684813e-02f,+6.49920031e-02f,
}; 
k2c_tensor dense_9_bias = {&dense_9_bias_array[0],1,20,{20, 1, 1, 1, 1}}; 
float dense_9_fwork[420] = {0}; 

 
float dense_10_output_array[20] = {0}; 
k2c_tensor dense_10_output = {&dense_10_output_array[0],1,20,{20, 1, 1, 1, 1}}; 
float dense_10_kernel_array[400] = {
+6.86737150e-03f,-1.37482658e-02f,-3.63540277e-02f,-4.69841249e-02f,+3.95284407e-02f,
-3.68887298e-02f,+3.73667814e-02f,-4.39512134e-02f,-2.67361291e-02f,+8.26277584e-03f,
+8.45037773e-03f,-1.65100023e-03f,+1.40269883e-02f,-1.88637506e-02f,+1.25352256e-02f,
+1.75113194e-02f,+1.36446469e-02f,+4.66767810e-02f,+1.78719796e-02f,-2.59728190e-02f,
+1.38701871e-02f,+5.42981317e-03f,+2.89698294e-03f,-6.42927270e-03f,-1.05653033e-02f,
-1.32223461e-02f,+6.84022903e-01f,+1.61786191e-02f,-1.10081164e-02f,-1.45649761e-01f,
+6.58674479e-01f,-4.88548465e-02f,-7.02560768e-02f,-9.45484564e-02f,+3.34357433e-02f,
-2.53782999e-02f,-5.09736910e-02f,-1.00163028e-01f,-1.11301534e-01f,+6.79467797e-01f,
+8.54372978e-04f,-9.05268267e-03f,+1.95504166e-02f,-4.97829914e-03f,+4.48449291e-02f,
+4.86836322e-02f,-4.34742682e-02f,+2.60435231e-02f,-3.40543278e-02f,-2.93123852e-02f,
-1.83330402e-02f,+1.80316456e-02f,-4.34579700e-03f,+7.00641423e-04f,+2.76148319e-03f,
-4.22031283e-02f,-1.77597404e-02f,+3.86951119e-03f,+2.27697603e-02f,+2.63263918e-02f,
+4.32178862e-02f,-1.67415030e-02f,-2.89151557e-02f,+3.74569558e-02f,-2.56735813e-02f,
-4.95303981e-02f,+2.66413204e-02f,-2.94910800e-02f,-1.48406401e-02f,+3.43607180e-02f,
+2.89875381e-02f,-1.89099666e-02f,-3.28008533e-02f,-1.75303221e-02f,+4.68605869e-02f,
+2.99108960e-02f,+4.89804782e-02f,+3.99995558e-02f,+1.26353018e-02f,-3.07884943e-02f,
+1.88110974e-02f,-3.80266681e-02f,-2.10140254e-02f,-3.31535712e-02f,-2.47145295e-02f,
+2.28339224e-03f,+9.39074159e-01f,+2.28863936e-02f,+2.58657392e-02f,-4.60424423e-01f,
+9.69926775e-01f,+3.15613151e-02f,-4.44578141e-01f,-5.06045520e-01f,-5.45178950e-01f,
-2.45515108e-02f,+1.98808755e-03f,-5.23111820e-01f,-5.13391554e-01f,+9.70526159e-01f,
-1.38129219e-02f,+3.64368446e-02f,+4.09289934e-02f,+1.37231462e-02f,-2.14269161e-02f,
+3.67224105e-02f,-7.61233270e-04f,+1.54814236e-02f,-2.21944209e-02f,+3.15018035e-02f,
+3.64438780e-02f,-1.41200423e-02f,+2.61715688e-02f,-4.86464873e-02f,+2.48298086e-02f,
+3.26792486e-02f,+4.74602841e-02f,-4.00870815e-02f,+1.65094770e-02f,-1.53815523e-02f,
-6.61749765e-03f,+3.25536840e-02f,-1.21030584e-02f,+2.58565210e-02f,+2.36480720e-02f,
-4.06300202e-02f,-3.11689377e-02f,-7.60791451e-03f,-3.61863747e-02f,-1.28110051e-02f,
+3.85892391e-03f,+4.90680449e-02f,-1.22382045e-02f,-1.20101571e-02f,-4.81815226e-02f,
-3.31228152e-02f,-2.45250948e-02f,+3.38270925e-02f,-8.48691538e-03f,-4.77206483e-02f,
+1.00215673e-02f,-4.69222367e-02f,+5.73037833e-04f,-2.44673006e-02f,+2.31031291e-02f,
+6.44965190e-03f,+9.47688103e-01f,-8.61697551e-03f,-3.20820622e-02f,-3.68642926e-01f,
+8.88267100e-01f,-3.56241353e-02f,-4.02649045e-01f,-4.36629891e-01f,-4.78623778e-01f,
-3.09262630e-02f,-4.96889129e-02f,-4.16918933e-01f,-4.25020188e-01f,+9.00771737e-01f,
+2.98615955e-02f,+3.92650627e-02f,-4.14052978e-02f,+2.42329724e-02f,-4.55788374e-02f,
+4.66943085e-02f,-8.05136144e-01f,+1.96368732e-02f,-4.97720353e-02f,+9.04985428e-01f,
-7.33339727e-01f,+3.55990417e-02f,+9.35255468e-01f,+8.86393368e-01f,+9.62011755e-01f,
+1.03107803e-02f,+3.84890549e-02f,+8.50381672e-01f,+8.51013243e-01f,-7.51596749e-01f,
-2.97268759e-02f,+5.98113053e-03f,+4.68183421e-02f,+1.43695623e-04f,+2.73159482e-02f,
-6.07706606e-04f,+4.89488319e-02f,+3.69101316e-02f,+1.67773124e-02f,-1.95634365e-02f,
-1.21457474e-02f,+2.53641475e-02f,+4.11996990e-03f,+8.90098885e-03f,-4.45230603e-02f,
-1.67120583e-02f,-4.87357378e-03f,-2.84787063e-02f,-4.13554609e-02f,-4.16458547e-02f,
+5.01462072e-03f,+3.52207944e-02f,-4.31686565e-02f,+1.75842177e-02f,-8.68741423e-03f,
+2.96950042e-02f,-3.97051394e-01f,+1.97116807e-02f,+9.42187943e-03f,+6.94175720e-01f,
-4.54881579e-01f,-2.16687061e-02f,+5.84009528e-01f,+7.00994074e-01f,+5.53093195e-01f,
-4.96945269e-02f,-2.70408690e-02f,+6.62469745e-01f,+7.25276530e-01f,-4.53862250e-01f,
-4.29593325e-02f,-2.92486865e-02f,+1.39040118e-02f,-4.09924462e-02f,-1.58140659e-02f,
+5.83410216e-03f,+9.70859289e-01f,+2.30727699e-02f,+5.17664198e-03f,-4.88923013e-01f,
+9.92157698e-01f,+2.15707757e-02f,-4.72382188e-01f,-4.94186103e-01f,-5.38394392e-01f,
-1.27232075e-03f,+3.12879942e-02f,-4.71194059e-01f,-5.80859363e-01f,+9.65777755e-01f,
-1.67253558e-02f,+2.73797866e-02f,+1.00418394e-02f,-3.96756418e-02f,+1.07696056e-02f,
-1.94190368e-02f,+9.70822692e-01f,-5.69142513e-02f,-3.24790850e-02f,-5.24484038e-01f,
+9.48601305e-01f,-9.71517060e-03f,-5.20305037e-01f,-5.20415366e-01f,-6.27531350e-01f,
+3.94801386e-02f,-2.48438641e-02f,-5.15666425e-01f,-5.95498919e-01f,+1.00820029e+00f,
-4.29267809e-03f,+2.91629769e-02f,+3.08992006e-02f,+7.77726248e-03f,-4.50608730e-02f,
-8.03190470e-03f,-3.10738925e-02f,-1.78615563e-02f,-2.90212985e-02f,-3.27822715e-02f,
-1.37601867e-02f,-1.52751431e-02f,-3.20557579e-02f,-2.55287178e-02f,+2.47228406e-02f,
+3.04547064e-02f,+4.61435057e-02f,+4.56924364e-03f,-4.99185100e-02f,-4.01444919e-02f,
-9.50047560e-03f,-7.93405063e-03f,+1.45970518e-02f,-2.99514551e-02f,-1.56155229e-02f,
-3.44581008e-02f,-4.13821816e-01f,-1.31764822e-02f,-1.36861587e-02f,+6.57547414e-01f,
-3.49537104e-01f,+2.04988550e-02f,+5.85394859e-01f,+5.81904233e-01f,+4.81545627e-01f,
+2.01332681e-02f,+2.75637209e-02f,+6.00168288e-01f,+7.15383232e-01f,-3.48172158e-01f,
-3.93395163e-02f,-1.99402776e-02f,-4.07105125e-02f,+1.54487072e-02f,+3.35307233e-02f,
-7.34905526e-03f,-3.86713177e-01f,-3.48247252e-02f,+1.12845218e-02f,+6.04531646e-01f,
-3.88328820e-01f,+3.75679955e-02f,+5.39999187e-01f,+6.05110288e-01f,+5.41212678e-01f,
-2.85112746e-02f,-2.17910092e-02f,+6.06150329e-01f,+7.13888824e-01f,-3.36875319e-01f,
+3.37865390e-02f,-1.27483979e-02f,+5.86067513e-03f,+3.22134756e-02f,-4.92851250e-02f,
+4.47755493e-02f,-3.37005481e-02f,-6.97129965e-03f,-2.30477583e-02f,+3.32822241e-02f,
+3.89735810e-02f,+4.77316231e-03f,-3.21335681e-02f,-3.16566229e-02f,-2.18155235e-03f,
+4.32139747e-02f,+2.62181796e-02f,-4.61244583e-02f,-2.99930330e-02f,-4.30443659e-02f,
+2.77876519e-02f,+1.85748599e-02f,+4.94895242e-02f,-8.13622400e-03f,+3.42396833e-02f,
+4.48237173e-02f,-1.81085579e-02f,+4.74990532e-03f,-1.36623494e-02f,+3.96089219e-02f,
-3.31191793e-02f,-2.21477505e-02f,-3.24379653e-04f,+4.75417040e-02f,-2.78645754e-02f,
+3.71620543e-02f,-2.70981919e-02f,+1.10508129e-03f,-4.54639271e-03f,+2.78079621e-02f,
+1.45988129e-02f,-1.90240219e-02f,-1.33610414e-02f,-1.33284731e-02f,+5.65191358e-03f,
-7.14314356e-03f,-3.41505289e-01f,+5.59815485e-03f,+3.68158594e-02f,+6.12528205e-01f,
-3.15057158e-01f,-3.51551473e-02f,+5.71211100e-01f,+6.10052288e-01f,+4.77460831e-01f,
+3.67009751e-02f,+2.80616637e-02f,+6.30518734e-01f,+6.57809854e-01f,-3.50294918e-01f,
-2.81680059e-02f,+1.01526584e-02f,-7.04043545e-03f,+8.11297633e-03f,-4.22554128e-02f,
+1.02631859e-02f,-3.27435285e-01f,-1.86242592e-02f,-2.99582537e-02f,+6.02507830e-01f,
-2.91923016e-01f,+3.24257798e-02f,+5.99220932e-01f,+6.31879151e-01f,+4.73518252e-01f,
-4.68235984e-02f,+1.67526994e-02f,+6.37807131e-01f,+6.63680017e-01f,-3.49682510e-01f,
}; 
k2c_tensor dense_10_kernel = {&dense_10_kernel_array[0],2,400,{20,20, 1, 1, 1}}; 
float dense_10_bias_array[20] = {
-1.13914325e-03f,-1.66725239e-03f,-4.80768364e-03f,-5.06725628e-03f,+0.00000000e+00f,
-2.30178609e-03f,+3.45951587e-01f,-6.81103626e-03f,-4.50254511e-03f,+1.50696039e-01f,
+3.27717006e-01f,-3.42948129e-03f,+1.48206741e-01f,+1.55016795e-01f,+2.30598465e-01f,
+0.00000000e+00f,-5.53345121e-03f,+1.48732379e-01f,+1.44092500e-01f,+3.35714191e-01f,
}; 
k2c_tensor dense_10_bias = {&dense_10_bias_array[0],1,20,{20, 1, 1, 1, 1}}; 
float dense_10_fwork[420] = {0}; 

 
float dense_11_kernel_array[20] = {
+4.41940308e-01f,-1.22164391e-01f,+1.29135419e-03f,-2.65955836e-01f,+2.23684013e-01f,
-4.12592977e-01f,-1.18550646e+00f,+3.66273016e-01f,-3.18635628e-02f,+1.44124794e+00f,
-1.50785697e+00f,-4.28577423e-01f,+1.04336262e+00f,+1.27402413e+00f,+1.65844476e+00f,
-3.67823839e-02f,-3.49998385e-01f,+1.39142323e+00f,+1.11680436e+00f,-1.43788815e+00f,
}; 
k2c_tensor dense_11_kernel = {&dense_11_kernel_array[0],2,20,{20, 1, 1, 1, 1}}; 
float dense_11_bias_array[1] = {
-2.12483153e-01f,}; 
k2c_tensor dense_11_bias = {&dense_11_bias_array[0],1,1,{1,1,1,1,1}}; 
float dense_11_fwork[40] = {0}; 

 
k2c_dense(&dense_8_output,dense_8_input_input,&dense_8_kernel, 
	&dense_8_bias,k2c_relu,dense_8_fwork); 
k2c_dense(&dense_9_output,&dense_8_output,&dense_9_kernel, 
	&dense_9_bias,k2c_relu,dense_9_fwork); 
k2c_dense(&dense_10_output,&dense_9_output,&dense_10_kernel, 
	&dense_10_bias,k2c_relu,dense_10_fwork); 
k2c_dense(dense_11_output,&dense_10_output,&dense_11_kernel, 
	&dense_11_bias,k2c_sigmoid,dense_11_fwork); 

 } 

void MLP_SND_RTTModel:: keras2c_model_initialize() { 

    cout << "Inicializando o Modleo MLP_SND_RTT" <<  endl;

} 

void MLP_SND_RTTModel:: keras2c_model_terminate() { 

    cout << "Finalizando o Modleo MLP_SND_RTT" << endl;

} 

